{"learner":{"attributes":{},"feature_names":[],"feature_types":[],"gradient_booster":{"model":{"gbtree_model_param":{"num_parallel_tree":"1","num_trees":"123"},"iteration_indptr":[0,1,2,3,4,5,6,7,8,9,10,11,12,13,14,15,16,17,18,19,20,21,22,23,24,25,26,27,28,29,30,31,32,33,34,35,36,37,38,39,40,41,42,43,44,45,46,47,48,49,50,51,52,53,54,55,56,57,58,59,60,61,62,63,64,65,66,67,68,69,70,71,72,73,74,75,76,77,78,79,80,81,82,83,84,85,86,87,88,89,90,91,92,93,94,95,96,97,98,99,100,101,102,103,104,105,106,107,108,109,110,111,112,113,114,115,116,117,118,119,120,121,122,123],"tree_info":[0,0,0,0,0,0,0,0,0,0,0,0,0,0,0,0,0,0,0,0,0,0,0,0,0,0,0,0,0,0,0,0,0,0,0,0,0,0,0,0,0,0,0,0,0,0,0,0,0,0,0,0,0,0,0,0,0,0,0,0,0,0,0,0,0,0,0,0,0,0,0,0,0,0,0,0,0,0,0,0,0,0,0,0,0,0,0,0,0,0,0,0,0,0,0,0,0,0,0,0,0,0,0,0,0,0,0,0,0,0,0,0,0,0,0,0,0,0,0,0,0,0,0],"trees":[{"base_weights":[4.5688264E-3,2.0802994E-1,-5.3303707E-1,-5.930181E-2,4.1152352E-1,-2.459697E-1,-9.467786E-1,2.312411E-1,-4.4002363E-1,8.8738304E-1,1.675532E-1,-4.474754E-1,5.337402E-1,-5.168642E-1,-1.1284052E0,1.7708734E-2,-3.6886036E-2,1.257582E-3,-3.3985797E-2,5.0907653E-2,-1.7183794E-2,-1.7950587E-2,1.701326E-2,-2.7127236E-2,3.0282447E-2,-8.402233E-3,6.7494586E-2,-3.759719E-2,1.0877514E-2,-4.8226967E-2,-7.786465E-2],"categories":[],"categories_nodes":[],"categories_segments":[],"categories_sizes":[],"default_left":[0,0,0,0,0,0,0,0,0,0,0,0,0,0,0,0,0,0,0,0,0,0,0,0,0,0,0,0,0,0,0],"id":0,"left_children":[1,3,5,7,9,11,13,15,17,19,21,23,25,27,29,-1,-1,-1,-1,-1,-1,-1,-1,-1,-1,-1,-1,-1,-1,-1,-1],"loss_changes":[3.2478705E2,1.1720558E2,9.659297E1,1.0318142E2,1.4185767E2,7.6069664E1,2.5464325E1,6.329666E1,4.5027496E1,6.705249E1,7.377287E1,3.8781525E1,5.72586E1,1.758687E1,1.4919983E1,0E0,0E0,0E0,0E0,0E0,0E0,0E0,0E0,0E0,0E0,0E0,0E0,0E0,0E0,0E0,0E0],"parents":[2147483647,0,0,1,1,2,2,3,3,4,4,5,5,6,6,7,7,8,8,9,9,10,10,11,11,12,12,13,13,14,14],"right_children":[2,4,6,8,10,12,14,16,18,20,22,24,26,28,30,-1,-1,-1,-1,-1,-1,-1,-1,-1,-1,-1,-1,-1,-1,-1,-1],"split_conditions":[-3.538873E-2,-7.962068E-2,-4.7404967E-2,-1.502841E-2,-2.186349E-1,1.0098798E0,-2.1226789E-1,9.982744E-1,-3.2408E-1,8.8323194E-1,-4.1852856E-1,1.1014913E0,-1.2450989E-1,5.926367E-1,1.4331183E0,1.7708734E-2,-3.6886036E-2,1.257582E-3,-3.3985797E-2,5.0907653E-2,-1.7183794E-2,-1.7950587E-2,1.701326E-2,-2.7127236E-2,3.0282447E-2,-8.402233E-3,6.7494586E-2,-3.759719E-2,1.0877514E-2,-4.8226967E-2,-7.786465E-2],"split_indices":[1395,266,1300,1893,642,1670,399,641,1293,1348,1796,1665,4,398,1283,0,0,0,0,0,0,0,0,0,0,0,0,0,0,0,0],"split_type":[0,0,0,0,0,0,0,0,0,0,0,0,0,0,0,0,0,0,0,0,0,0,0,0,0,0,0,0,0,0,0],"sum_hessian":[2.9672808E3,2.153054E3,8.142269E2,9.3086926E2,1.2221846E3,4.816423E2,3.3258463E2,5.2818463E2,4.0268463E2,4.1333847E2,8.088461E2,3.8306924E2,9.8573074E1,9.991923E1,2.3266539E2,4.6928076E2,5.8903847E1,1.3723846E2,2.6544617E2,3.7380383E2,3.9534615E1,1.9950769E2,6.0933844E2,3.5179614E2,3.1273077E1,5.342692E1,4.5146152E1,7.567308E1,2.4246155E1,1.7069615E2,6.196923E1],"tree_param":{"num_deleted":"0","num_feature":"3073","num_nodes":"31","size_leaf_vector":"1"}},{"base_weights":[1.0766964E-3,1.9989459E-1,-4.9226123E-1,-8.08323E-2,3.9204633E-1,-2.3497076E-1,-9.1532624E-1,2.1863146E-1,-4.5365342E-1,5.982966E-1,-9.459236E-2,-4.4411205E-2,-8.558921E-1,-1.4595933E0,-7.5838757E-1,1.7431399E-2,-3.8891003E-2,1.852576E-2,-2.8273797E-2,3.3391472E-2,-2.1058654E-2,2.2981392E-2,-2.154613E-2,-4.6659313E-2,5.524131E-3,1.0081495E-2,-5.038144E-2,2.9571378E-3,-7.642075E-2,-7.7775717E-3,-4.701757E-2],"categories":[],"categories_nodes":[],"categories_segments":[],"categories_sizes":[],"default_left":[0,0,0,0,0,0,0,0,0,0,0,0,0,0,0,0,0,0,0,0,0,0,0,0,0,0,0,0,0,0,0],"id":1,"left_children":[1,3,5,7,9,11,13,15,17,19,21,23,25,27,29,-1,-1,-1,-1,-1,-1,-1,-1,-1,-1,-1,-1,-1,-1,-1,-1],"loss_changes":[2.9291202E2,1.1484848E2,9.315767E1,9.675601E1,1.26900955E2,6.3235462E1,2.6572418E1,6.2548885E1,3.5780037E1,6.320938E1,7.0480194E1,5.657815E1,2.0344933E1,7.5579987E0,2.7672913E1,0E0,0E0,0E0,0E0,0E0,0E0,0E0,0E0,0E0,0E0,0E0,0E0,0E0,0E0,0E0,0E0],"parents":[2147483647,0,0,1,1,2,2,3,3,4,4,5,5,6,6,7,7,8,8,9,9,10,10,11,11,12,12,13,13,14,14],"right_children":[2,4,6,8,10,12,14,16,18,20,22,24,26,28,30,-1,-1,-1,-1,-1,-1,-1,-1,-1,-1,-1,-1,-1,-1,-1,-1],"split_conditions":[-4.0908027E-2,-1.5551989E-1,-1.9225098E-2,-4.063531E-2,8.751323E-1,2.996464E-1,-1.093339E0,9.982744E-1,-4.546391E-1,1.1577209E0,-2.0814845E-1,-1.0546144E0,-6.168932E-1,-4.347619E-1,-6.083213E-1,1.7431399E-2,-3.8891003E-2,1.852576E-2,-2.8273797E-2,3.3391472E-2,-2.1058654E-2,2.2981392E-2,-2.154613E-2,-4.6659313E-2,5.524131E-3,1.0081495E-2,-5.038144E-2,2.9571378E-3,-7.642075E-2,-7.7775717E-3,-4.701757E-2],"split_indices":[1395,1675,1300,1893,386,1295,68,641,1293,6,385,1566,1827,1293,1552,0,0,0,0,0,0,0,0,0,0,0,0,0,0,0,0],"split_type":[0,0,0,0,0,0,0,0,0,0,0,0,0,0,0,0,0,0,0,0,0,0,0,0,0,0,0,0,0,0,0],"sum_hessian":[2.9843225E3,2.1275166E3,8.56806E2,8.6474054E2,1.262776E3,5.3375433E2,3.2305167E2,4.7977832E2,3.849622E2,8.8672797E2,3.7604803E2,4.0923306E2,1.245213E2,7.044531E1,2.5260637E2,4.2498514E2,5.479319E1,4.571492E1,3.3924728E2,8.304332E2,5.6294758E1,1.4188194E2,2.341661E2,5.99897E1,3.4924335E2,1.558356E1,1.08937744E2,3.0599413E0,6.738537E1,5.8999405E1,1.9360696E2],"tree_param":{"num_deleted":"0","num_feature":"3073","num_nodes":"31","size_leaf_vector":"1"}},{"base_weights":[1.3852518E-3,1.9675392E-1,-4.344081E-1,-1.0214776E-2,4.4903645E-1,-2.0051348E-1,-8.6051726E-1,-3.2012987E-1,3.4536746E-1,-3.9328116E-1,5.486125E-1,-4.036309E-1,4.8056036E-1,-1.2343206E0,-6.503433E-1,8.169369E-2,-1.7953588E-2,2.191746E-2,-3.2313094E-2,4.6731118E-2,-3.0664189E-2,-7.0967735E-3,3.394258E-2,-2.5601996E-2,3.0789277E-2,-6.470151E-3,5.7240672E-2,-6.52922E-2,1.800294E-2,-1.2009982E-3,-4.250096E-2],"categories":[],"categories_nodes":[],"categories_segments":[],"categories_sizes":[],"default_left":[0,0,0,0,0,0,0,0,0,0,0,0,0,0,0,0,0,0,0,0,0,0,0,0,0,0,0,0,0,0,0],"id":2,"left_children":[1,3,5,7,9,11,13,15,17,19,21,23,25,27,29,-1,-1,-1,-1,-1,-1,-1,-1,-1,-1,-1,-1,-1,-1,-1,-1],"loss_changes":[2.5328128E2,1.0725479E2,9.160222E1,1.2456262E2,7.785863E1,8.261716E1,2.481105E1,4.654121E1,4.8818836E1,2.9333618E1,7.458661E1,5.1094627E1,5.5788807E1,1.3723709E1,2.6342857E1,0E0,0E0,0E0,0E0,0E0,0E0,0E0,0E0,0E0,0E0,0E0,0E0,0E0,0E0,0E0,0E0],"parents":[2147483647,0,0,1,1,2,2,3,3,4,4,5,5,6,6,7,7,8,8,9,9,10,10,11,11,12,12,13,13,14,14],"right_children":[2,4,6,8,10,12,14,16,18,20,22,24,26,28,30,-1,-1,-1,-1,-1,-1,-1,-1,-1,-1,-1,-1,-1,-1,-1,-1],"split_conditions":[-5.1280163E-2,2.2044541E-2,-9.082569E-3,1.2883297E-1,-8.139E-1,8.428139E-1,-5.759549E-1,-2.6019242E0,1.0575697E-1,-8.081597E-1,-8.086318E-1,1.1194905E0,7.429354E-2,8.217058E-1,-5.999638E-1,8.169369E-2,-1.7953588E-2,2.191746E-2,-3.2313094E-2,4.6731118E-2,-3.0664189E-2,-7.0967735E-3,3.394258E-2,-2.5601996E-2,3.0789277E-2,-6.470151E-3,5.7240672E-2,-6.52922E-2,1.800294E-2,-1.2009982E-3,-4.250096E-2],"split_indices":[1395,1542,1300,1668,1631,260,68,69,1287,1545,1918,256,645,382,1552,0,0,0,0,0,0,0,0,0,0,0,0,0,0,0,0],"split_type":[0,0,0,0,0,0,0,0,0,0,0,0,0,0,0,0,0,0,0,0,0,0,0,0,0,0,0,0,0,0,0],"sum_hessian":[2.9728633E3,2.0530278E3,9.1983563E2,1.1283259E3,9.247018E2,5.9481024E2,3.250254E2,6.029297E2,5.2539624E2,9.744668E1,8.2725507E2,4.5848352E2,1.363267E2,1.15223175E2,2.0980222E2,1.0980866E1,5.9194885E2,4.8086508E2,4.4531162E1,1.3388346E1,8.4058334E1,1.312512E2,6.9600385E2,4.1486298E2,4.362055E1,7.14873E1,6.483942E1,1.10449425E2,4.773749E0,5.0988117E1,1.588141E2],"tree_param":{"num_deleted":"0","num_feature":"3073","num_nodes":"31","size_leaf_vector":"1"}},{"base_weights":[-1.7392486E-3,1.2832786E-1,-6.4851886E-1,-6.814303E-2,3.682443E-1,-3.4446284E-1,-9.9444956E-1,-2.792567E-1,3.0936116E-1,-8.0972826E-1,4.7011587E-1,-4.3608898E-1,7.531567E-1,-1.0896819E0,-2.705075E-2,-9.925261E-3,-5.6804884E-2,2.0726569E-2,-4.494769E-2,3.543877E-2,-4.9672138E-2,-3.8603086E-2,2.6218602E-2,6.1991615E-3,-3.039566E-2,5.7383996E-2,-5.7832897E-2,-2.3186808E-2,-6.1349988E-2,-7.472115E-2,3.242504E-2],"categories":[],"categories_nodes":[],"categories_segments":[],"categories_sizes":[],"default_left":[0,0,0,0,0,0,0,0,0,0,0,0,0,0,0,0,0,0,0,0,0,0,0,0,0,0,0,0,0,0,0],"id":3,"left_children":[1,3,5,7,9,11,13,15,17,19,21,23,25,27,29,-1,-1,-1,-1,-1,-1,-1,-1,-1,-1,-1,-1,-1,-1,-1,-1],"loss_changes":[2.5027927E2,1.1678189E2,5.2050735E1,1.086837E2,1.3422476E2,2.7144066E1,2.1388702E1,6.0278053E1,6.2539387E1,2.5573193E1,6.9634094E1,2.3818691E1,1.7082245E1,1.762085E1,2.263915E1,0E0,0E0,0E0,0E0,0E0,0E0,0E0,0E0,0E0,0E0,0E0,0E0,0E0,0E0,0E0,0E0],"parents":[2147483647,0,0,1,1,2,2,3,3,4,4,5,5,6,6,7,7,8,8,9,9,10,10,11,11,12,12,13,13,14,14],"right_children":[2,4,6,8,10,12,14,16,18,20,22,24,26,28,30,-1,-1,-1,-1,-1,-1,-1,-1,-1,-1,-1,-1,-1,-1,-1,-1],"split_conditions":[3.7317362E-1,5.0936628E-2,-1.1720554E-2,4.0664884E-1,-1.493283E0,1.4476302E0,2.206049E0,1.3700266E0,1.070616E0,-1.9385453E-1,-1.7125009E0,-3.2681027E-1,2.1774974E0,-7.086346E-2,-1.7924955E0,-9.925261E-3,-5.6804884E-2,2.0726569E-2,-4.494769E-2,3.543877E-2,-4.9672138E-2,-3.8603086E-2,2.6218602E-2,6.1991615E-3,-3.039566E-2,5.7383996E-2,-5.7832897E-2,-2.3186808E-2,-6.1349988E-2,-7.472115E-2,3.242504E-2],"split_indices":[246,1542,1379,1540,256,1675,388,1843,1651,1295,1616,1808,460,1400,1670,0,0,0,0,0,0,0,0,0,0,0,0,0,0,0,0],"split_type":[0,0,0,0,0,0,0,0,0,0,0,0,0,0,0,0,0,0,0,0,0,0,0,0,0,0,0,0,0,0,0],"sum_hessian":[2.9731074E3,2.4759888E3,4.971187E2,1.3616393E3,1.1143494E3,2.6563467E2,2.3148404E2,8.734407E2,4.881986E2,8.8145645E1,1.0262037E3,2.4572496E2,1.9909723E1,2.1062352E2,2.086052E1,7.9933997E2,7.410072E1,4.497131E2,3.8485523E1,9.2048E0,7.894085E1,4.2393307E1,9.838104E2,5.7753166E1,1.8797179E2,1.683174E1,3.0779834E0,3.868053E1,1.7194298E2,6.1941E0,1.466642E1],"tree_param":{"num_deleted":"0","num_feature":"3073","num_nodes":"31","size_leaf_vector":"1"}},{"base_weights":[-5.3178538E-3,1.2225102E-1,-6.169671E-1,2.1361995E-1,-3.1203714E-1,-3.5717624E-1,-9.2279536E-1,-5.913908E-2,3.8490647E-1,-7.522208E-1,-1.3499421E-1,-4.5792514E-1,5.615481E-1,-1.0136201E0,9.3724225E-3,-9.621424E-3,2.6948133E-2,2.5304962E-2,-1.33457845E-2,1.4221226E-2,-4.695107E-2,-1.702846E-2,2.9626375E-2,-8.278262E-3,-4.086137E-2,-4.441218E-2,4.9120046E-2,-2.1840785E-2,-5.8158368E-2,-5.611084E-2,4.378249E-2],"categories":[],"categories_nodes":[],"categories_segments":[],"categories_sizes":[],"default_left":[0,0,0,0,0,0,0,0,0,0,0,0,0,0,0,0,0,0,0,0,0,0,0,0,0,0,0,0,0,0,0],"id":4,"left_children":[1,3,5,7,9,11,13,15,17,19,21,23,25,27,29,-1,-1,-1,-1,-1,-1,-1,-1,-1,-1,-1,-1,-1,-1,-1,-1],"loss_changes":[2.3145981E2,9.746263E1,4.0342896E1,9.479244E1,3.3178703E1,2.6028126E1,1.9862686E1,6.2551083E1,9.857489E1,2.3944824E1,4.5933132E1,2.6279327E1,1.7934933E1,1.7924118E1,2.2362356E1,0E0,0E0,0E0,0E0,0E0,0E0,0E0,0E0,0E0,0E0,0E0,0E0,0E0,0E0,0E0,0E0],"parents":[2147483647,0,0,1,1,2,2,3,3,4,4,5,5,6,6,7,7,8,8,9,9,10,10,11,11,12,12,13,13,14,14],"right_children":[2,4,6,8,10,12,14,16,18,20,22,24,26,28,30,-1,-1,-1,-1,-1,-1,-1,-1,-1,-1,-1,-1,-1,-1,-1,-1],"split_conditions":[3.5733208E-1,-1.8481417E-2,-1.1720554E-2,-2.1473953E-1,-6.7655945E-1,1.8631734E0,2.206049E0,6.876912E-1,6.6895205E-1,-7.452128E-1,7.0736897E-1,2.518245E-1,-5.338663E-1,-6.644984E-2,-9.412759E-1,-9.621424E-3,2.6948133E-2,2.5304962E-2,-1.33457845E-2,1.4221226E-2,-4.695107E-2,-1.702846E-2,2.9626375E-2,-8.278262E-3,-4.086137E-2,-4.441218E-2,4.9120046E-2,-2.1840785E-2,-5.8158368E-2,-5.611084E-2,4.378249E-2],"split_indices":[246,1399,1379,643,1549,1797,388,1798,99,678,1130,1806,1295,1400,54,0,0,0,0,0,0,0,0,0,0,0,0,0,0,0,0],"split_type":[0,0,0,0,0,0,0,0,0,0,0,0,0,0,0,0,0,0,0,0,0,0,0,0,0,0,0,0,0,0,0],"sum_hessian":[2.9644248E3,2.453508E3,5.1091678E2,2.0274626E3,4.2604532E2,2.774231E2,2.3349368E2,7.823278E2,1.2451349E3,1.2127334E2,3.0477197E2,2.5045891E2,2.6964193E1,2.1268369E2,2.0809996E1,6.4031036E2,1.4201747E2,1.050112E3,1.9502286E2,1.8436703E1,1.0283663E2,2.3804091E2,6.673107E1,1.3889915E2,1.1155977E2,5.8164787E0,2.1147715E1,4.4596317E1,1.6808737E2,8.895132E0,1.1914863E1],"tree_param":{"num_deleted":"0","num_feature":"3073","num_nodes":"31","size_leaf_vector":"1"}},{"base_weights":[-5.125785E-3,1.1415791E-1,-6.238353E-1,3.337151E-1,-1.0152693E-1,-3.762609E-1,-1.0761788E0,5.7978207E-1,-2.5708599E-3,1.7668231E-1,-2.9940745E-1,-1.605866E-1,-9.686981E-1,-1.3735083E0,-7.795108E-1,7.0252987E-3,3.9911505E-2,1.2412562E-2,-2.6874414E-2,-1.0518496E-2,2.7298633E-2,-5.2352477E-4,-3.3755463E-2,-1.2654761E-2,6.5947644E-2,-6.0868155E-2,-7.949151E-3,-7.544809E-2,-1.892118E-2,-5.78881E-2,-1.4175445E-2],"categories":[],"categories_nodes":[],"categories_segments":[],"categories_sizes":[],"default_left":[0,0,0,0,0,0,0,0,0,0,0,0,0,0,0,0,0,0,0,0,0,0,0,0,0,0,0,0,0,0,0],"id":5,"left_children":[1,3,5,7,9,11,13,15,17,19,21,23,25,27,29,-1,-1,-1,-1,-1,-1,-1,-1,-1,-1,-1,-1,-1,-1,-1,-1],"loss_changes":[2.2010622E2,1.18439545E2,5.3579163E1,1.02551956E2,6.953301E1,3.9847393E1,1.3922333E1,6.856096E1,7.0524925E1,7.5183395E1,8.009311E1,3.1912462E1,1.659031E1,1.0694458E1,1.6067924E1,0E0,0E0,0E0,0E0,0E0,0E0,0E0,0E0,0E0,0E0,0E0,0E0,0E0,0E0,0E0,0E0],"parents":[2147483647,0,0,1,1,2,2,3,3,4,4,5,5,6,6,7,7,8,8,9,9,10,10,11,11,12,12,13,13,14,14],"right_children":[2,4,6,8,10,12,14,16,18,20,22,24,26,28,30,-1,-1,-1,-1,-1,-1,-1,-1,-1,-1,-1,-1,-1,-1,-1,-1],"split_conditions":[2.5883107E-2,-3.4183177E-1,5.47082E-1,5.321548E-1,-3.242581E-1,2.0322513E-2,-1.2580143E0,-4.364763E-1,-6.575985E-2,-1.7702413E-1,1.708774E-1,1.6175452E0,1.3477567E0,1.8631734E0,-1.8164057E-1,7.0252987E-3,3.9911505E-2,1.2412562E-2,-2.6874414E-2,-1.0518496E-2,2.7298633E-2,-5.2352477E-4,-3.3755463E-2,-1.2654761E-2,6.5947644E-2,-6.0868155E-2,-7.949151E-3,-7.544809E-2,-1.892118E-2,-5.78881E-2,-1.4175445E-2],"split_indices":[1377,1287,1314,1539,514,1383,1795,1803,1870,266,1,1798,1661,1797,120,0,0,0,0,0,0,0,0,0,0,0,0,0,0,0,0],"split_type":[0,0,0,0,0,0,0,0,0,0,0,0,0,0,0,0,0,0,0,0,0,0,0,0,0,0,0,0,0,0,0],"sum_hessian":[2.980425E3,2.499375E3,4.8104987E2,1.2382979E3,1.2610773E3,3.1207715E2,1.6897272E2,7.146503E2,5.236475E2,5.241949E2,7.368824E2,2.297197E2,8.235746E1,8.257938E1,8.639334E1,2.379005E2,4.7674982E2,3.5685474E2,1.6679282E2,2.5615247E2,2.680424E2,4.1712015E2,3.197622E2,2.1698178E2,1.2737911E1,6.2622517E1,1.9734941E1,7.2230736E1,1.0348642E1,4.825776E1,3.8135582E1],"tree_param":{"num_deleted":"0","num_feature":"3073","num_nodes":"31","size_leaf_vector":"1"}},{"base_weights":[-4.1475743E-3,1.6798364E-1,-4.0753946E-1,-6.31016E-2,3.42118E-1,-8.4673636E-2,-6.662017E-1,1.7065221E-1,-4.1465375E-1,7.6244515E-1,9.933367E-2,1.24831684E-1,-6.341066E-1,2.9652089E-2,-8.022416E-1,1.632938E-2,-2.2790032E-2,-6.1979663E-2,-1.44986985E-2,4.171213E-2,-4.3226536E-2,-1.1589498E-2,1.660942E-2,2.1814516E-2,-1.4508317E-2,4.7237393E-2,-3.575981E-2,-1.5906146E-2,6.789393E-2,-4.5042183E-2,-1.0621934E-2],"categories":[],"categories_nodes":[],"categories_segments":[],"categories_sizes":[],"default_left":[0,0,0,0,0,0,0,0,0,0,0,0,0,0,0,0,0,0,0,0,0,0,0,0,0,0,0,0,0,0,0],"id":6,"left_children":[1,3,5,7,9,11,13,15,17,19,21,23,25,27,29,-1,-1,-1,-1,-1,-1,-1,-1,-1,-1,-1,-1,-1,-1,-1,-1],"loss_changes":[2.0576231E2,8.360185E1,7.39603E1,7.348835E1,1.2081528E2,4.5589157E1,4.659111E1,5.2637405E1,3.636881E1,5.1369003E1,5.8063442E1,3.723033E1,1.4669846E1,3.8036625E1,2.37406E1,0E0,0E0,0E0,0E0,0E0,0E0,0E0,0E0,0E0,0E0,0E0,0E0,0E0,0E0,0E0,0E0],"parents":[2147483647,0,0,1,1,2,2,3,3,4,4,5,5,6,6,7,7,8,8,9,9,10,10,11,11,12,12,13,13,14,14],"right_children":[2,4,6,8,10,12,14,16,18,20,22,24,26,28,30,-1,-1,-1,-1,-1,-1,-1,-1,-1,-1,-1,-1,-1,-1,-1,-1],"split_conditions":[-4.6076603E-2,-7.962068E-2,-2.9505027E-2,1.8795284E-2,-5.3988658E-2,4.7409055E-1,-1.495314E-1,-1.0399424E-2,-8.1848425E-1,9.430993E-1,2.5162846E-1,-5.8604132E-2,-1.0405655E0,8.7216544E-1,1.5946726E0,1.632938E-2,-2.2790032E-2,-6.1979663E-2,-1.44986985E-2,4.171213E-2,-4.3226536E-2,-1.1589498E-2,1.660942E-2,2.1814516E-2,-1.4508317E-2,4.7237393E-2,-3.575981E-2,-1.5906146E-2,6.789393E-2,-4.5042183E-2,-1.0621934E-2],"split_indices":[1395,266,1379,1893,386,2,1405,1356,1578,1891,1668,1310,263,517,1797,0,0,0,0,0,0,0,0,0,0,0,0,0,0,0,0],"split_type":[0,0,0,0,0,0,0,0,0,0,0,0,0,0,0,0,0,0,0,0,0,0,0,0,0,0,0,0,0,0,0],"sum_hessian":[2.9613376E3,2.0760505E3,8.8528723E2,8.924118E2,1.1836387E3,3.9436398E2,4.9092322E2,5.363181E2,3.560937E2,4.3258075E2,7.510579E2,2.8605908E2,1.08304924E2,8.040875E1,4.1051447E2,4.2980948E2,1.0650864E2,4.5579082E1,3.105146E2,4.1476468E2,1.7816086E1,3.1009778E2,4.4096014E2,1.6338574E2,1.22673325E2,4.7704897E0,1.0353443E2,6.43264E1,1.6082355E1,3.5126358E2,5.9250893E1],"tree_param":{"num_deleted":"0","num_feature":"3073","num_nodes":"31","size_leaf_vector":"1"}},{"base_weights":[4.3558488E-3,1.2860452E-1,-5.0592107E-1,1.8413892E-1,-5.784369E-1,-2.8677538E-1,-8.209026E-1,-1.3193297E-2,4.124161E-1,-1.0268408E0,-6.0432333E-2,-8.046785E-1,-1.3176094E-1,-1.2844129E0,-6.6333205E-1,1.6327528E-2,-1.20275E-2,-3.9418606E-4,2.887976E-2,-5.925373E-2,2.738662E-4,-1.0455186E-2,8.084816E-2,4.5319762E-2,-4.4424888E-2,6.9127292E-3,-2.5075225E-2,4.6001687E-3,-6.8305135E-2,-3.687E-2,1.984596E-2],"categories":[],"categories_nodes":[],"categories_segments":[],"categories_sizes":[],"default_left":[0,0,0,0,0,0,0,0,0,0,0,0,0,0,0,0,0,0,0,0,0,0,0,0,0,0,0,0,0,0,0],"id":7,"left_children":[1,3,5,7,9,11,13,15,17,19,21,23,25,27,29,-1,-1,-1,-1,-1,-1,-1,-1,-1,-1,-1,-1,-1,-1,-1,-1],"loss_changes":[1.8778319E2,9.3629364E1,3.979785E1,9.951897E1,4.0283615E1,2.7475048E1,1.6487808E1,9.167684E1,7.111543E1,1.5204544E1,2.0701666E1,1.2127697E1,2.6586445E1,6.778206E0,1.4369362E1,0E0,0E0,0E0,0E0,0E0,0E0,0E0,0E0,0E0,0E0,0E0,0E0,0E0,0E0,0E0,0E0],"parents":[2147483647,0,0,1,1,2,2,3,3,4,4,5,5,6,6,7,7,8,8,9,9,10,10,11,11,12,12,13,13,14,14],"right_children":[2,4,6,8,10,12,14,16,18,20,22,24,26,28,30,-1,-1,-1,-1,-1,-1,-1,-1,-1,-1,-1,-1,-1,-1,-1,-1],"split_conditions":[2.8466296E-1,1.441457E0,-8.123121E-3,2.6616124E-2,-1.0885259E0,-8.4619915E-1,-1.2185005E0,-4.0688628E-1,-4.779972E-1,4.1622636E-1,7.0982414E-1,-1.9764977E0,1.0080221E0,-2.0369177E0,1.1187717E0,1.6327528E-2,-1.20275E-2,-3.9418606E-4,2.887976E-2,-5.925373E-2,2.738662E-4,-1.0455186E-2,8.084816E-2,4.5319762E-2,-4.4424888E-2,6.9127292E-3,-2.5075225E-2,4.6001687E-3,-6.8305135E-2,-3.687E-2,1.984596E-2],"split_indices":[246,1807,1379,5,1537,1558,1631,1350,1551,347,746,1730,1799,559,276,0,0,0,0,0,0,0,0,0,0,0,0,0,0,0,0],"split_type":[0,0,0,0,0,0,0,0,0,0,0,0,0,0,0,0,0,0,0,0,0,0,0,0,0,0,0,0,0,0,0],"sum_hessian":[2.9597964E3,2.3808298E3,5.7896655E2,2.208132E3,1.7269765E2,3.4255045E2,2.364161E2,1.1848452E3,1.023287E3,9.2041145E1,8.065651E1,7.794507E1,2.6460538E2,5.8165333E1,1.7825078E2,4.7484222E2,7.100029E2,2.8896503E2,7.3432196E2,7.967984E1,1.2361305E1,7.489384E1,5.762671E0,3.1816466E0,7.476342E1,1.5328838E2,1.1131702E2,3.2516189E0,5.491371E1,1.668961E2,1.1354669E1],"tree_param":{"num_deleted":"0","num_feature":"3073","num_nodes":"31","size_leaf_vector":"1"}},{"base_weights":[3.8613752E-3,1.6791148E-1,-3.8137844E-1,-7.5326487E-3,3.8228092E-1,-2.1518648E-1,-8.228685E-1,-3.148244E-1,2.5144276E-1,-3.9650896E-1,4.7562128E-1,2.7302219E-2,-5.9968716E-1,-2.6764023E-1,-9.677009E-1,-2.1938285E-2,1.8550072E-2,1.5957324E-2,-4.8171688E-2,-4.8175775E-2,7.1760886E-3,2.5527358E-2,-6.433851E-2,2.0450816E-2,-1.229643E-2,-4.1666282E-3,-4.2633977E-2,3.8409453E-2,-3.1631805E-2,-5.0900068E-2,2.4004495E-2],"categories":[],"categories_nodes":[],"categories_segments":[],"categories_sizes":[],"default_left":[0,0,0,0,0,0,0,0,0,0,0,0,0,0,0,0,0,0,0,0,0,0,0,0,0,0,0,0,0,0,0],"id":8,"left_children":[1,3,5,7,9,11,13,15,17,19,21,23,25,27,29,-1,-1,-1,-1,-1,-1,-1,-1,-1,-1,-1,-1,-1,-1,-1,-1],"loss_changes":[1.8729376E2,7.817349E1,6.476453E1,9.111861E1,6.819069E1,6.0097588E1,1.9177917E1,4.467256E1,5.1414776E1,3.0962105E1,5.2103638E1,4.1415306E1,3.249109E1,1.9914434E1,1.4421448E1,0E0,0E0,0E0,0E0,0E0,0E0,0E0,0E0,0E0,0E0,0E0,0E0,0E0,0E0,0E0,0E0],"parents":[2147483647,0,0,1,1,2,2,3,3,4,4,5,5,6,6,7,7,8,8,9,9,10,10,11,11,12,12,13,13,14,14],"right_children":[2,4,6,8,10,12,14,16,18,20,22,24,26,28,30,-1,-1,-1,-1,-1,-1,-1,-1,-1,-1,-1,-1,-1,-1,-1,-1],"split_conditions":[-4.6076603E-2,2.6616124E-2,4.223826E-1,-4.347946E-2,-1.298654E0,5.4512385E-2,-3.9189886E-2,6.4565426E-1,1.0555011E0,-1.6427493E-1,2.7258188E-1,-1.1325394E-1,-3.3868828E-1,-4.3083987E-1,2.0380907E0,-2.1938285E-2,1.8550072E-2,1.5957324E-2,-4.8171688E-2,-4.8175775E-2,7.1760886E-3,2.5527358E-2,-6.433851E-2,2.0450816E-2,-1.229643E-2,-4.1666282E-3,-4.2633977E-2,3.8409453E-2,-3.1631805E-2,-5.0900068E-2,2.4004495E-2],"split_indices":[1395,5,1295,1540,1537,1283,1373,1593,1327,1631,1387,1892,1821,1879,1538,0,0,0,0,0,0,0,0,0,0,0,0,0,0,0,0],"split_type":[0,0,0,0,0,0,0,0,0,0,0,0,0,0,0,0,0,0,0,0,0,0,0,0,0,0,0,0,0,0,0],"sum_hessian":[2.9615598E3,2.0774604E3,8.840993E2,1.1429845E3,9.3447595E2,6.4339197E2,2.4070734E2,5.226314E2,6.20353E2,9.966534E1,8.348106E2,3.9512927E2,2.4826273E2,5.038804E1,1.9031929E2,4.4294366E2,7.9687775E1,5.8830475E2,3.204826E1,4.8235832E1,5.142951E1,8.192849E2,1.5525719E1,1.6463324E2,2.3049603E2,8.207597E1,1.6618674E2,1.2841168E1,3.754687E1,1.8421597E2,6.1033254E0],"tree_param":{"num_deleted":"0","num_feature":"3073","num_nodes":"31","size_leaf_vector":"1"}},{"base_weights":[-5.0134016E-3,9.7956575E-2,-5.525374E-1,1.7461374E-1,-4.423035E-1,-3.307567E-1,-9.6501356E-1,-4.4704108E-3,3.9545164E-1,-7.6219755E-1,1.15756705E-1,-1.2903266E-1,-8.651057E-1,-6.501093E-1,-1.282721E0,1.5646895E-2,-1.0239696E-2,2.8367639E-2,4.2243353E-3,3.3905206E-3,-4.7989093E-2,2.429356E-2,-1.8345838E-2,-3.1044964E-2,9.959578E-3,-4.9378555E-2,2.5002195E-2,-3.864023E-2,4.3911625E-2,-6.845706E-2,-2.4031622E-2],"categories":[],"categories_nodes":[],"categories_segments":[],"categories_sizes":[],"default_left":[0,0,0,0,0,0,0,0,0,0,0,0,0,0,0,0,0,0,0,0,0,0,0,0,0,0,0,0,0,0,0],"id":9,"left_children":[1,3,5,7,9,11,13,15,17,19,21,23,25,27,29,-1,-1,-1,-1,-1,-1,-1,-1,-1,-1,-1,-1,-1,-1,-1,-1],"loss_changes":[1.6659456E2,1.0308495E2,4.2470184E1,8.617329E1,5.5311825E1,3.2841484E1,1.5477463E1,7.66305E1,5.210878E1,3.233313E1,2.0468815E1,3.61425E1,1.4471489E1,1.6412998E1,4.89624E0,0E0,0E0,0E0,0E0,0E0,0E0,0E0,0E0,0E0,0E0,0E0,0E0,0E0,0E0,0E0,0E0],"parents":[2147483647,0,0,1,1,2,2,3,3,4,4,5,5,6,6,7,7,8,8,9,9,10,10,11,11,12,12,13,13,14,14],"right_children":[2,4,6,8,10,12,14,16,18,20,22,24,26,28,30,-1,-1,-1,-1,-1,-1,-1,-1,-1,-1,-1,-1,-1,-1,-1,-1],"split_conditions":[3.0057546E-2,1.1656009E0,4.4795957E-1,1.7180504E-1,-5.3508583E-2,1.3832308E-1,1.7634828E-1,-2.0596588E-1,7.015945E-1,-1.4961356E-1,3.7512785E-1,-3.4651083E-1,2.546655E0,2.206049E0,3.0301244E0,1.5646895E-2,-1.0239696E-2,2.8367639E-2,4.2243353E-3,3.3905206E-3,-4.7989093E-2,2.429356E-2,-1.8345838E-2,-3.1044964E-2,9.959578E-3,-4.9378555E-2,2.5002195E-2,-3.864023E-2,4.3911625E-2,-6.845706E-2,-2.4031622E-2],"split_indices":[1377,398,415,291,1537,1300,101,514,514,1552,1442,1712,1497,388,1834,0,0,0,0,0,0,0,0,0,0,0,0,0,0,0,0],"split_type":[0,0,0,0,0,0,0,0,0,0,0,0,0,0,0,0,0,0,0,0,0,0,0,0,0,0,0,0,0,0,0],"sum_hessian":[2.952969E3,2.4862197E3,4.6674927E2,2.1778787E3,3.0834106E2,3.047128E2,1.6203647E2,1.2031707E3,9.74708E2,1.9576048E2,1.1258059E2,2.2210616E2,8.260663E1,8.290712E1,7.912936E1,4.6531958E2,7.378511E2,6.2717926E2,3.4752872E2,3.7766903E1,1.5799358E2,6.3716263E1,4.8864323E1,8.853647E1,1.3356969E2,7.605999E1,6.546638E0,7.720357E1,5.7035527E0,7.079469E1,8.334659E0],"tree_param":{"num_deleted":"0","num_feature":"3073","num_nodes":"31","size_leaf_vector":"1"}},{"base_weights":[8.866839E-3,1.4163105E-1,-4.246216E-1,3.4424815E-1,-5.0757E-2,-1.7636633E-1,-7.131696E-1,4.429857E-1,-3.8497502E-1,1.3171923E-1,-3.7493083E-1,7.498476E-2,-5.3239685E-1,-1.2367984E0,-5.637488E-1,4.8766765E-3,2.9512493E-2,2.850909E-2,-2.6415566E-2,2.4432175E-2,-2.2860083E-3,-2.5976872E-2,2.0180574E-2,-4.8189308E-3,4.533104E-2,-1.606002E-2,-5.416679E-2,-6.5626375E-2,-6.574452E-3,-6.501878E-3,-3.796841E-2],"categories":[],"categories_nodes":[],"categories_segments":[],"categories_sizes":[],"default_left":[0,0,0,0,0,0,0,0,0,0,0,0,0,0,0,0,0,0,0,0,0,0,0,0,0,0,0,0,0,0,0],"id":10,"left_children":[1,3,5,7,9,11,13,15,17,19,21,23,25,27,29,-1,-1,-1,-1,-1,-1,-1,-1,-1,-1,-1,-1,-1,-1,-1,-1],"loss_changes":[1.6891408E2,8.760032E1,4.916864E1,7.8971954E1,6.8275505E1,3.3260654E1,2.4177032E1,4.9003403E1,1.8243261E1,4.6806385E1,4.7005493E1,3.1223463E1,1.7541569E1,5.6651077E0,2.1041977E1,0E0,0E0,0E0,0E0,0E0,0E0,0E0,0E0,0E0,0E0,0E0,0E0,0E0,0E0,0E0,0E0],"parents":[2147483647,0,0,1,1,2,2,3,3,4,4,5,5,6,6,7,7,8,8,9,9,10,10,11,11,12,12,13,13,14,14],"right_children":[2,4,6,8,10,12,14,16,18,20,22,24,26,28,30,-1,-1,-1,-1,-1,-1,-1,-1,-1,-1,-1,-1,-1,-1,-1,-1],"split_conditions":[-1.4041336E-2,-3.4996453E-1,-7.897542E-2,7.6992637E-1,2.1393366E-1,-1.18082285E-1,-1.093339E0,-2.040586E-1,-9.3657917E-1,-2.534968E-1,1.0656414E0,1.1008033E0,9.410157E-1,1.6616193E0,-3.178977E-1,4.8766765E-3,2.9512493E-2,2.850909E-2,-2.6415566E-2,2.4432175E-2,-2.2860083E-3,-2.5976872E-2,2.0180574E-2,-4.8189308E-3,4.533104E-2,-1.606002E-2,-5.416679E-2,-6.5626375E-2,-6.574452E-3,-6.501878E-3,-3.796841E-2],"split_indices":[1399,1287,1300,99,1893,1302,68,643,1571,641,388,512,1649,2982,1575,0,0,0,0,0,0,0,0,0,0,0,0,0,0,0,0],"split_type":[0,0,0,0,0,0,0,0,0,0,0,0,0,0,0,0,0,0,0,0,0,0,0,0,0,0,0,0,0,0,0],"sum_hessian":[2.9329492E3,2.2458022E3,6.8714703E2,1.093438E3,1.1523643E3,3.702284E2,3.1691867E2,9.6338696E2,1.3005107E2,7.37706E2,4.1465826E2,2.1748048E2,1.527479E2,6.8742134E1,2.4817654E2,2.88436E2,6.74951E2,1.6581076E1,1.1346999E2,2.4437833E2,4.9332764E2,3.4998468E2,6.467356E1,1.8105681E2,3.6423683E1,1.1156404E2,4.1183857E1,6.415888E1,4.583249E0,7.765999E1,1.7051654E2],"tree_param":{"num_deleted":"0","num_feature":"3073","num_nodes":"31","size_leaf_vector":"1"}},{"base_weights":[-4.0300447E-3,6.4474836E-2,-7.3299325E-1,1.603258E-1,-3.282542E-1,-2.8560477E-1,-1.0217744E0,2.551296E-1,-2.9593277E-1,2.109561E-1,-4.9206913E-1,-1.2131873E0,-4.880529E-2,-8.4033996E-1,-1.3494197E0,-7.7223317E-3,1.7945977E-2,-2.2441803E-2,4.1025694E-2,-4.7451045E-2,2.1558037E-2,-1.5774807E-2,-5.1487934E-2,-3.7440576E-3,-7.093736E-2,1.0565828E-2,-4.6110455E-2,-6.538373E-2,-3.0148283E-2,-9.867925E-3,-7.116713E-2],"categories":[],"categories_nodes":[],"categories_segments":[],"categories_sizes":[],"default_left":[0,0,0,0,0,0,0,0,0,0,0,0,0,0,0,0,0,0,0,0,0,0,0,0,0,0,0,0,0,0,0],"id":11,"left_children":[1,3,5,7,9,11,13,15,17,19,21,23,25,27,29,-1,-1,-1,-1,-1,-1,-1,-1,-1,-1,-1,-1,-1,-1,-1,-1],"loss_changes":[1.4688084E2,1.01263824E2,3.2351837E1,9.358768E1,4.6724796E1,2.2016224E1,7.970978E0,7.616898E1,6.3938152E1,3.200233E1,3.8137413E1,4.6664925E0,1.8621264E1,1.0440933E1,4.2273254E0,0E0,0E0,0E0,0E0,0E0,0E0,0E0,0E0,0E0,0E0,0E0,0E0,0E0,0E0,0E0,0E0],"parents":[2147483647,0,0,1,1,2,2,3,3,4,4,5,5,6,6,7,7,8,8,9,9,10,10,11,11,12,12,13,13,14,14],"right_children":[2,4,6,8,10,12,14,16,18,20,22,24,26,28,30,-1,-1,-1,-1,-1,-1,-1,-1,-1,-1,-1,-1,-1,-1,-1,-1],"split_conditions":[5.2223164E-1,6.390512E-1,-2.1434629E-1,2.7154854E-1,-4.5996034E-1,-2.6116735E-1,4.682009E-1,-8.232577E-1,9.7019166E-1,-9.1995305E-1,8.136623E-3,-4.4721863E-1,1.3979316E0,-9.3727225E-1,-1.2134979E0,-7.7223317E-3,1.7945977E-2,-2.2441803E-2,4.1025694E-2,-4.7451045E-2,2.1558037E-2,-1.5774807E-2,-5.1487934E-2,-3.7440576E-3,-7.093736E-2,1.0565828E-2,-4.6110455E-2,-6.538373E-2,-3.0148283E-2,-9.867925E-3,-7.116713E-2],"split_indices":[482,99,1293,1287,1680,49,1707,387,261,459,1300,1343,1559,79,16,0,0,0,0,0,0,0,0,0,0,0,0,0,0,0,0],"split_type":[0,0,0,0,0,0,0,0,0,0,0,0,0,0,0,0,0,0,0,0,0,0,0,0,0,0,0,0,0,0,0],"sum_hessian":[2.939345E3,2.6876797E3,2.5166522E2,2.1608792E3,5.268007E2,9.950228E1,1.5216295E2,1.7894902E3,3.7138885E2,1.2268503E2,4.041157E2,1.939716E1,8.0105125E1,1.00226845E2,5.1936096E1,3.6169193E2,1.4277982E3,3.2717807E2,4.4210793E1,1.9046043E1,1.03638985E2,3.0540866E2,9.8707016E1,3.1757011E0,1.6221458E1,6.2306667E1,1.7798454E1,3.2241642E1,6.798521E1,3.3528504E0,4.8583244E1],"tree_param":{"num_deleted":"0","num_feature":"3073","num_nodes":"31","size_leaf_vector":"1"}},{"base_weights":[-1.968175E-3,1.3148564E-1,-3.6164525E-1,-8.768279E-2,3.0042905E-1,-2.420071E-1,-8.472873E-1,3.103403E-1,-2.7374724E-1,6.9066095E-1,1.0208379E-1,-3.7903348E-1,3.2483745E-1,-1.1839902E0,-5.6702596E-1,2.6016323E-2,-1.8524194E-2,8.4800515E-3,-2.245838E-2,4.0446684E-2,-2.2577254E-2,-1.0458729E-2,1.5535602E-2,-2.2996185E-2,1.2529209E-2,-2.111648E-3,6.764982E-2,-3.789159E-3,-6.4618826E-2,5.661674E-3,-4.695634E-2],"categories":[],"categories_nodes":[],"categories_segments":[],"categories_sizes":[],"default_left":[0,0,0,0,0,0,0,0,0,0,0,0,0,0,0,0,0,0,0,0,0,0,0,0,0,0,0,0,0,0,0],"id":12,"left_children":[1,3,5,7,9,11,13,15,17,19,21,23,25,27,29,-1,-1,-1,-1,-1,-1,-1,-1,-1,-1,-1,-1,-1,-1,-1,-1],"loss_changes":[1.4099605E2,7.935591E1,4.598168E1,6.920948E1,9.359133E1,4.9772198E1,1.4117943E1,4.2767876E1,4.958453E1,5.543094E1,5.224046E1,2.6355995E1,4.7224243E1,8.343048E0,2.2242207E1,0E0,0E0,0E0,0E0,0E0,0E0,0E0,0E0,0E0,0E0,0E0,0E0,0E0,0E0,0E0,0E0],"parents":[2147483647,0,0,1,1,2,2,3,3,4,4,5,5,6,6,7,7,8,8,9,9,10,10,11,11,12,12,13,13,14,14],"right_children":[2,4,6,8,10,12,14,16,18,20,22,24,26,28,30,-1,-1,-1,-1,-1,-1,-1,-1,-1,-1,-1,-1,-1,-1,-1,-1],"split_conditions":[-3.538873E-2,-7.962068E-2,8.496462E-1,-5.037065E-1,-2.186349E-1,1.0250224E0,-1.2352165E0,9.137619E-1,-5.5537856E-1,8.8323194E-1,1.9331348E-1,1.1134396E0,9.604951E-1,-8.6074686E-1,-4.3813622E-1,2.6016323E-2,-1.8524194E-2,8.4800515E-3,-2.245838E-2,4.0446684E-2,-2.2577254E-2,-1.0458729E-2,1.5535602E-2,-2.2996185E-2,1.2529209E-2,-2.111648E-3,6.764982E-2,-3.789159E-3,-6.4618826E-2,5.661674E-3,-4.695634E-2],"split_indices":[1395,266,1314,1281,642,1670,1795,1544,399,1348,1668,10,388,1541,2,0,0,0,0,0,0,0,0,0,0,0,0,0,0,0,0],"split_type":[0,0,0,0,0,0,0,0,0,0,0,0,0,0,0,0,0,0,0,0,0,0,0,0,0,0,0,0,0,0,0],"sum_hessian":[2.9354094E3,2.1414756E3,7.939341E2,9.3238434E2,1.2090911E3,6.382092E2,1.5572484E2,2.9680365E2,6.355807E2,4.066165E2,8.024747E2,5.142324E2,1.2397684E2,6.927455E1,8.6450294E1,2.270198E2,6.978384E1,1.8019597E2,4.5538474E2,3.687274E2,3.7889076E1,3.2202856E2,4.8044608E2,4.5592667E2,5.8305714E1,9.206645E1,3.1910383E1,6.3230515E0,6.29515E1,3.0813683E1,5.5636612E1],"tree_param":{"num_deleted":"0","num_feature":"3073","num_nodes":"31","size_leaf_vector":"1"}},{"base_weights":[1.6518797E-3,1.3764907E-1,-3.2413813E-1,3.5470566E-1,-1.3364693E-2,-1.17679685E-1,-6.2396014E-1,4.4776163E-1,-4.4021067E-1,3.3882833E-1,-1.8625082E-1,-5.1201427E-1,1.9794072E-1,-7.360678E-1,5.7291216E-3,2.757043E-2,-1.0453635E-2,1.45627605E-2,-4.485398E-2,-9.29747E-3,3.1488094E-2,-1.570573E-2,2.2783084E-2,5.335288E-3,-3.893786E-2,3.071617E-2,-6.0394853E-3,-5.9902575E-2,-2.9013177E-2,5.6571133E-2,-1.5966391E-2],"categories":[],"categories_nodes":[],"categories_segments":[],"categories_sizes":[],"default_left":[0,0,0,0,0,0,0,0,0,0,0,0,0,0,0,0,0,0,0,0,0,0,0,0,0,0,0,0,0,0,0],"id":13,"left_children":[1,3,5,7,9,11,13,15,17,19,21,23,25,27,29,-1,-1,-1,-1,-1,-1,-1,-1,-1,-1,-1,-1,-1,-1,-1,-1],"loss_changes":[1.3006592E2,6.7890625E1,5.3442207E1,6.3055E1,7.4487526E1,6.397637E1,2.4875687E1,5.193695E1,3.018922E1,6.161522E1,6.7486626E1,3.7784084E1,3.800122E1,2.083252E1,2.0208002E1,0E0,0E0,0E0,0E0,0E0,0E0,0E0,0E0,0E0,0E0,0E0,0E0,0E0,0E0,0E0,0E0],"parents":[2147483647,0,0,1,1,2,2,3,3,4,4,5,5,6,6,7,7,8,8,9,9,10,10,11,11,12,12,13,13,14,14],"right_children":[2,4,6,8,10,12,14,16,18,20,22,24,26,28,30,-1,-1,-1,-1,-1,-1,-1,-1,-1,-1,-1,-1,-1,-1,-1,-1],"split_conditions":[-4.6076603E-2,-1.0973307E-1,9.636366E-2,4.4723663E-1,-3.3569062E-1,-2.0718604E-1,1.5098296E0,1.1656009E0,-2.2002539E-1,-3.9218324E-1,4.3876237E-1,-3.8993952E-1,5.0109882E-2,-7.165871E-1,-2.0718604E-1,2.757043E-2,-1.0453635E-2,1.45627605E-2,-4.485398E-2,-9.29747E-3,3.1488094E-2,-1.570573E-2,2.2783084E-2,5.335288E-3,-3.893786E-2,3.071617E-2,-6.0394853E-3,-5.9902575E-2,-2.9013177E-2,5.6571133E-2,-1.5966391E-2],"split_indices":[1395,385,1283,1353,1539,1537,1797,398,1818,645,1785,386,52,1578,1537,0,0,0,0,0,0,0,0,0,0,0,0,0,0,0,0],"split_type":[0,0,0,0,0,0,0,0,0,0,0,0,0,0,0,0,0,0,0,0,0,0,0,0,0,0,0,0,0,0,0],"sum_hessian":[2.933586E3,2.0700469E3,8.6353906E2,8.4875586E2,1.221291E3,5.122171E2,3.5132196E2,7.6020056E2,8.8555275E1,4.0180292E2,8.1948804E2,2.2743663E2,2.8478046E2,2.980833E2,5.3238644E1,6.5673047E2,1.0347008E2,3.418546E1,5.436982E1,1.4343669E2,2.583662E2,6.837927E2,1.3569533E2,6.8695305E1,1.5874133E2,1.23073044E2,1.6170741E2,7.348865E1,2.2459468E2,1.1372889E1,4.1865753E1],"tree_param":{"num_deleted":"0","num_feature":"3073","num_nodes":"31","size_leaf_vector":"1"}},{"base_weights":[2.5682417E-3,1.17156714E-1,-3.7325156E-1,2.4022937E-1,-1.8868068E-1,-5.566645E-2,-5.971951E-1,3.9092723E-1,-7.531281E-2,1.7202467E-1,-3.7737206E-1,1.9418137E-1,-5.609372E-1,-6.948783E-1,7.588376E-2,4.026543E-3,3.3416253E-2,1.3278717E-2,-1.7463097E-2,-1.0379727E-2,3.179972E-2,-2.4316128E-2,1.574272E-2,2.0814886E-2,-1.5090577E-2,-1.3723455E-2,-5.5675298E-2,-3.999087E-2,-6.296037E-3,3.387204E-2,-3.9201364E-2],"categories":[],"categories_nodes":[],"categories_segments":[],"categories_sizes":[],"default_left":[0,0,0,0,0,0,0,0,0,0,0,0,0,0,0,0,0,0,0,0,0,0,0,0,0,0,0,0,0,0,0],"id":14,"left_children":[1,3,5,7,9,11,13,15,17,19,21,23,25,27,29,-1,-1,-1,-1,-1,-1,-1,-1,-1,-1,-1,-1,-1,-1,-1,-1],"loss_changes":[1.2575667E2,8.427811E1,4.849485E1,7.592873E1,4.380783E1,3.5869576E1,2.6355865E1,9.297241E1,4.8349323E1,3.913127E1,3.2000164E1,2.1089415E1,1.4571491E1,2.0763733E1,2.7224674E1,0E0,0E0,0E0,0E0,0E0,0E0,0E0,0E0,0E0,0E0,0E0,0E0,0E0,0E0,0E0,0E0],"parents":[2147483647,0,0,1,1,2,2,3,3,4,4,5,5,6,6,7,7,8,8,9,9,10,10,11,11,12,12,13,13,14,14],"right_children":[2,4,6,8,10,12,14,16,18,20,22,24,26,28,30,-1,-1,-1,-1,-1,-1,-1,-1,-1,-1,-1,-1,-1,-1,-1,-1],"split_conditions":[-1.9285114E-2,-6.4441085E-2,-7.962225E-2,7.1148807E-1,-3.292477E-1,-1.4218055E-2,1.2073232E0,-1.2541148E-1,-3.504092E-1,1.1944357E-1,1.3195697E0,-1.2321534E-1,2.890343E-1,1.676368E0,1.2296613E-1,4.026543E-3,3.3416253E-2,1.3278717E-2,-1.7463097E-2,-1.0379727E-2,3.179972E-2,-2.4316128E-2,1.574272E-2,2.0814886E-2,-1.5090577E-2,-1.3723455E-2,-5.5675298E-2,-3.999087E-2,-6.296037E-3,3.387204E-2,-3.9201364E-2],"split_indices":[1383,1287,418,642,1314,1379,1547,1675,1870,1706,388,1432,1575,124,1302,0,0,0,0,0,0,0,0,0,0,0,0,0,0,0,0],"split_type":[0,0,0,0,0,0,0,0,0,0,0,0,0,0,0,0,0,0,0,0,0,0,0,0,0,0,0,0,0,0,0],"sum_hessian":[2.9181702E3,2.23684E3,6.8133026E2,1.5951478E3,6.416922E2,2.8227335E2,3.9905692E2,1.0794032E3,5.157445E2,2.2042078E2,4.2127142E2,1.8928888E2,9.298445E1,3.4845383E2,5.0603107E1,5.1001187E2,5.6939136E2,2.29811E2,2.8593353E2,1.2153424E2,9.8886536E1,3.6424054E2,5.703088E1,1.3085146E2,5.843743E1,6.2222942E1,3.076151E1,2.9385007E2,5.4603737E1,2.989914E1,2.0703966E1],"tree_param":{"num_deleted":"0","num_feature":"3073","num_nodes":"31","size_leaf_vector":"1"}},{"base_weights":[-1.73902E-3,6.7184255E-2,-6.123784E-1,3.1557214E-1,-5.4836717E-2,-1.0941708E0,-3.982501E-1,4.0560126E-1,-6.7509323E-1,1.293746E-1,-3.6394364E-1,1.9090531E-2,-1.1817611E0,2.7060017E-1,-5.935888E-1,2.824513E-2,7.098359E-4,-4.300187E-2,2.3835806E-2,4.1474503E-2,1.0669524E-3,-5.0008525E-3,-3.0712996E-2,-4.3646465E-3,-6.1395038E-2,6.011122E-2,-7.296675E-3,1.2483961E-3,-3.7920017E-2],"categories":[],"categories_nodes":[],"categories_segments":[],"categories_sizes":[],"default_left":[0,0,0,0,0,0,0,0,0,0,0,0,0,0,0,0,0,0,0,0,0,0,0,0,0,0,0,0,0],"id":15,"left_children":[1,3,5,7,9,11,13,15,17,19,21,-1,23,25,27,-1,-1,-1,-1,-1,-1,-1,-1,-1,-1,-1,-1,-1,-1],"loss_changes":[1.2301014E2,7.961749E1,3.0145859E1,7.745063E1,1.0037768E2,1.216893E1,2.7178936E1,4.9490005E1,1.584594E1,8.354575E1,4.342389E1,0E0,4.2257767E0,1.858091E1,1.6367401E1,0E0,0E0,0E0,0E0,0E0,0E0,0E0,0E0,0E0,0E0,0E0,0E0,0E0,0E0],"parents":[2147483647,0,0,1,1,2,2,3,3,4,4,5,5,6,6,7,7,8,8,9,9,10,10,12,12,13,13,14,14],"right_children":[2,4,6,8,10,12,14,16,18,20,22,-1,24,26,28,-1,-1,-1,-1,-1,-1,-1,-1,-1,-1,-1,-1,-1,-1],"split_conditions":[4.444158E-1,-3.387304E-1,-8.515634E-1,9.99245E-2,-2.4073455E-1,-2.2133468E-1,-3.7322927E-2,1.0400412E-1,1.4543829E0,-6.9976383E-1,-4.5638055E-2,1.9090531E-2,-1.5089726E-1,-6.4223856E-1,-1.3933048E0,2.824513E-2,7.098359E-4,-4.300187E-2,2.3835806E-2,4.1474503E-2,1.0669524E-3,-5.0008525E-3,-3.0712996E-2,-4.3646465E-3,-6.1395038E-2,6.011122E-2,-7.296675E-3,1.2483961E-3,-3.7920017E-2],"split_indices":[482,2,1605,1384,2017,250,1383,1353,1547,263,513,0,1390,513,271,0,0,0,0,0,0,0,0,0,0,0,0,0,0],"split_type":[0,0,0,0,0,0,0,0,0,0,0,0,0,0,0,0,0,0,0,0,0,0,0,0,0,0,0,0,0],"sum_hessian":[2.9207627E3,2.6253298E3,2.9543277E2,8.6431995E2,1.7610099E3,8.963732E1,2.0579544E2,7.928576E2,7.14623E1,1.1037906E3,6.5721924E2,4.83325E0,8.480407E1,4.6430305E1,1.5936514E2,5.631946E2,2.2966302E2,6.1793533E1,9.66877E0,1.4666464E2,9.5712604E2,3.205937E2,3.3662555E2,3.547458E0,8.1256615E1,1.3762554E1,3.266775E1,3.3707073E1,1.25658066E2],"tree_param":{"num_deleted":"0","num_feature":"3073","num_nodes":"29","size_leaf_vector":"1"}},{"base_weights":[-2.0218578E-3,7.656243E-2,-5.0176877E-1,2.020663E-1,-2.0147021E-1,-1.251617E0,-4.1198677E-1,-1.9890003E-1,2.8691697E-1,2.823079E-1,-3.146473E-1,-1.4052011E0,7.7108404E-4,-8.961165E-1,-2.6579988E-1,7.943139E-3,-2.3413619E-2,2.35338E-2,1.1110418E-3,-1.6136209E-2,3.400907E-2,-2.1645786E-2,1.274019E-2,-7.6836005E-2,-1.2549941E-2,1.7567968E-2,-5.126957E-2,-3.1696983E-2,-3.0345256E-3],"categories":[],"categories_nodes":[],"categories_segments":[],"categories_sizes":[],"default_left":[0,0,0,0,0,0,0,0,0,0,0,0,0,0,0,0,0,0,0,0,0,0,0,0,0,0,0,0,0],"id":16,"left_children":[1,3,5,7,9,11,13,15,17,19,21,23,-1,25,27,-1,-1,-1,-1,-1,-1,-1,-1,-1,-1,-1,-1,-1,-1],"loss_changes":[1.146675E2,8.808167E1,2.619445E1,5.9217697E1,4.3080853E1,8.181816E0,2.4943916E1,2.9399803E1,6.981678E1,3.618271E1,4.2998306E1,5.293251E0,0E0,1.3600418E1,2.0704754E1,0E0,0E0,0E0,0E0,0E0,0E0,0E0,0E0,0E0,0E0,0E0,0E0,0E0,0E0],"parents":[2147483647,0,0,1,1,2,2,3,3,4,4,5,5,6,6,7,7,8,8,9,9,10,10,11,11,13,13,14,14],"right_children":[2,4,6,8,10,12,14,16,18,20,22,24,-1,26,28,-1,-1,-1,-1,-1,-1,-1,-1,-1,-1,-1,-1,-1,-1],"split_conditions":[3.8320085E-3,-5.718095E-2,-9.220951E-1,-8.4794486E-1,-5.630973E-1,1.1415594E0,-9.376584E-1,-7.239562E-2,4.6262357E-1,-3.645779E-2,5.336509E-1,1.2866971E0,7.7108404E-4,-6.733805E-2,-1.5813477E-1,7.943139E-3,-2.3413619E-2,2.35338E-2,1.1110418E-3,-1.6136209E-2,3.400907E-2,-2.1645786E-2,1.274019E-2,-7.6836005E-2,-1.2549941E-2,1.7567968E-2,-5.126957E-2,-3.1696983E-2,-3.0345256E-3],"split_indices":[1375,1338,1814,3,7,748,126,1381,1795,1769,266,262,0,1406,495,0,0,0,0,0,0,0,0,0,0,0,0,0,0],"split_type":[0,0,0,0,0,0,0,0,0,0,0,0,0,0,0,0,0,0,0,0,0,0,0,0,0,0,0,0,0],"sum_hessian":[2.9178315E3,2.5220852E3,3.9574646E2,1.7378798E3,7.842053E2,4.093357E1,3.548129E2,3.0329578E2,1.434584E3,1.483946E2,6.358107E2,3.641097E1,4.522601E0,8.110062E1,2.7371228E2,1.3045036E2,1.7284541E2,8.462895E2,5.8829456E2,5.894616E1,8.9448456E1,5.2666766E2,1.0914305E2,3.238891E1,4.022063E0,7.453914E0,7.3646706E1,9.7186584E1,1.765257E2],"tree_param":{"num_deleted":"0","num_feature":"3073","num_nodes":"29","size_leaf_vector":"1"}},{"base_weights":[-7.608228E-4,6.5494016E-2,-5.8903223E-1,1.5230373E-1,-2.5085077E-1,-2.4517879E-1,-8.932689E-1,4.1477895E-1,2.5398757E-2,-3.320355E-1,4.6778113E-1,2.2486097E-1,-5.214521E-1,-9.5906144E-1,2.804197E-2,3.1571005E-2,-1.9727969E-3,9.755223E-3,-1.5796509E-2,-2.3279235E-2,6.220554E-3,-2.1097977E-2,4.8213344E-2,3.4880582E-2,-2.4682315E-2,1.3974987E-2,-3.510058E-2,3.4821127E-3,-5.1107656E-2,-3.6249623E-2,5.760146E-2],"categories":[],"categories_nodes":[],"categories_segments":[],"categories_sizes":[],"default_left":[0,0,0,0,0,0,0,0,0,0,0,0,0,0,0,0,0,0,0,0,0,0,0,0,0,0,0,0,0,0,0],"id":17,"left_children":[1,3,5,7,9,11,13,15,17,19,21,23,25,27,29,-1,-1,-1,-1,-1,-1,-1,-1,-1,-1,-1,-1,-1,-1,-1,-1],"loss_changes":[1.13302986E2,7.1789116E1,3.0564713E1,6.829979E1,3.3000206E1,1.8234735E1,9.467598E0,6.5791176E1,8.019952E1,3.0927864E1,2.5833271E1,1.8124773E1,1.2947416E1,9.507675E0,1.04439745E1,0E0,0E0,0E0,0E0,0E0,0E0,0E0,0E0,0E0,0E0,0E0,0E0,0E0,0E0,0E0,0E0],"parents":[2147483647,0,0,1,1,2,2,3,3,4,4,5,5,6,6,7,7,8,8,9,9,10,10,11,11,12,12,13,13,14,14],"right_children":[2,4,6,8,10,12,14,16,18,20,22,24,26,28,30,-1,-1,-1,-1,-1,-1,-1,-1,-1,-1,-1,-1,-1,-1,-1,-1],"split_conditions":[4.444158E-1,-2.6371216E-2,1.095722E-2,-3.1775108E-1,1.2623849E0,-4.4219556E-1,3.0411036E0,4.9745166E-1,-2.4073455E-1,9.963951E-1,-5.812974E-1,8.4417367E-1,-1.3030205E0,-1.6635896E0,3.4392175E-1,3.1571005E-2,-1.9727969E-3,9.755223E-3,-1.5796509E-2,-2.3279235E-2,6.220554E-3,-2.1097977E-2,4.8213344E-2,3.4880582E-2,-2.4682315E-2,1.3974987E-2,-3.510058E-2,3.4821127E-3,-5.1107656E-2,-3.6249623E-2,5.760146E-2],"split_indices":[482,1399,1349,2,1547,409,457,268,2017,5,267,1684,271,513,16,0,0,0,0,0,0,0,0,0,0,0,0,0,0,0,0],"split_type":[0,0,0,0,0,0,0,0,0,0,0,0,0,0,0,0,0,0,0,0,0,0,0,0,0,0,0,0,0,0,0],"sum_hessian":[2.9050166E3,2.6117532E3,2.9326346E2,2.0497812E3,5.619719E2,1.385161E2,1.5474738E2,6.673158E2,1.3824655E3,5.0541275E2,5.6559162E1,5.134536E1,8.717073E1,1.4439488E2,1.0352493E1,4.5156024E2,2.1575557E2,9.236589E2,4.5880658E2,3.90994E2,1.1441878E2,2.0310783E1,3.624838E1,3.0986494E1,2.0358864E1,1.59351845E1,7.123555E1,8.338158E0,1.3605672E2,6.411788E0,3.9407053E0],"tree_param":{"num_deleted":"0","num_feature":"3073","num_nodes":"31","size_leaf_vector":"1"}},{"base_weights":[-2.231107E-3,1.0476896E-1,-3.5201687E-1,4.0818334E-1,-1.4095791E-3,-7.845145E-1,-2.3829307E-1,5.421848E-1,-3.705196E-1,1.417583E-1,-2.8669745E-1,2.031454E-1,-9.414763E-1,7.6722786E-2,-4.2781794E-1,3.5285525E-2,1.2832077E-3,-3.1623762E-2,1.647198E-2,2.3287676E-2,4.3649078E-4,-1.8101323E-2,1.951276E-2,6.1384946E-2,-1.5026993E-2,-5.4365017E-2,-1.6555192E-2,2.8881669E-2,-7.7777947E-3,-2.9628182E-2,-3.1486664E-3],"categories":[],"categories_nodes":[],"categories_segments":[],"categories_sizes":[],"default_left":[0,0,0,0,0,0,0,0,0,0,0,0,0,0,0,0,0,0,0,0,0,0,0,0,0,0,0,0,0,0,0],"id":18,"left_children":[1,3,5,7,9,11,13,15,17,19,21,23,25,27,29,-1,-1,-1,-1,-1,-1,-1,-1,-1,-1,-1,-1,-1,-1,-1,-1],"loss_changes":[1.0900465E2,7.185018E1,3.3368614E1,6.0529007E1,6.755964E1,2.2143433E1,3.236956E1,4.167946E1,1.5881178E1,4.7466198E1,2.8326225E1,1.0814229E1,1.0531189E1,2.3860626E1,2.0298E1,0E0,0E0,0E0,0E0,0E0,0E0,0E0,0E0,0E0,0E0,0E0,0E0,0E0,0E0,0E0,0E0],"parents":[2147483647,0,0,1,1,2,2,3,3,4,4,5,5,6,6,7,7,8,8,9,9,10,10,11,11,12,12,13,13,14,14],"right_children":[2,4,6,8,10,12,14,16,18,20,22,24,26,28,30,-1,-1,-1,-1,-1,-1,-1,-1,-1,-1,-1,-1,-1,-1,-1,-1],"split_conditions":[-1.4041336E-2,-5.480619E-1,-1.093339E0,8.1197596E-1,5.8164787E-2,-1.3742234E0,-1.384033E-1,4.2529845E-1,2.5382248E-1,-3.242581E-1,1.2734275E0,-5.439413E-1,4.4224465E-1,-4.77428E-1,2.7866843E-1,3.5285525E-2,1.2832077E-3,-3.1623762E-2,1.647198E-2,2.3287676E-2,4.3649078E-4,-1.8101323E-2,1.951276E-2,6.1384946E-2,-1.5026993E-2,-5.4365017E-2,-1.6555192E-2,2.8881669E-2,-7.7777947E-3,-2.9628182E-2,-3.1486664E-3],"split_indices":[1399,1827,68,1843,484,472,2918,353,560,514,10,2977,384,38,522,0,0,0,0,0,0,0,0,0,0,0,0,0,0,0,0],"split_type":[0,0,0,0,0,0,0,0,0,0,0,0,0,0,0,0,0,0,0,0,0,0,0,0,0,0,0,0,0,0,0],"sum_hessian":[2.910467E3,2.2292393E3,6.8122766E2,5.771471E2,1.6520923E3,1.4060417E2,5.406235E2,4.9267065E2,8.447647E1,1.1003829E3,5.517092E2,1.9240685E1,1.21363495E2,2.0330252E2,3.3732095E2,3.7392365E2,1.1874701E2,6.1541386E1,2.2935087E1,3.1956668E2,7.808163E2,4.9688303E2,5.482624E1,5.867692E0,1.33729925E1,9.7329216E1,2.403428E1,6.3936405E1,1.3936612E2,2.319567E2,1.05364265E2],"tree_param":{"num_deleted":"0","num_feature":"3073","num_nodes":"31","size_leaf_vector":"1"}},{"base_weights":[-4.8951837E-3,9.5412634E-2,-3.3337727E-1,-4.576811E-2,3.127531E-1,-2.3866543E-1,-8.445292E-1,-4.8315552E-1,4.5927584E-2,-4.0317932E-1,4.1722563E-1,-1.0239432E0,-1.5368979E-1,3.2643013E-2,-9.0221316E-1,-2.989163E-2,6.4804903E-3,-2.4075701E-3,2.9340817E-2,-3.300781E-2,2.3603288E-2,1.19433645E-2,4.0102135E-2,-6.1267354E-2,8.108903E-4,-1.0091101E-2,5.184427E-2,-4.823158E-2,1.4349492E-2],"categories":[],"categories_nodes":[],"categories_segments":[],"categories_sizes":[],"default_left":[0,0,0,0,0,0,0,0,0,0,0,0,0,0,0,0,0,0,0,0,0,0,0,0,0,0,0,0,0],"id":19,"left_children":[1,3,5,7,9,11,13,15,17,19,21,23,25,-1,27,-1,-1,-1,-1,-1,-1,-1,-1,-1,-1,-1,-1,-1,-1],"loss_changes":[9.5571465E1,6.819673E1,3.2647575E1,5.408248E1,6.562494E1,3.8135586E1,9.716965E0,1.6499283E1,5.677774E1,2.549159E1,5.2259094E1,1.1721523E1,2.9950367E1,0E0,7.8612823E0,0E0,0E0,0E0,0E0,0E0,0E0,0E0,0E0,0E0,0E0,0E0,0E0,0E0,0E0],"parents":[2147483647,0,0,1,1,2,2,3,3,4,4,5,5,6,6,7,7,8,8,9,9,10,10,11,11,12,12,14,14],"right_children":[2,4,6,8,10,12,14,16,18,20,22,24,26,-1,28,-1,-1,-1,-1,-1,-1,-1,-1,-1,-1,-1,-1,-1,-1],"split_conditions":[-1.4041336E-2,2.9614294E-1,2.0263116E-1,-9.18008E-1,-1.3540555E0,-1.4192649E0,-3.2448955E0,5.059013E-1,8.805568E-1,7.793164E-1,4.0616313E-1,1.1128633E0,2.4338686E0,3.2643013E-2,1.0434334E0,-2.989163E-2,6.4804903E-3,-2.4075701E-3,2.9340817E-2,-3.300781E-2,2.3603288E-2,1.19433645E-2,4.0102135E-2,-6.1267354E-2,8.108903E-4,-1.0091101E-2,5.184427E-2,-4.823158E-2,1.4349492E-2],"split_indices":[1399,291,1400,1670,1793,1822,264,1913,4,1775,1719,123,516,0,376,0,0,0,0,0,0,0,0,0,0,0,0,0,0],"split_type":[0,0,0,0,0,0,0,0,0,0,0,0,0,0,0,0,0,0,0,0,0,0,0,0,0,0,0,0,0],"sum_hessian":[2.8985938E3,2.2210625E3,6.7753125E2,1.3469171E3,8.741454E2,5.728536E2,1.04677666E2,2.326951E2,1.114222E3,1.1095186E2,7.6319354E2,5.4857166E1,5.179964E2,3.5001857E0,1.0117748E2,1.9603258E2,3.666251E1,9.4991113E2,1.6431096E2,8.5959435E1,2.4992422E1,5.225967E2,2.4059688E2,4.5809204E1,9.047965E0,4.9866693E2,1.9329473E1,9.631118E1,4.8663E0],"tree_param":{"num_deleted":"0","num_feature":"3073","num_nodes":"29","size_leaf_vector":"1"}},{"base_weights":[3.8488514E-3,4.379696E-2,-7.770458E-1,9.13899E-2,-5.44215E-1,3.9348308E-2,-8.457062E-1,3.1494197E-1,-1.894134E-2,7.2453725E-1,-6.8433046E-1,-6.027767E-1,-1.1630541E0,2.5455108E-2,-5.3017484E-3,2.7225474E-2,-4.4624233E-3,5.847023E-2,-2.6998112E-2,-5.0054677E-2,-1.8738195E-2,-4.18206E-2,8.752723E-3,-7.2274017E-3,-6.2215347E-2],"categories":[],"categories_nodes":[],"categories_segments":[],"categories_sizes":[],"default_left":[0,0,0,0,0,0,0,0,0,0,0,0,0,0,0,0,0,0,0,0,0,0,0,0,0],"id":20,"left_children":[1,3,5,7,9,-1,11,13,15,17,19,21,23,-1,-1,-1,-1,-1,-1,-1,-1,-1,-1,-1,-1],"loss_changes":[9.011924E1,7.695846E1,1.5763306E1,6.27351E1,3.7103188E1,0E0,9.719101E0,6.8751915E1,6.7543655E1,1.2425158E1,1.7859734E1,1.4436468E1,4.5810547E0,0E0,0E0,0E0,0E0,0E0,0E0,0E0,0E0,0E0,0E0,0E0,0E0],"parents":[2147483647,0,0,1,1,2,2,3,3,4,4,6,6,7,7,8,8,9,9,10,10,11,11,12,12],"right_children":[2,4,6,8,10,-1,12,14,16,18,20,22,24,-1,-1,-1,-1,-1,-1,-1,-1,-1,-1,-1,-1],"split_conditions":[6.1801486E-2,5.2223164E-1,-1.4721045E0,-3.3569062E-1,-1.4894446E0,3.9348308E-2,3.3636874E-1,4.9745166E-1,-1.0077181E0,2.8849638E-1,5.2268374E-1,6.032515E-1,-5.373526E-1,2.5455108E-2,-5.3017484E-3,2.7225474E-2,-4.4624233E-3,5.847023E-2,-2.6998112E-2,-5.0054677E-2,-1.8738195E-2,-4.18206E-2,8.752723E-3,-7.2274017E-3,-6.2215347E-2],"split_indices":[1383,482,527,1539,385,0,1281,268,391,2491,433,1572,153,0,0,0,0,0,0,0,0,0,0,0,0],"split_type":[0,0,0,0,0,0,0,0,0,0,0,0,0,0,0,0,0,0,0,0,0,0,0,0,0],"sum_hessian":[2.8867847E3,2.747191E3,1.3959372E2,2.5422676E3,2.0492334E2,5.4305205E0,1.341632E2,8.3947565E2,1.702792E3,1.9965328E1,1.8495801E2,7.763392E1,5.6529278E1,5.743626E2,2.6511304E2,1.8815417E2,1.5146378E3,1.4824928E1,5.1404E0,9.031233E1,9.464567E1,5.96436E1,1.7990324E1,4.3818345E0,5.214744E1],"tree_param":{"num_deleted":"0","num_feature":"3073","num_nodes":"25","size_leaf_vector":"1"}},{"base_weights":[-5.8912355E-3,1.0241967E-1,-2.8592247E-1,1.4851525E-1,-6.434332E-1,-5.307046E-1,-3.1580612E-2,1.8782291E-1,-6.332512E-1,4.4814363E-1,-7.7407104E-1,-3.0318648E-1,-9.077816E-1,-2.133533E-1,7.955695E-1,1.1715885E-2,-2.343938E-2,2.7335474E-2,-3.9875384E-2,5.450037E-2,-3.0191395E-2,-4.6234082E-2,6.7893597E-3,-3.642855E-3,-4.0884573E-2,-3.4615792E-2,-6.7153804E-2,-2.5248095E-2,8.6042015E-3,4.799678E-2,-3.948249E-2],"categories":[],"categories_nodes":[],"categories_segments":[],"categories_sizes":[],"default_left":[0,0,0,0,0,0,0,0,0,0,0,0,0,0,0,0,0,0,0,0,0,0,0,0,0,0,0,0,0,0,0],"id":21,"left_children":[1,3,5,7,9,11,13,15,17,19,21,23,25,27,29,-1,-1,-1,-1,-1,-1,-1,-1,-1,-1,-1,-1,-1,-1,-1,-1],"loss_changes":[8.762256E1,7.171817E1,5.0146942E1,6.043429E1,1.7664764E1,3.4944046E1,5.9741894E1,5.718667E1,1.8692383E1,9.850569E0,1.5038841E1,3.0459978E1,1.3512428E1,3.6685444E1,1.9412674E1,0E0,0E0,0E0,0E0,0E0,0E0,0E0,0E0,0E0,0E0,0E0,0E0,0E0,0E0,0E0,0E0],"parents":[2147483647,0,0,1,1,2,2,3,3,4,4,5,5,6,6,7,7,8,8,9,9,10,10,11,11,12,12,13,13,14,14],"right_children":[2,4,6,8,10,12,14,16,18,20,22,24,26,28,30,-1,-1,-1,-1,-1,-1,-1,-1,-1,-1,-1,-1,-1,-1,-1,-1],"split_conditions":[2.9165067E-2,1.3212591E0,3.5941523E-2,1.4994864E0,-8.062379E-2,5.6203485E-1,1.3195697E0,1.5639161E0,-3.5231963E-1,4.7494859E-1,6.889022E-1,2.743201E-1,3.9197588E-1,3.4761105E-2,2.0959845E0,1.1715885E-2,-2.343938E-2,2.7335474E-2,-3.9875384E-2,5.450037E-2,-3.0191395E-2,-4.6234082E-2,6.7893597E-3,-3.642855E-3,-4.0884573E-2,-3.4615792E-2,-6.7153804E-2,-2.5248095E-2,8.6042015E-3,4.799678E-2,-3.948249E-2],"split_indices":[1287,1556,5,1551,1385,1819,388,1843,527,672,10,485,1749,1756,1640,0,0,0,0,0,0,0,0,0,0,0,0,0,0,0,0],"split_type":[0,0,0,0,0,0,0,0,0,0,0,0,0,0,0,0,0,0,0,0,0,0,0,0,0,0,0,0,0,0,0],"sum_hessian":[2.8869668E3,2.0822322E3,8.047346E2,1.9617894E3,1.2044265E2,4.0952014E2,3.9521448E2,1.8685952E3,9.319426E1,1.2613873E1,1.0782877E2,2.565368E2,1.5298335E2,3.24619E2,7.05955E1,1.7456298E3,1.22965454E2,1.1103348E1,8.209091E1,7.811503E0,4.80237E0,9.250066E1,1.5328111E1,1.7799503E2,7.854176E1,1.04063545E2,4.8919804E1,1.846267E2,1.399923E2,6.432074E1,6.274758E0],"tree_param":{"num_deleted":"0","num_feature":"3073","num_nodes":"31","size_leaf_vector":"1"}},{"base_weights":[2.213178E-4,7.3619545E-2,-4.0613893E-1,-7.7374324E-2,2.507961E-1,-1.0671529E0,-2.9451266E-1,1.00546E-1,-3.727887E-1,-3.754124E-1,3.3164987E-1,-1.1912688E0,7.195038E-2,-1.644307E-1,-7.8185445E-1,2.6260043E-2,1.9430595E-4,-3.3436504E-3,-3.1453565E-2,-3.713544E-2,1.0587734E-2,2.0716658E-2,-1.6282212E-2,-6.6462524E-2,-2.4370989E-2,4.29687E-2,-3.790911E-2,-1.579129E-2,2.168635E-2,2.120524E-2,-4.7376826E-2],"categories":[],"categories_nodes":[],"categories_segments":[],"categories_sizes":[],"default_left":[0,0,0,0,0,0,0,0,0,0,0,0,0,0,0,0,0,0,0,0,0,0,0,0,0,0,0,0,0,0,0],"id":22,"left_children":[1,3,5,7,9,11,13,15,17,19,21,23,25,27,29,-1,-1,-1,-1,-1,-1,-1,-1,-1,-1,-1,-1,-1,-1,-1,-1],"loss_changes":[8.624027E1,6.553838E1,3.232595E1,6.9574554E1,5.718972E1,9.067406E0,2.395066E1,3.392289E1,3.8963158E1,2.8053843E1,5.441266E1,4.9211807E0,5.34811E0,2.7401646E1,1.6338104E1,0E0,0E0,0E0,0E0,0E0,0E0,0E0,0E0,0E0,0E0,0E0,0E0,0E0,0E0,0E0,0E0],"parents":[2147483647,0,0,1,1,2,2,3,3,4,4,5,5,6,6,7,7,8,8,9,9,10,10,11,11,12,12,13,13,14,14],"right_children":[2,4,6,8,10,12,14,16,18,20,22,24,26,28,30,-1,-1,-1,-1,-1,-1,-1,-1,-1,-1,-1,-1,-1,-1,-1,-1],"split_conditions":[4.807533E-1,3.5941523E-2,-1.058766E0,-1.7474154E-1,-1.274655E0,1.365763E0,1.0538032E0,-8.30809E-1,1.11974396E-1,2.3039612E-1,9.460927E-1,1.0564312E0,5.105211E-1,6.5054965E-1,-1.375482E0,2.6260043E-2,1.9430595E-4,-3.3436504E-3,-3.1453565E-2,-3.713544E-2,1.0587734E-2,2.0716658E-2,-1.6282212E-2,-6.6462524E-2,-2.4370989E-2,4.29687E-2,-3.790911E-2,-1.579129E-2,2.168635E-2,2.120524E-2,-4.7376826E-2],"split_indices":[484,5,1578,1350,1537,1887,84,1563,641,110,1745,2831,1662,1669,1630,0,0,0,0,0,0,0,0,0,0,0,0,0,0,0,0],"split_type":[0,0,0,0,0,0,0,0,0,0,0,0,0,0,0,0,0,0,0,0,0,0,0,0,0,0,0,0,0,0,0],"sum_hessian":[2.8894321E3,2.4480715E3,4.4136053E2,1.3219982E3,1.1260734E3,6.252833E1,3.7883218E2,8.2548804E2,4.9651013E2,1.283518E2,9.9772156E2,5.6343395E1,6.1849356E0,3.0007355E2,7.875866E1,1.5223631E2,6.732517E2,2.2691293E2,2.695972E2,7.879653E1,4.955527E1,8.8656696E2,1.1115464E2,4.636543E1,9.977968E0,3.1560416E0,3.0288937E0,2.3984119E2,6.0232353E1,9.324943E0,6.9433716E1],"tree_param":{"num_deleted":"0","num_feature":"3073","num_nodes":"31","size_leaf_vector":"1"}},{"base_weights":[7.816112E-3,6.354736E-2,-5.049776E-1,1.0216045E-1,-5.7341987E-1,-6.2133485E-1,4.581092E-1,3.3714667E-1,5.4871677E-3,-7.9019207E-1,-2.2655364E-2,-1.001761E0,-4.3220654E-1,9.3731236E-1,-7.6779586E-1,2.2884693E-2,-1.1547382E-2,-4.2364914E-3,1.5973298E-2,1.0597008E-2,-4.5616474E-2,3.7424564E-2,-1.8137513E-2,-5.4679763E-2,4.4318545E-3,-3.9875857E-3,-3.5872262E-2,-2.0492902E-2,7.15416E-2,3.7994005E-3,-6.1544884E-2],"categories":[],"categories_nodes":[],"categories_segments":[],"categories_sizes":[],"default_left":[0,0,0,0,0,0,0,0,0,0,0,0,0,0,0,0,0,0,0,0,0,0,0,0,0,0,0,0,0,0,0],"id":23,"left_children":[1,3,5,7,9,11,13,15,17,19,21,23,25,27,29,-1,-1,-1,-1,-1,-1,-1,-1,-1,-1,-1,-1,-1,-1,-1,-1],"loss_changes":[8.213509E1,6.3813126E1,3.185633E1,5.5537304E1,1.7688465E1,1.7683098E1,1.8898384E1,4.8907036E1,4.9122818E1,1.3215439E1,1.1526557E1,8.393311E0,1.7027288E1,1.5677534E1,3.7066402E0,0E0,0E0,0E0,0E0,0E0,0E0,0E0,0E0,0E0,0E0,0E0,0E0,0E0,0E0,0E0,0E0],"parents":[2147483647,0,0,1,1,2,2,3,3,4,4,5,5,6,6,7,7,8,8,9,9,10,10,11,11,12,12,13,13,14,14],"right_children":[2,4,6,8,10,12,14,16,18,20,22,24,26,28,30,-1,-1,-1,-1,-1,-1,-1,-1,-1,-1,-1,-1,-1,-1,-1,-1],"split_conditions":[3.326586E-2,1.7351476E0,1.4841467E0,-4.761687E-1,-7.057684E-2,-5.856694E-1,8.562412E-1,7.01184E-1,7.0828664E-1,-6.853594E-1,1.3870823E-1,1.1342489E0,-3.9596092E-2,-9.209458E-1,-1.1720554E-2,2.2884693E-2,-1.1547382E-2,-4.2364914E-3,1.5973298E-2,1.0597008E-2,-4.5616474E-2,3.7424564E-2,-1.8137513E-2,-5.4679763E-2,4.4318545E-3,-3.9875857E-3,-3.5872262E-2,-2.0492902E-2,7.15416E-2,3.7994005E-3,-6.1544884E-2],"split_indices":[1382,398,1675,1827,384,41,25,434,1668,1600,1341,2145,1398,1747,1379,0,0,0,0,0,0,0,0,0,0,0,0,0,0,0,0],"split_type":[0,0,0,0,0,0,0,0,0,0,0,0,0,0,0,0,0,0,0,0,0,0,0,0,0,0,0,0,0,0,0],"sum_hessian":[2.8718801E3,2.5911462E3,2.807339E2,2.4438398E3,1.4730646E2,2.5078915E2,2.9944736E1,7.1161395E2,1.732226E3,1.0539137E2,4.1915085E1,8.185117E1,1.6893799E2,2.1698328E1,8.246408E0,5.8720575E2,1.2440819E2,1.3461581E3,3.8606778E2,1.1369541E1,9.4021835E1,1.2460576E1,2.945451E1,7.549038E1,6.3607984E0,7.61379E1,9.280009E1,5.8631334E0,1.5835195E1,3.2183692E0,5.0280395E0],"tree_param":{"num_deleted":"0","num_feature":"3073","num_nodes":"31","size_leaf_vector":"1"}},{"base_weights":[4.6109007E-4,9.382858E-2,-2.9559156E-1,3.6287862E-1,-1.7623657E-2,-1.2731278E-1,-5.4814184E-1,5.1946694E-1,-7.005155E-2,2.8721333E-1,-1.4152977E-1,-3.0593804E-1,2.5012326E-1,-3.3627903E-1,-9.421454E-1,3.28137E-2,-3.623639E-3,-3.8150944E-2,9.2293965E-3,2.36676E-2,-2.0096079E-2,-3.201249E-2,-2.0995473E-3,-1.952384E-2,2.6906181E-2,2.4574121E-2,-1.650701E-2,-4.540975E-2,-8.86299E-3,8.719156E-3,-4.9499802E-2],"categories":[],"categories_nodes":[],"categories_segments":[],"categories_sizes":[],"default_left":[0,0,0,0,0,0,0,0,0,0,0,0,0,0,0,0,0,0,0,0,0,0,0,0,0,0,0,0,0,0,0],"id":24,"left_children":[1,3,5,7,9,11,13,15,17,19,21,23,25,27,29,-1,-1,-1,-1,-1,-1,-1,-1,-1,-1,-1,-1,-1,-1,-1,-1],"loss_changes":[7.957197E1,6.563106E1,2.9262783E1,4.349595E1,5.8526253E1,2.8089855E1,2.2696266E1,3.8182594E1,3.0343845E1,5.763431E1,5.465867E1,2.0366924E1,1.8932686E1,1.6285614E1,5.2935486E0,0E0,0E0,0E0,0E0,0E0,0E0,0E0,0E0,0E0,0E0,0E0,0E0,0E0,0E0,0E0,0E0],"parents":[2147483647,0,0,1,1,2,2,3,3,4,4,5,5,6,6,7,7,8,8,9,9,10,10,11,11,12,12,13,13,14,14],"right_children":[2,4,6,8,10,12,14,16,18,20,22,24,26,28,30,-1,-1,-1,-1,-1,-1,-1,-1,-1,-1,-1,-1,-1,-1,-1,-1],"split_conditions":[-1.8481417E-2,-4.6896243E-1,3.297613E-1,3.777131E-1,-5.3916293E-1,6.355285E-1,5.287407E-1,6.105782E-1,-4.2093778E-1,4.7106186E-1,-6.2339926E-1,1.4776447E0,4.3197834E-1,-5.539322E-1,-8.2452863E-1,3.28137E-2,-3.623639E-3,-3.8150944E-2,9.2293965E-3,2.36676E-2,-2.0096079E-2,-3.201249E-2,-2.0995473E-3,-1.952384E-2,2.6906181E-2,2.4574121E-2,-1.650701E-2,-4.540975E-2,-8.86299E-3,8.719156E-3,-4.9499802E-2],"split_indices":[1399,1827,1575,1762,426,2538,1290,1843,763,1892,120,1798,1676,94,474,0,0,0,0,0,0,0,0,0,0,0,0,0,0,0,0],"split_type":[0,0,0,0,0,0,0,0,0,0,0,0,0,0,0,0,0,0,0,0,0,0,0,0,0,0,0,0,0,0,0],"sum_hessian":[2.87669E3,2.1874932E3,6.891967E2,6.400739E2,1.5474193E3,4.145072E2,2.746895E2,4.6991025E2,1.7016368E2,4.4682092E2,1.1005984E3,2.814824E2,1.3302481E2,1.7983989E2,9.484964E1,3.8160608E2,8.830418E1,4.5189644E1,1.24974045E2,3.52045E2,9.477592E1,1.8221468E2,9.1838367E2,2.56345E2,2.5137394E1,9.405562E1,3.89692E1,3.810027E1,1.4173961E2,3.7892132E0,9.106043E1],"tree_param":{"num_deleted":"0","num_feature":"3073","num_nodes":"31","size_leaf_vector":"1"}},{"base_weights":[-8.1107713E-4,4.4559937E-2,-5.786476E-1,1.1232558E-1,-2.6393354E-1,-9.431662E-1,-3.455807E-1,-4.527909E-2,2.875132E-1,-5.9251165E-1,-8.691613E-2,-1.0497509E0,-1.1433064E-1,-8.75848E-1,-6.870224E-2,-1.10077625E-2,1.2492835E-2,7.224209E-3,3.6005702E-2,2.7992819E-2,-3.4016196E-2,1.6091248E-3,-4.3311823E-2,-5.975504E-2,-1.6644005E-2,3.7769515E-2,-4.058567E-2,-6.8615326E-3,-5.4135114E-2,3.821228E-2,-1.4176272E-2],"categories":[],"categories_nodes":[],"categories_segments":[],"categories_sizes":[],"default_left":[0,0,0,0,0,0,0,0,0,0,0,0,0,0,0,0,0,0,0,0,0,0,0,0,0,0,0,0,0,0,0],"id":25,"left_children":[1,3,5,7,9,11,13,15,17,19,21,23,25,27,29,-1,-1,-1,-1,-1,-1,-1,-1,-1,-1,-1,-1,-1,-1,-1,-1],"loss_changes":[7.515773E1,5.5597126E1,1.7405174E1,6.0204693E1,2.7810547E1,7.0197372E0,1.886284E1,5.9330246E1,6.378531E1,1.733488E1,2.9031242E1,7.051132E0,6.879286E0,6.5934525E0,1.5562089E1,0E0,0E0,0E0,0E0,0E0,0E0,0E0,0E0,0E0,0E0,0E0,0E0,0E0,0E0,0E0,0E0],"parents":[2147483647,0,0,1,1,2,2,3,3,4,4,5,5,6,6,7,7,8,8,9,9,10,10,11,11,12,12,13,13,14,14],"right_children":[2,4,6,8,10,12,14,16,18,20,22,24,26,28,30,-1,-1,-1,-1,-1,-1,-1,-1,-1,-1,-1,-1,-1,-1,-1,-1],"split_conditions":[1.0942314E0,6.7559344E-1,-1.2580143E0,3.5941523E-2,-3.6795783E-1,1.6294597E0,-5.164863E-1,3.409694E-1,4.61289E-1,-4.663064E-2,3.6157343E-1,1.0085303E0,-2.8063995E-1,-3.6177227E-1,-7.769169E-1,-1.10077625E-2,1.2492835E-2,7.224209E-3,3.6005702E-2,2.7992819E-2,-3.4016196E-2,1.6091248E-3,-4.3311823E-2,-5.975504E-2,-1.6644005E-2,3.7769515E-2,-4.058567E-2,-6.8615326E-3,-5.4135114E-2,3.821228E-2,-1.4176272E-2],"split_indices":[1314,1636,1795,5,2560,1285,120,1540,1541,1379,1251,2832,1845,386,718,0,0,0,0,0,0,0,0,0,0,0,0,0,0,0,0],"split_type":[0,0,0,0,0,0,0,0,0,0,0,0,0,0,0,0,0,0,0,0,0,0,0,0,0,0,0,0,0,0,0],"sum_hessian":[2.8647688E3,2.6570623E3,2.0770638E2,2.179037E3,4.7802527E2,7.98202E1,1.2788618E2,1.1474731E3,1.0315638E3,1.6654282E2,3.1148245E2,7.048906E1,9.331132E0,4.3127228E1,8.475895E1,7.2069525E2,4.2677795E2,7.7624963E2,2.5531424E2,1.1411608E1,1.551312E2,2.710225E2,4.0459957E1,5.805164E1,1.2437423E1,4.1154666E0,5.2156653E0,9.799489E0,3.332774E1,1.685365E1,6.7905304E1],"tree_param":{"num_deleted":"0","num_feature":"3073","num_nodes":"31","size_leaf_vector":"1"}},{"base_weights":[-1.8092032E-3,-4.8486453E-1,5.64611E-2,-9.840864E-1,-3.3069244E-1,-7.618001E-2,2.1299152E-1,-1.1219025E0,-3.0788714E-1,-8.602238E-1,-1.8120843E-1,9.912381E-2,-3.6724186E-1,8.2612544E-2,6.1528784E-1,-6.3176356E-2,-3.0213121E-2,2.1096742E-2,-5.4873805E-2,5.339926E-3,-5.232777E-2,5.5693984E-3,-3.1366862E-2,2.1810064E-3,3.370781E-2,-8.292564E-3,-3.6982328E-2,1.122702E-2,-2.16346E-2,3.9350104E-2,-7.543975E-3],"categories":[],"categories_nodes":[],"categories_segments":[],"categories_sizes":[],"default_left":[0,0,0,0,0,0,0,0,0,0,0,0,0,0,0,0,0,0,0,0,0,0,0,0,0,0,0,0,0,0,0],"id":26,"left_children":[1,3,5,7,9,11,13,15,17,19,21,23,25,27,29,-1,-1,-1,-1,-1,-1,-1,-1,-1,-1,-1,-1,-1,-1,-1,-1],"loss_changes":[8.0661415E1,2.341613E1,5.3109756E1,6.3903046E0,1.8619175E1,7.0703224E1,6.148647E1,3.6104584E0,8.30901E0,9.472458E0,2.4380741E1,2.7583187E1,3.89376E1,6.498536E1,3.787815E1,0E0,0E0,0E0,0E0,0E0,0E0,0E0,0E0,0E0,0E0,0E0,0E0,0E0,0E0,0E0,0E0],"parents":[2147483647,0,0,1,1,2,2,3,3,4,4,5,5,6,6,7,7,8,8,9,9,10,10,11,11,12,12,13,13,14,14],"right_children":[2,4,6,8,10,12,14,16,18,20,22,24,26,28,30,-1,-1,-1,-1,-1,-1,-1,-1,-1,-1,-1,-1,-1,-1,-1,-1],"split_conditions":[-6.466728E-1,-8.6248857E-1,2.6616124E-2,1.1559215E0,-2.441287E-1,-1.7474154E-1,4.362085E-1,3.4538323E-1,5.0118434E-1,-9.966477E-1,6.629046E-1,1.1079113E0,1.22225545E-1,7.245286E-1,5.234124E-2,-6.3176356E-2,-3.0213121E-2,2.1096742E-2,-5.4873805E-2,5.339926E-3,-5.232777E-2,5.5693984E-3,-3.1366862E-2,2.1810064E-3,3.370781E-2,-8.292564E-3,-3.6982328E-2,1.122702E-2,-2.16346E-2,3.9350104E-2,-7.543975E-3],"split_indices":[350,41,5,2829,2507,1350,1541,2166,1568,1675,1287,1611,1894,1742,1300,0,0,0,0,0,0,0,0,0,0,0,0,0,0,0,0],"split_type":[0,0,0,0,0,0,0,0,0,0,0,0,0,0,0,0,0,0,0,0,0,0,0,0,0,0,0,0,0,0,0],"sum_hessian":[2.8636677E3,3.0746777E2,2.5562E3,7.127865E1,2.3618912E2,1.3839655E3,1.1722345E3,5.866335E1,1.2615303E1,5.094989E1,1.8523923E2,8.641533E2,5.198121E2,8.862257E2,2.8600882E2,4.4929768E1,1.3733578E1,6.797739E0,5.8175645E0,8.300236E0,4.2649654E1,1.1232228E2,7.2916954E1,7.8906635E2,7.508699E1,3.3830658E2,1.815055E2,6.952897E2,1.9093605E2,2.3362201E2,5.2386818E1],"tree_param":{"num_deleted":"0","num_feature":"3073","num_nodes":"31","size_leaf_vector":"1"}},{"base_weights":[-4.7068964E-3,7.062964E-2,-3.313232E-1,-2.4028365E-1,1.4328103E-1,-4.0722805E-1,3.535056E-1,-5.8894837E-1,-2.5901664E-2,9.4416976E-2,7.0175415E-1,-9.556987E-1,-3.205451E-1,6.232948E-1,-1.04023E0,-1.3002503E-2,-4.3498594E-2,1.212709E-2,-2.02167E-2,8.9422725E-3,-1.177389E-2,5.4617383E-2,1.0583467E-2,9.404422E-3,-5.357311E-2,1.5588502E-2,-2.0139849E-2,-1.4911771E-2,4.5595642E-2,-1.8315772E-2,-6.6404276E-2],"categories":[],"categories_nodes":[],"categories_segments":[],"categories_sizes":[],"default_left":[0,0,0,0,0,0,0,0,0,0,0,0,0,0,0,0,0,0,0,0,0,0,0,0,0,0,0,0,0,0,0],"id":27,"left_children":[1,3,5,7,9,11,13,15,17,19,21,23,25,27,29,-1,-1,-1,-1,-1,-1,-1,-1,-1,-1,-1,-1,-1,-1,-1,-1],"loss_changes":[7.059548E1,5.2695423E1,2.8096004E1,3.301977E1,5.152098E1,2.273008E1,2.1024202E1,1.5322952E1,2.8006773E1,4.8490112E1,2.885331E1,8.890587E0,2.1964993E1,1.2513491E1,1.2910328E0,0E0,0E0,0E0,0E0,0E0,0E0,0E0,0E0,0E0,0E0,0E0,0E0,0E0,0E0,0E0,0E0],"parents":[2147483647,0,0,1,1,2,2,3,3,4,4,5,5,6,6,7,7,8,8,9,9,10,10,11,11,12,12,13,13,14,14],"right_children":[2,4,6,8,10,12,14,16,18,20,22,24,26,28,30,-1,-1,-1,-1,-1,-1,-1,-1,-1,-1,-1,-1,-1,-1,-1,-1],"split_conditions":[2.626659E-1,-8.4794486E-1,1.7830237E0,-2.673755E-1,1.2183051E0,-1.2340951E0,1.1210697E0,-5.411841E-3,3.566651E-1,7.148595E-1,7.534387E-2,-5.9127845E-2,-9.298916E-1,-7.52538E-1,-3.8456663E-1,-1.3002503E-2,-4.3498594E-2,1.212709E-2,-2.02167E-2,8.9422725E-3,-1.177389E-2,5.4617383E-2,1.0583467E-2,9.404422E-3,-5.357311E-2,1.5588502E-2,-2.0139849E-2,-1.4911771E-2,4.5595642E-2,-1.8315772E-2,-6.6404276E-2],"split_indices":[1338,3,516,1285,10,1605,1399,1769,339,1742,1634,1384,399,54,946,0,0,0,0,0,0,0,0,0,0,0,0,0,0,0,0],"split_type":[0,0,0,0,0,0,0,0,0,0,0,0,0,0,0,0,0,0,0,0,0,0,0,0,0,0,0,0,0,0,0],"sum_hessian":[2.8670684E3,2.330341E3,5.367272E2,4.4095532E2,1.8893857E3,4.8353824E2,5.3188915E1,1.6723001E2,2.737253E2,1.738448E3,1.5093782E2,6.4622955E1,4.1891528E2,4.5025917E1,8.162999E0,7.79389E1,8.9291115E1,1.603436E2,1.1338171E2,1.3845613E3,3.5388666E2,8.3310875E1,6.762695E1,5.881976E0,5.8740974E1,4.7898983E1,3.710163E2,1.0730649E1,3.4295265E1,3.1233401E0,5.039659E0],"tree_param":{"num_deleted":"0","num_feature":"3073","num_nodes":"31","size_leaf_vector":"1"}},{"base_weights":[-8.909319E-3,-4.9170548E-1,4.107405E-2,-8.550991E-1,-3.1653568E-1,7.4401766E-2,-5.6881034E-1,-1.1341345E0,-4.6274343E-1,-5.1009048E-2,-6.4877313E-1,-3.1131594E-2,2.8999162E-1,-6.9769007E-1,3.4486488E-1,-2.551846E-3,-6.035129E-2,-3.381267E-2,4.2126857E-2,3.973044E-2,-1.3221844E-2,1.8870926E-2,-3.7543308E-2,6.1733956E-3,-1.0852167E-2,4.6377927E-3,2.822713E-2,-5.825168E-2,-2.5547137E-2,-4.3511532E-2,5.9675623E-2],"categories":[],"categories_nodes":[],"categories_segments":[],"categories_sizes":[],"default_left":[0,0,0,0,0,0,0,0,0,0,0,0,0,0,0,0,0,0,0,0,0,0,0,0,0,0,0,0,0,0,0],"id":28,"left_children":[1,3,5,7,9,11,13,15,17,19,21,23,25,27,29,-1,-1,-1,-1,-1,-1,-1,-1,-1,-1,-1,-1,-1,-1,-1,-1],"loss_changes":[6.8703896E1,1.6731491E1,5.248552E1,8.921913E0,1.6005787E1,5.568969E1,1.5996372E1,3.864956E0,1.1034736E1,1.864334E1,8.735424E0,4.727622E1,4.350538E1,9.667622E0,1.8785078E1,0E0,0E0,0E0,0E0,0E0,0E0,0E0,0E0,0E0,0E0,0E0,0E0,0E0,0E0,0E0,0E0],"parents":[2147483647,0,0,1,1,2,2,3,3,4,4,5,5,6,6,7,7,8,8,9,9,10,10,11,11,12,12,13,13,14,14],"right_children":[2,4,6,8,10,12,14,16,18,20,22,24,26,28,30,-1,-1,-1,-1,-1,-1,-1,-1,-1,-1,-1,-1,-1,-1,-1,-1],"split_conditions":[-7.137922E-1,-5.498542E-1,1.8393202E0,-3.6114922E-1,5.587546E-1,4.1657454E-1,2.433536E0,-2.296471E0,9.5435256E-1,-6.999695E-1,-1.432614E0,2.4476367E-1,4.777566E-2,-1.1521535E0,1.0160817E0,-2.551846E-3,-6.035129E-2,-3.381267E-2,4.2126857E-2,3.973044E-2,-1.3221844E-2,1.8870926E-2,-3.7543308E-2,6.1733956E-3,-1.0852167E-2,4.6377927E-3,2.822713E-2,-5.825168E-2,-2.5547137E-2,-4.3511532E-2,5.9675623E-2],"split_indices":[350,41,1295,363,1671,1719,124,903,44,1575,93,298,5,1656,1794,0,0,0,0,0,0,0,0,0,0,0,0,0,0,0,0],"split_type":[0,0,0,0,0,0,0,0,0,0,0,0,0,0,0,0,0,0,0,0,0,0,0,0,0,0,0,0,0,0,0],"sum_hessian":[2.8451934E3,2.6609622E2,2.5790972E3,8.528632E1,1.8080989E2,2.446295E3,1.3280211E2,4.873581E1,3.655051E1,1.0113532E2,7.967457E1,1.6429233E3,8.033716E2,1.165924E2,1.6209713E1,3.1802564E0,4.5555553E1,3.1826443E1,4.7240696E0,1.9832867E1,8.130246E1,6.965343E0,7.270922E1,8.9718384E2,7.457395E2,4.682916E2,3.3508E2,3.1792274E1,8.480013E1,6.6552615E0,9.554451E0],"tree_param":{"num_deleted":"0","num_feature":"3073","num_nodes":"31","size_leaf_vector":"1"}},{"base_weights":[2.5486927E-3,4.488462E-2,-5.80074E-1,7.992952E-2,-5.8666027E-1,-1.1263194E0,-4.072508E-1,2.5606835E-1,-3.9939664E-2,1.6786593E-1,-7.3005515E-1,-1.2164031E0,3.3132718E-3,-9.873947E-1,-2.0670359E-1,-3.155574E-2,1.6136657E-2,1.3131112E-2,-9.480344E-3,4.6028946E-2,-1.8357027E-2,-9.204199E-3,-4.418752E-2,-2.285749E-2,-6.503574E-2,-5.896154E-2,-5.283994E-3,-3.875367E-2,2.2795354E-3],"categories":[],"categories_nodes":[],"categories_segments":[],"categories_sizes":[],"default_left":[0,0,0,0,0,0,0,0,0,0,0,0,0,0,0,0,0,0,0,0,0,0,0,0,0,0,0,0,0],"id":29,"left_children":[1,3,5,7,9,11,13,15,17,19,21,23,-1,25,27,-1,-1,-1,-1,-1,-1,-1,-1,-1,-1,-1,-1,-1,-1],"loss_changes":[7.0279884E1,5.8835167E1,1.7762749E1,5.3162468E1,1.5244526E1,5.003563E0,1.7037504E1,6.0505493E1,6.79236E1,9.653845E0,9.708233E0,2.1360245E0,0E0,6.269642E0,1.6008083E1,0E0,0E0,0E0,0E0,0E0,0E0,0E0,0E0,0E0,0E0,0E0,0E0,0E0,0E0],"parents":[2147483647,0,0,1,1,2,2,3,3,4,4,5,5,6,6,7,7,8,8,9,9,10,10,11,11,13,13,14,14],"right_children":[2,4,6,8,10,12,14,16,18,20,22,24,-1,26,28,-1,-1,-1,-1,-1,-1,-1,-1,-1,-1,-1,-1,-1,-1],"split_conditions":[1.359221E0,1.782898E0,-1.0096955E0,-1.0973307E-1,-6.228706E-1,1.7081612E0,-7.437786E-1,-1.5398101E0,-3.2999054E-1,-3.2436952E-3,-5.753066E-1,-7.332231E-1,3.3132718E-3,6.4418006E-1,-5.091016E-1,-3.155574E-2,1.6136657E-2,1.3131112E-2,-9.480344E-3,4.6028946E-2,-1.8357027E-2,-9.204199E-3,-4.418752E-2,-2.285749E-2,-6.503574E-2,-5.896154E-2,-5.283994E-3,-3.875367E-2,2.2795354E-3],"split_indices":[1556,398,1635,385,63,43,68,1744,1795,1808,1571,1862,0,2954,1200,0,0,0,0,0,0,0,0,0,0,0,0,0,0],"split_type":[0,0,0,0,0,0,0,0,0,0,0,0,0,0,0,0,0,0,0,0,0,0,0,0,0,0,0,0,0],"sum_hessian":[2.8472207E3,2.6552048E3,1.9201587E2,2.516439E3,1.3876567E2,4.4823692E1,1.4719218E2,1.01857825E3,1.4978608E3,2.2133144E1,1.1663253E2,4.1657085E1,3.1666048E0,3.6803463E1,1.10388725E2,7.059707E1,9.4798114E2,4.9547385E2,1.00238696E3,8.896194E0,1.323695E1,2.6103365E1,9.052917E1,4.8053627E0,3.6851723E1,2.9949804E1,6.8536572E0,3.3299454E1,7.7089264E1],"tree_param":{"num_deleted":"0","num_feature":"3073","num_nodes":"29","size_leaf_vector":"1"}},{"base_weights":[-1.2329436E-2,5.605366E-2,-3.433678E-1,-7.446678E-2,2.0965132E-1,-2.2441354E-1,-8.209174E-1,8.177561E-2,-3.4028342E-1,-3.826448E-1,2.7910858E-1,1.349063E-2,-5.4424584E-1,-9.675508E-1,7.9282004E-1,3.406128E-2,1.130759E-3,4.403899E-2,-1.9991254E-2,-2.8737193E-2,1.9753028E-2,7.855271E-3,2.9212683E-2,1.2140284E-2,-2.5606042E-2,3.240409E-2,-3.1364914E-2,2.2582884E-3,-5.3798914E-2,7.4765794E-2,-8.31348E-3],"categories":[],"categories_nodes":[],"categories_segments":[],"categories_sizes":[],"default_left":[0,0,0,0,0,0,0,0,0,0,0,0,0,0,0,0,0,0,0,0,0,0,0,0,0,0,0,0,0,0,0],"id":30,"left_children":[1,3,5,7,9,11,13,15,17,19,21,23,25,27,29,-1,-1,-1,-1,-1,-1,-1,-1,-1,-1,-1,-1,-1,-1,-1,-1],"loss_changes":[6.457977E1,4.7418846E1,2.7560513E1,5.3148335E1,4.4804577E1,2.9863758E1,2.3725082E1,2.8580826E1,3.4790604E1,1.7326994E1,3.613314E1,2.7362854E1,1.6983196E1,9.86422E0,6.063965E0,0E0,0E0,0E0,0E0,0E0,0E0,0E0,0E0,0E0,0E0,0E0,0E0,0E0,0E0,0E0,0E0],"parents":[2147483647,0,0,1,1,2,2,3,3,4,4,5,5,6,6,7,7,8,8,9,9,10,10,11,11,12,12,13,13,14,14],"right_children":[2,4,6,8,10,12,14,16,18,20,22,24,26,28,30,-1,-1,-1,-1,-1,-1,-1,-1,-1,-1,-1,-1,-1,-1,-1,-1],"split_conditions":[3.928106E-3,1.10504E-2,9.541746E-1,-1.7474154E-1,-1.3291594E0,2.4518065E-1,1.8631734E0,-1.26741E0,-1.6979518E0,5.99768E-1,3.3677486E-1,7.327887E-2,-7.8761265E-2,-1.1187779E0,1.0448803E0,3.406128E-2,1.130759E-3,4.403899E-2,-1.9991254E-2,-2.8737193E-2,1.9753028E-2,7.855271E-3,2.9212683E-2,1.2140284E-2,-2.5606042E-2,3.240409E-2,-3.1364914E-2,2.2582884E-3,-5.3798914E-2,7.4765794E-2,-8.31348E-3],"split_indices":[1406,517,1707,1350,384,38,1797,410,1843,1750,1541,642,1385,1563,697,0,0,0,0,0,0,0,0,0,0,0,0,0,0,0,0],"split_type":[0,0,0,0,0,0,0,0,0,0,0,0,0,0,0,0,0,0,0,0,0,0,0,0,0,0,0,0,0,0,0],"sum_hessian":[2.8509375E3,2.3635303E3,4.8740738E2,1.2780314E3,1.0854989E3,3.9138586E2,9.6021515E1,8.0535187E2,4.7267947E2,1.134601E2,9.7203876E2,2.249883E2,1.6639757E2,8.83903E1,7.6312175E0,7.139714E1,7.339547E2,2.1335915E1,4.5134354E2,9.1195175E1,2.2264921E1,6.9548474E2,2.7655402E2,1.5702089E2,6.796741E1,1.0392733E1,1.5600482E2,8.604782E0,7.9785515E1,4.0821223E0,3.5490952E0],"tree_param":{"num_deleted":"0","num_feature":"3073","num_nodes":"31","size_leaf_vector":"1"}},{"base_weights":[-6.941659E-3,-5.776483E-1,3.2346603E-2,5.5155814E-1,-6.500527E-1,9.967679E-2,-2.7898163E-1,-4.0615264E-2,1.120824E0,-1.1009718E0,-5.041437E-1,5.7949428E-2,5.8217514E-1,-7.8079486E-1,-1.6933483E-1,8.1854396E-2,5.781937E-3,-6.3136056E-2,-1.771775E-2,-3.3606634E-2,2.3699536E-3,6.269775E-3,-1.2733348E-2,4.33729E-3,4.5060243E-2,-5.235907E-2,6.3221014E-5,6.424228E-3,-1.865349E-2],"categories":[],"categories_nodes":[],"categories_segments":[],"categories_sizes":[],"default_left":[0,0,0,0,0,0,0,0,0,0,0,0,0,0,0,0,0,0,0,0,0,0,0,0,0,0,0,0,0],"id":31,"left_children":[1,3,5,7,9,11,13,-1,15,17,19,21,23,25,27,-1,-1,-1,-1,-1,-1,-1,-1,-1,-1,-1,-1,-1,-1],"loss_changes":[6.400812E1,1.5391102E1,5.6016663E1,9.932119E0,1.0843163E1,4.419522E1,2.6014324E1,0E0,4.283057E0,4.565338E0,1.2330109E1,4.2687355E1,2.7542263E1,1.7695988E1,2.378835E1,0E0,0E0,0E0,0E0,0E0,0E0,0E0,0E0,0E0,0E0,0E0,0E0,0E0,0E0],"parents":[2147483647,0,0,1,1,2,2,3,3,4,4,5,5,6,6,8,8,9,9,10,10,11,11,12,12,13,13,14,14],"right_children":[2,4,6,8,10,12,14,-1,16,18,20,22,24,26,28,-1,-1,-1,-1,-1,-1,-1,-1,-1,-1,-1,-1,-1,-1],"split_conditions":[-1.2205544E0,-2.573495E-1,2.626659E-1,-4.4241866E-1,-8.936429E-1,1.2734275E0,-9.747489E-1,-4.0615264E-2,2.1711046E-1,5.134238E-1,9.812998E-1,1.1625291E-1,-3.859155E-2,5.524863E-1,-9.2040695E-2,8.1854396E-2,5.781937E-3,-6.3136056E-2,-1.771775E-2,-3.3606634E-2,2.3699536E-3,6.269775E-3,-1.2733348E-2,4.33729E-3,4.5060243E-2,-5.235907E-2,6.3221014E-5,6.424228E-3,-1.865349E-2],"split_indices":[94,1300,1338,2378,41,10,1793,0,1029,920,1570,1287,1544,522,1308,0,0,0,0,0,0,0,0,0,0,0,0,0,0],"split_type":[0,0,0,0,0,0,0,0,0,0,0,0,0,0,0,0,0,0,0,0,0,0,0,0,0,0,0,0,0],"sum_hessian":[2.8528591E3,1.8286304E2,2.669996E3,1.0619859E1,1.7224316E2,2.1957966E3,4.7419968E2,3.0016015E0,7.6182575E0,4.0508762E1,1.317344E2,2.0220463E3,1.7375026E2,8.393571E1,3.9026398E2,4.6178718E0,3.0003855E0,3.2727356E1,7.781407E0,1.0081081E2,3.0923603E1,1.6637056E3,3.5834073E2,6.855749E1,1.0519277E2,6.235666E1,2.1579046E1,1.5867805E2,2.3158592E2],"tree_param":{"num_deleted":"0","num_feature":"3073","num_nodes":"29","size_leaf_vector":"1"}},{"base_weights":[-2.011161E-3,9.50411E-2,-2.2393833E-1,2.7629638E-1,-3.0542457E-2,-6.728605E-2,-4.6451432E-1,3.6038828E-1,-4.0333414E-1,-2.1764185E-1,2.0725022E-1,1.9531606E-1,-3.1109565E-1,-5.677152E-1,1.06561065E-1,5.812942E-3,2.7546672E-2,1.9833508E-3,-4.6119623E-2,1.6533755E-2,-1.5833959E-2,1.7344063E-2,-1.2267077E-2,-6.452798E-4,3.3582494E-2,-2.7646994E-2,1.2166052E-3,-1.8250953E-2,-4.050269E-2,5.204615E-2,-8.638427E-3],"categories":[],"categories_nodes":[],"categories_segments":[],"categories_sizes":[],"default_left":[0,0,0,0,0,0,0,0,0,0,0,0,0,0,0,0,0,0,0,0,0,0,0,0,0,0,0,0,0,0,0],"id":32,"left_children":[1,3,5,7,9,11,13,15,17,19,21,23,25,27,29,-1,-1,-1,-1,-1,-1,-1,-1,-1,-1,-1,-1,-1,-1,-1,-1],"loss_changes":[6.089046E1,4.4780556E1,3.2385082E1,4.615909E1,5.17786E1,3.3488712E1,2.0042137E1,3.3289E1,2.0529594E1,3.546997E1,3.2475594E1,2.5000912E1,2.200766E1,1.3817238E1,1.3943123E1,0E0,0E0,0E0,0E0,0E0,0E0,0E0,0E0,0E0,0E0,0E0,0E0,0E0,0E0,0E0,0E0],"parents":[2147483647,0,0,1,1,2,2,3,3,4,4,5,5,6,6,7,7,8,8,9,9,10,10,11,11,12,12,13,13,14,14],"right_children":[2,4,6,8,10,12,14,16,18,20,22,24,26,28,30,-1,-1,-1,-1,-1,-1,-1,-1,-1,-1,-1,-1,-1,-1,-1,-1],"split_conditions":[-5.1280163E-2,-1.0973307E-1,9.636366E-2,4.2828116E-1,3.1504723E-1,9.157953E-2,1.5098296E0,-1.0421249E-1,1.8746842E-2,-8.0332893E-1,5.86171E-1,5.379922E-1,3.5334906E-1,3.8000053E-1,-2.0718604E-1,5.812942E-3,2.7546672E-2,1.9833508E-3,-4.6119623E-2,1.6533755E-2,-1.5833959E-2,1.7344063E-2,-1.2267077E-2,-6.452798E-4,3.3582494E-2,-2.7646994E-2,1.2166052E-3,-1.8250953E-2,-4.050269E-2,5.204615E-2,-8.638427E-3],"split_indices":[1395,385,1283,1353,307,483,1797,94,534,1552,1652,1797,1112,80,1537,0,0,0,0,0,0,0,0,0,0,0,0,0,0,0,0],"split_type":[0,0,0,0,0,0,0,0,0,0,0,0,0,0,0,0,0,0,0,0,0,0,0,0,0,0,0,0,0,0,0],"sum_hessian":[2.8250598E3,1.9659086E3,8.5915125E2,8.041195E2,1.1617891E3,5.211085E2,3.3804272E2,7.1599756E2,8.812193E1,6.502477E2,5.1154135E2,2.5098106E2,2.7012744E2,2.8630884E2,5.173391E1,3.145725E2,4.0142508E2,4.8042572E1,4.007936E1,9.912217E1,5.5112555E2,3.9111145E2,1.204299E2,1.7531697E2,7.5664085E1,1.5658257E2,1.1354488E2,1.5727094E2,1.2903789E2,1.1278993E1,4.0454914E1],"tree_param":{"num_deleted":"0","num_feature":"3073","num_nodes":"31","size_leaf_vector":"1"}},{"base_weights":[2.315707E-3,4.3864198E-2,-4.7786883E-1,2.568516E-1,-5.3178802E-2,-1.7586818E-1,-7.9792607E-1,3.2677743E-1,-6.9510186E-1,5.263704E-2,-3.0870607E-1,-9.095116E-1,-2.272352E-2,-5.7787466E-1,-1.1680351E0,3.5068255E-2,9.554556E-3,-4.7641348E-2,5.772693E-3,7.230581E-3,-1.779663E-2,-1.9051611E-2,1.8963559E-2,-5.503661E-2,-1.496799E-3,3.0852376E-2,-1.0572894E-2,-5.5324E-2,-1.5111637E-2,-2.2654258E-2,-6.460248E-2],"categories":[],"categories_nodes":[],"categories_segments":[],"categories_sizes":[],"default_left":[0,0,0,0,0,0,0,0,0,0,0,0,0,0,0,0,0,0,0,0,0,0,0,0,0,0,0,0,0,0,0],"id":33,"left_children":[1,3,5,7,9,11,13,15,17,19,21,23,25,27,29,-1,-1,-1,-1,-1,-1,-1,-1,-1,-1,-1,-1,-1,-1,-1,-1],"loss_changes":[5.6562096E1,5.394381E1,2.168222E1,5.460445E1,4.8506195E1,1.3174746E1,8.228897E0,3.8579086E1,1.1854097E1,4.7739304E1,2.6283249E1,3.3740883E0,1.1986447E1,9.943878E0,2.942089E0,0E0,0E0,0E0,0E0,0E0,0E0,0E0,0E0,0E0,0E0,0E0,0E0,0E0,0E0,0E0,0E0],"parents":[2147483647,0,0,1,1,2,2,3,3,4,4,5,5,6,6,7,7,8,8,9,9,10,10,11,11,12,12,13,13,14,14],"right_children":[2,4,6,8,10,12,14,16,18,20,22,24,26,28,30,-1,-1,-1,-1,-1,-1,-1,-1,-1,-1,-1,-1,-1,-1,-1,-1],"split_conditions":[5.2223164E-1,-1.8691282E-1,-1.5890448E-1,1.0929141E-1,1.416184E-1,-1.7991182E0,4.85389E-1,-4.5333788E-1,2.1405996E-1,-1.9620372E-2,1.3009973E0,5.9758776E-1,-7.637122E-1,-9.2485666E-1,-2.1193868E-1,3.5068255E-2,9.554556E-3,-4.7641348E-2,5.772693E-3,7.230581E-3,-1.779663E-2,-1.9051611E-2,1.8963559E-2,-5.503661E-2,-1.496799E-3,3.0852376E-2,-1.0572894E-2,-5.5324E-2,-1.5111637E-2,-2.2654258E-2,-6.460248E-2],"split_indices":[482,339,668,1384,1873,673,1718,1819,1624,1382,10,2994,385,75,1315,0,0,0,0,0,0,0,0,0,0,0,0,0,0,0,0],"split_type":[0,0,0,0,0,0,0,0,0,0,0,0,0,0,0,0,0,0,0,0,0,0,0,0,0,0,0,0,0,0,0],"sum_hessian":[2.8330083E3,2.6082363E3,2.2477185E2,8.158918E2,1.7923446E3,1.1644542E2,1.0832644E2,7.606732E2,5.521857E1,1.2680353E3,5.243093E2,1.9256718E1,9.71887E1,6.954139E1,3.878505E1,2.0116112E2,5.595121E2,4.1763794E1,1.3454778E1,1.0355623E3,2.3247305E2,4.7483652E2,4.947278E1,1.5611358E1,3.64536E0,2.1622711E1,7.556599E1,2.280105E1,4.6740337E1,6.421016E0,3.2364037E1],"tree_param":{"num_deleted":"0","num_feature":"3073","num_nodes":"31","size_leaf_vector":"1"}},{"base_weights":[-1.1174435E-3,-3.4724998E-1,5.3607114E-2,-6.569979E-2,-6.389365E-1,1.7586917E-2,6.477207E-1,6.336165E-1,-2.0515452E-1,-1.0174807E0,-4.2904794E-1,1.0370788E-1,-2.2743031E-1,8.76635E-1,-4.3596995E-1,-2.5596082E-2,4.9391266E-2,4.535352E-3,-2.4959534E-2,1.1600989E-2,-5.6251444E-2,-4.1103214E-2,-8.693847E-3,1.5498477E-2,-2.4677205E-3,-1.8481402E-2,1.2400097E-2,-2.3973474E-2,4.882106E-2,-3.942485E-2,3.4471136E-2],"categories":[],"categories_nodes":[],"categories_segments":[],"categories_sizes":[],"default_left":[0,0,0,0,0,0,0,0,0,0,0,0,0,0,0,0,0,0,0,0,0,0,0,0,0,0,0,0,0,0,0],"id":34,"left_children":[1,3,5,7,9,11,13,15,17,19,21,23,25,27,29,-1,-1,-1,-1,-1,-1,-1,-1,-1,-1,-1,-1,-1,-1,-1,-1],"loss_changes":[5.3481953E1,3.1613365E1,5.216261E1,1.9366446E1,1.4596222E1,4.8549644E1,3.4947727E1,1.3911836E1,1.4417637E1,9.232155E0,1.2237089E1,5.3757915E1,4.054718E1,1.6079926E1,1.0449087E1,0E0,0E0,0E0,0E0,0E0,0E0,0E0,0E0,0E0,0E0,0E0,0E0,0E0,0E0,0E0,0E0],"parents":[2147483647,0,0,1,1,2,2,3,3,4,4,5,5,6,6,7,7,8,8,9,9,10,10,11,11,12,12,13,13,14,14],"right_children":[2,4,6,8,10,12,14,16,18,20,22,24,26,28,30,-1,-1,-1,-1,-1,-1,-1,-1,-1,-1,-1,-1,-1,-1,-1,-1],"split_conditions":[-1.1069709E0,-7.328358E-3,1.4532107E0,-7.140147E-1,-1.0175581E-1,2.9165067E-2,1.188731E0,-2.3367094E-1,2.922616E-2,-1.1659739E0,1.6272773E-1,1.4395428E-1,8.878244E-1,-1.3580431E0,8.451977E-1,-2.5596082E-2,4.9391266E-2,4.535352E-3,-2.4959534E-2,1.1600989E-2,-5.6251444E-2,-4.1103214E-2,-8.693847E-3,1.5498477E-2,-2.4677205E-3,-1.8481402E-2,1.2400097E-2,-2.3973474E-2,4.882106E-2,-3.942485E-2,3.4471136E-2],"split_indices":[1686,2023,1542,42,1826,1287,1767,278,524,1630,2560,258,1585,94,1596,0,0,0,0,0,0,0,0,0,0,0,0,0,0,0,0],"split_type":[0,0,0,0,0,0,0,0,0,0,0,0,0,0,0,0,0,0,0,0,0,0,0,0,0,0,0,0,0,0,0],"sum_hessian":[2.8214834E3,3.84456E2,2.4370276E3,1.9625055E2,1.8820544E2,2.298691E3,1.3833652E2,3.203962E1,1.6421092E2,6.57587E1,1.2244675E2,1.7012843E3,5.974067E2,1.1436879E2,2.3967724E1,7.4619284E0,2.4577692E1,8.2196075E1,8.201485E1,5.1197495E0,6.063895E1,4.732886E1,7.511788E1,7.242644E2,9.7701984E2,4.6003632E2,1.3737038E2,7.5780063E0,1.0679079E2,1.8478674E1,5.489051E0],"tree_param":{"num_deleted":"0","num_feature":"3073","num_nodes":"31","size_leaf_vector":"1"}},{"base_weights":[-1.385308E-2,-7.1131575E-1,1.3397904E-2,-1.7249769E-1,-1.0463185E0,-2.8377647E-2,4.7138846E-1,1.1996757E0,-4.8238668E-1,-1.2549069E0,-5.1267874E-1,3.7133902E-2,-3.3062887E-1,8.285245E-1,8.169496E-2,8.559396E-2,1.4298545E-2,-4.0255934E-3,-6.401091E-2,-3.1794265E-2,-7.082866E-2,5.1411133E-2,-4.231378E-2,4.0774806E-3,-2.4818653E-2,-4.0791943E-3,-2.884834E-2,5.301099E-2,-4.6413126E-3,1.0969534E-2,-4.6302605E-2],"categories":[],"categories_nodes":[],"categories_segments":[],"categories_sizes":[],"default_left":[0,0,0,0,0,0,0,0,0,0,0,0,0,0,0,0,0,0,0,0,0,0,0,0,0,0,0,0,0,0,0],"id":35,"left_children":[1,3,5,7,9,11,13,15,17,19,21,23,25,27,29,-1,-1,-1,-1,-1,-1,-1,-1,-1,-1,-1,-1,-1,-1,-1,-1],"loss_changes":[5.41104E1,1.9142857E1,5.244459E1,1.8539377E1,6.6823425E0,4.975734E1,3.1820583E1,3.2865E0,1.1173415E1,3.7653809E0,1.1246634E1,4.8987934E1,2.7414234E1,2.5597282E1,1.5561125E1,0E0,0E0,0E0,0E0,0E0,0E0,0E0,0E0,0E0,0E0,0E0,0E0,0E0,0E0,0E0,0E0],"parents":[2147483647,0,0,1,1,2,2,3,3,4,4,5,5,6,6,7,7,8,8,9,9,10,10,11,11,12,12,13,13,14,14],"right_children":[2,4,6,8,10,12,14,16,18,20,22,24,26,28,30,-1,-1,-1,-1,-1,-1,-1,-1,-1,-1,-1,-1,-1,-1,-1,-1],"split_conditions":[-1.7125009E0,-1.2405712E-1,1.2183051E0,-5.3442633E-1,2.8079018E-1,6.219083E-1,7.055607E-2,6.373421E-1,9.942954E-1,-1.9194636E-1,-6.796961E-2,9.115588E-1,-2.1848993E-1,5.1566356E-1,1.061929E0,8.559396E-2,1.4298545E-2,-4.0255934E-3,-6.401091E-2,-3.1794265E-2,-7.082866E-2,5.1411133E-2,-4.231378E-2,4.0774806E-3,-2.4818653E-2,-4.0791943E-3,-2.884834E-2,5.301099E-2,-4.6413126E-3,1.0969534E-2,-4.6302605E-2],"split_indices":[1616,1571,10,1281,1836,103,1634,1464,1579,430,1381,1893,1293,1549,631,0,0,0,0,0,0,0,0,0,0,0,0,0,0,0,0],"split_type":[0,0,0,0,0,0,0,0,0,0,0,0,0,0,0,0,0,0,0,0,0,0,0,0,0,0,0,0,0,0,0],"sum_hessian":[2.845434E3,1.0605128E2,2.7393828E3,4.1238396E1,6.481288E1,2.5112568E3,2.2812593E2,7.0684285E0,3.4169968E1,4.5626755E1,1.9186125E1,2.064634E3,4.466227E2,1.1844787E2,1.09678055E2,3.9695978E0,3.0988307E0,2.3455923E1,1.0714045E1,1.047007E1,3.515669E1,3.0439105E0,1.6142214E1,1.9067406E3,1.5789351E2,2.22753E2,2.238697E2,9.452628E1,2.3921587E1,9.718172E1,1.249634E1],"tree_param":{"num_deleted":"0","num_feature":"3073","num_nodes":"31","size_leaf_vector":"1"}},{"base_weights":[-2.6149496E-3,6.572563E-2,-2.6565453E-1,1.2359551E-1,-3.2658437E-1,-5.2885056E-1,-9.88076E-2,1.9569826E-1,-2.2309148E-1,-5.1227975E-1,2.2860405E-1,-1.9555134E-1,-7.9482293E-1,1.415777E-1,-4.8415658E-1,1.3949044E-2,-7.9303365E-3,-2.6794706E-2,3.937503E-3,-3.19225E-2,1.7354897E-3,3.998811E-2,-1.6281063E-2,-3.428334E-2,6.260378E-3,-1.7719831E-2,-4.8919044E-2,-2.3825182E-2,1.479311E-2,7.469398E-3,-3.378327E-2],"categories":[],"categories_nodes":[],"categories_segments":[],"categories_sizes":[],"default_left":[0,0,0,0,0,0,0,0,0,0,0,0,0,0,0,0,0,0,0,0,0,0,0,0,0,0,0,0,0,0,0],"id":36,"left_children":[1,3,5,7,9,11,13,15,17,19,21,23,25,27,29,-1,-1,-1,-1,-1,-1,-1,-1,-1,-1,-1,-1,-1,-1,-1,-1],"loss_changes":[5.077981E1,5.094693E1,2.553004E1,4.890729E1,2.9862059E1,1.9860577E1,3.3209652E1,4.7809544E1,3.1862492E1,1.4964458E1,2.3370338E1,1.6048573E1,9.779167E0,2.1225296E1,1.6804268E1,0E0,0E0,0E0,0E0,0E0,0E0,0E0,0E0,0E0,0E0,0E0,0E0,0E0,0E0,0E0,0E0],"parents":[2147483647,0,0,1,1,2,2,3,3,4,4,5,5,6,6,7,7,8,8,9,9,10,10,11,11,12,12,13,13,14,14],"right_children":[2,4,6,8,10,12,14,16,18,20,22,24,26,28,30,-1,-1,-1,-1,-1,-1,-1,-1,-1,-1,-1,-1,-1,-1,-1,-1],"split_conditions":[6.390512E-1,1.1557984E0,-3.8928017E-1,2.7154854E-1,7.2029793E-1,-1.9731581E-1,-2.8795568E-2,8.5923034E-1,-3.0022496E-1,5.067785E-1,9.3050724E-1,-3.6074263E-1,-5.589829E-1,-9.87588E-1,-7.284971E-1,1.3949044E-2,-7.9303365E-3,-2.6794706E-2,3.937503E-3,-3.19225E-2,1.7354897E-3,3.998811E-2,-1.6281063E-2,-3.428334E-2,6.260378E-3,-1.7719831E-2,-4.8919044E-2,-2.3825182E-2,1.479311E-2,7.469398E-3,-3.378327E-2],"split_indices":[99,434,2521,1287,388,1358,1300,336,1578,356,1960,110,467,1813,1552,0,0,0,0,0,0,0,0,0,0,0,0,0,0,0,0],"split_type":[0,0,0,0,0,0,0,0,0,0,0,0,0,0,0,0,0,0,0,0,0,0,0,0,0,0,0,0,0,0,0],"sum_hessian":[2.822852E3,2.2412903E3,5.815618E2,1.9537731E3,2.8751724E2,2.2479103E2,3.5677078E2,1.6177538E3,3.3601926E2,2.1551175E2,7.2005516E1,1.00538284E2,1.24252754E2,2.2010147E2,1.3666933E2,1.3100315E3,3.077223E2,1.6463268E2,1.7138658E2,1.7498256E2,4.052919E1,3.5242867E1,3.676265E1,3.9320076E1,6.121821E1,3.741365E1,8.68391E1,4.3549343E1,1.7655212E2,3.177431E1,1.0489502E2],"tree_param":{"num_deleted":"0","num_feature":"3073","num_nodes":"31","size_leaf_vector":"1"}},{"base_weights":[3.6393162E-3,-3.7953657E-1,4.829581E-2,-5.8746296E-1,-1.0833535E-1,7.8397475E-2,-5.1524127E-1,-3.5409018E-1,-9.2108697E-1,-5.379373E-1,1.4187233E-1,-2.1086385E-2,2.8147918E-1,-6.6984576E-1,5.730495E-1,-5.0022423E-2,-6.7275786E-3,1.974637E-2,-5.0198663E-2,-3.405262E-2,4.361577E-2,-1.5911883E-2,2.4435027E-2,1.676864E-2,-5.078568E-3,4.182927E-3,2.7953243E-2,-5.848465E-2,-2.3380663E-2,-3.395262E-2,6.620494E-2],"categories":[],"categories_nodes":[],"categories_segments":[],"categories_sizes":[],"default_left":[0,0,0,0,0,0,0,0,0,0,0,0,0,0,0,0,0,0,0,0,0,0,0,0,0,0,0,0,0,0,0],"id":37,"left_children":[1,3,5,7,9,11,13,15,17,19,21,23,25,27,29,-1,-1,-1,-1,-1,-1,-1,-1,-1,-1,-1,-1,-1,-1,-1,-1],"loss_changes":[4.8122173E1,1.6489334E1,4.2765923E1,1.2592926E1,1.3901163E1,4.8329144E1,2.1894753E1,1.39502125E1,7.778042E0,1.0190308E1,1.3252047E1,4.611909E1,4.3142174E1,1.0815575E1,1.6360977E1,0E0,0E0,0E0,0E0,0E0,0E0,0E0,0E0,0E0,0E0,0E0,0E0,0E0,0E0,0E0,0E0],"parents":[2147483647,0,0,1,1,2,2,3,3,4,4,5,5,6,6,7,7,8,8,9,9,10,10,11,11,12,12,13,13,14,14],"right_children":[2,4,6,8,10,12,14,16,18,20,22,24,26,28,30,-1,-1,-1,-1,-1,-1,-1,-1,-1,-1,-1,-1,-1,-1,-1,-1],"split_conditions":[-6.466728E-1,1.5578374E-1,1.8393202E0,3.2585713E-1,-9.582814E-2,4.1657454E-1,2.433536E0,-1.2303083E-1,-2.4320805E-1,1.8391563E0,-2.7960768E-1,-7.448074E-1,4.2500317E-2,-1.1521535E0,1.0160817E0,-5.0022423E-2,-6.7275786E-3,1.974637E-2,-5.0198663E-2,-3.405262E-2,4.361577E-2,-1.5911883E-2,2.4435027E-2,1.676864E-2,-5.078568E-3,4.182927E-3,2.7953243E-2,-5.848465E-2,-2.3380663E-2,-3.395262E-2,6.620494E-2],"split_indices":[350,1593,1295,1563,545,1719,124,475,1300,516,1289,1579,1542,1656,1794,0,0,0,0,0,0,0,0,0,0,0,0,0,0,0,0],"split_type":[0,0,0,0,0,0,0,0,0,0,0,0,0,0,0,0,0,0,0,0,0,0,0,0,0,0,0,0,0,0,0],"sum_hessian":[2.8102336E3,2.9254517E2,2.5176885E3,1.6492964E2,1.2761553E2,2.390841E3,1.2684729E2,9.825841E1,6.667124E1,4.6546352E1,8.106918E1,1.6053317E3,7.855094E2,1.1140535E2,1.5441944E1,2.4010485E1,7.424792E1,3.7272775E0,6.2943966E1,4.2727364E1,3.8189855E0,3.4879585E1,4.6189598E1,2.9511823E2,1.3102135E3,4.5941205E2,3.2609735E2,3.071207E1,8.0693275E1,5.8256507E0,9.616294E0],"tree_param":{"num_deleted":"0","num_feature":"3073","num_nodes":"31","size_leaf_vector":"1"}},{"base_weights":[-2.0393329E-3,-3.4617606E-1,4.8552826E-2,1.23343766E-1,-5.311383E-1,1.22465275E-1,-2.1295504E-1,-4.3240958E-1,7.2314924E-1,-3.7531847E-1,-8.8750494E-1,1.5882294E-1,-4.3155465E-1,-4.0624294E-1,2.2368958E-2,-3.3283103E-2,3.4713373E-2,4.5145288E-2,-3.5063256E-2,2.286073E-2,-2.3978604E-2,-4.7964226E-2,2.7698157E-2,-3.7809683E-3,1.2569486E-2,-3.658785E-2,4.7257566E-3,-1.2960079E-2,-4.8558015E-2,-3.1143565E-2,8.190798E-3],"categories":[],"categories_nodes":[],"categories_segments":[],"categories_sizes":[],"default_left":[0,0,0,0,0,0,0,0,0,0,0,0,0,0,0,0,0,0,0,0,0,0,0,0,0,0,0,0,0,0,0],"id":38,"left_children":[1,3,5,7,9,11,13,15,17,19,21,23,25,27,29,-1,-1,-1,-1,-1,-1,-1,-1,-1,-1,-1,-1,-1,-1,-1,-1],"loss_changes":[4.8966206E1,3.1369713E1,4.742003E1,3.454133E1,1.4036949E1,3.858812E1,2.4602175E1,1.4633476E1,1.3373674E1,1.5997524E1,8.601482E0,3.897944E1,1.87104E1,2.4411217E1,2.2442009E1,0E0,0E0,0E0,0E0,0E0,0E0,0E0,0E0,0E0,0E0,0E0,0E0,0E0,0E0,0E0,0E0],"parents":[2147483647,0,0,1,1,2,2,3,3,4,4,5,5,6,6,7,7,8,8,9,9,10,10,11,11,12,12,13,13,14,14],"right_children":[2,4,6,8,10,12,14,16,18,20,22,24,26,28,30,-1,-1,-1,-1,-1,-1,-1,-1,-1,-1,-1,-1,-1,-1,-1,-1],"split_conditions":[-8.484474E-1,-7.1153456E-1,5.6660396E-1,-4.65125E-1,-2.488012E-2,1.3212591E0,7.95863E-2,2.478073E-1,8.0041116E-1,-8.3942723E-1,1.9551692E0,-4.92334E-1,4.34886E-1,8.2238555E-1,-1.0319239E0,-3.3283103E-2,3.4713373E-2,4.5145288E-2,-3.5063256E-2,2.286073E-2,-2.3978604E-2,-4.7964226E-2,2.7698157E-2,-3.7809683E-3,1.2569486E-2,-3.658785E-2,4.7257566E-3,-1.2960079E-2,-4.8558015E-2,-3.1143565E-2,8.190798E-3],"split_indices":[1918,15,409,1766,1383,1556,1542,1741,1788,593,2444,1598,79,82,68,0,0,0,0,0,0,0,0,0,0,0,0,0,0,0,0],"split_type":[0,0,0,0,0,0,0,0,0,0,0,0,0,0,0,0,0,0,0,0,0,0,0,0,0,0,0,0,0,0,0],"sum_hessian":[2.8104678E3,3.594671E2,2.4510007E3,1.0168263E2,2.577845E2,1.9113184E3,5.396823E2,5.2924347E1,4.8758286E1,1.807886E2,7.699587E1,1.7942816E3,1.1703674E2,2.9590704E2,2.4377525E2,4.4185863E1,8.738482E0,4.3619736E1,5.1385503E0,1.974291E1,1.6104568E2,7.3662285E1,3.3335898E0,5.0796088E2,1.2863207E3,7.4265854E1,4.2770885E1,2.359507E2,5.9956356E1,4.321902E1,2.0055623E2],"tree_param":{"num_deleted":"0","num_feature":"3073","num_nodes":"31","size_leaf_vector":"1"}},{"base_weights":[3.9862166E-4,2.84869E-2,-5.802825E-1,-2.9285812E-1,7.7819064E-2,-2.4200054E-1,-8.707649E-1,-2.1836394E-3,-5.316582E-1,-1.8218717E-1,1.4404154E-1,-5.04206E-1,5.7340384E-1,1.826557E-2,-9.913053E-1,-4.5396622E-2,5.774705E-3,-1.5915146E-2,-5.1285863E-2,-1.3052686E-2,2.4778873E-2,1.1405926E-2,-5.1310416E-3,5.4952174E-2,-3.2020975E-2,-1.8514592E-2,6.562673E-2,-5.1598386E-3,-5.2991908E-2],"categories":[],"categories_nodes":[],"categories_segments":[],"categories_sizes":[],"default_left":[0,0,0,0,0,0,0,0,0,0,0,0,0,0,0,0,0,0,0,0,0,0,0,0,0,0,0,0,0],"id":39,"left_children":[1,3,5,7,9,11,13,15,17,19,21,23,25,-1,27,-1,-1,-1,-1,-1,-1,-1,-1,-1,-1,-1,-1,-1,-1],"loss_changes":[4.563514E1,4.233065E1,1.2474777E1,2.466784E1,3.9876617E1,1.3336541E1,1.0653294E1,1.7296364E1,2.0239288E1,2.5265947E1,3.828971E1,1.0904284E1,1.1169613E1,0E0,3.737381E0,0E0,0E0,0E0,0E0,0E0,0E0,0E0,0E0,0E0,0E0,0E0,0E0,0E0,0E0],"parents":[2147483647,0,0,1,1,2,2,3,3,4,4,5,5,6,6,7,7,8,8,9,9,10,10,11,11,12,12,14,14],"right_children":[2,4,6,8,10,12,14,16,18,20,22,24,26,-1,28,-1,-1,-1,-1,-1,-1,-1,-1,-1,-1,-1,-1,-1,-1],"split_conditions":[6.1801486E-2,-1.1069709E0,-1.11813605E-1,-4.510261E-2,-8.232577E-1,5.291298E-1,-2.0239327E0,-1.0191857E0,9.649307E-1,1.0425465E0,4.6446565E-1,-1.5152925E0,-1.6832314E-2,1.826557E-2,-1.4494992E0,-4.5396622E-2,5.774705E-3,-1.5915146E-2,-5.1285863E-2,-1.3052686E-2,2.4778873E-2,1.1405926E-2,-5.1310416E-3,5.4952174E-2,-3.2020975E-2,-1.8514592E-2,6.562673E-2,-5.1598386E-3,-5.2991908E-2],"split_indices":[1383,1686,1281,2022,387,10,1693,1793,1571,517,1819,1780,1755,0,508,0,0,0,0,0,0,0,0,0,0,0,0,0,0],"split_type":[0,0,0,0,0,0,0,0,0,0,0,0,0,0,0,0,0,0,0,0,0,0,0,0,0,0,0,0,0],"sum_hessian":[2.7959148E3,2.66782E3,1.2809486E2,3.5439413E2,2.3134258E3,6.0025326E1,6.806954E1,1.602916E2,1.9410254E2,4.6925607E2,1.8441698E3,4.5708668E1,1.4316658E1,5.8678E0,6.220174E1,1.7658813E1,1.4263278E2,1.3670982E2,5.739271E1,4.2089447E2,4.8361595E1,1.3754209E3,4.687489E2,3.0258229E0,4.2682846E1,6.507339E0,7.8093195E0,4.6355886E0,5.756615E1],"tree_param":{"num_deleted":"0","num_feature":"3073","num_nodes":"29","size_leaf_vector":"1"}},{"base_weights":[5.3105056E-3,-6.776343E-1,3.067703E-2,-1.7680961E-1,-9.972902E-1,-1.601843E-2,3.8246307E-1,1.0205653E0,-4.5782167E-1,-1.4839207E-1,-1.1096689E0,4.6120234E-2,-3.0318284E-1,-1.2432475E-3,7.1948814E-1,1.0987014E-3,8.120918E-2,-4.051101E-2,1.5564161E-2,-5.7302624E-2,5.6703962E-2,-1.982151E-2,-6.153926E-2,-4.8871953E-3,1.0960541E-2,-2.3515362E-3,-2.7769286E-2,-2.5084123E-2,1.2592539E-2,4.1990373E-2,-8.09384E-3],"categories":[],"categories_nodes":[],"categories_segments":[],"categories_sizes":[],"default_left":[0,0,0,0,0,0,0,0,0,0,0,0,0,0,0,0,0,0,0,0,0,0,0,0,0,0,0,0,0,0,0],"id":40,"left_children":[1,3,5,7,9,11,13,15,17,19,21,23,25,27,29,-1,-1,-1,-1,-1,-1,-1,-1,-1,-1,-1,-1,-1,-1,-1,-1],"loss_changes":[4.8488205E1,1.5870758E1,4.43335E1,1.4016282E1,5.6517105E0,4.254019E1,4.0898846E1,4.764579E0,9.278552E0,1.18963585E1,4.1498566E0,4.8831635E1,2.7371128E1,1.8983854E1,1.799102E1,0E0,0E0,0E0,0E0,0E0,0E0,0E0,0E0,0E0,0E0,0E0,0E0,0E0,0E0,0E0,0E0],"parents":[2147483647,0,0,1,1,2,2,3,3,4,4,5,5,6,6,7,7,8,8,9,9,10,10,11,11,12,12,13,13,14,14],"right_children":[2,4,6,8,10,12,14,16,18,20,22,24,26,28,30,-1,-1,-1,-1,-1,-1,-1,-1,-1,-1,-1,-1,-1,-1,-1,-1],"split_conditions":[-1.7125009E0,-1.2405712E-1,1.0016586E0,-5.3442633E-1,-7.783358E-2,6.219083E-1,8.118291E-2,-3.882122E-1,7.259002E-2,-7.9468496E-2,-5.720148E-1,5.0936628E-2,-2.1848993E-1,-4.5717195E-1,3.587433E-1,1.0987014E-3,8.120918E-2,-4.051101E-2,1.5564161E-2,-5.7302624E-2,5.6703962E-2,-1.982151E-2,-6.153926E-2,-4.8871953E-3,1.0960541E-2,-2.3515362E-3,-2.7769286E-2,-2.5084123E-2,1.2592539E-2,4.1990373E-2,-8.09384E-3],"split_indices":[1616,1571,1675,1281,1381,103,1544,382,2288,427,510,1542,1293,1884,1297,0,0,0,0,0,0,0,0,0,0,0,0,0,0,0,0],"split_type":[0,0,0,0,0,0,0,0,0,0,0,0,0,0,0,0,0,0,0,0,0,0,0,0,0,0,0,0,0,0,0],"sum_hessian":[2.796714E3,9.923694E1,2.6974773E3,3.92674E1,5.996954E1,2.38222E3,3.1525723E2,6.9637103E0,3.2303688E1,7.282051E0,5.268749E1,1.9591292E3,4.2309082E2,1.4788501E2,1.6737221E2,3.0139723E0,3.949738E0,2.2116571E1,1.0187116E1,4.155655E0,3.1263962E0,8.268493E0,4.4418995E1,1.070128E3,8.890011E2,2.104906E2,2.126002E2,4.9341187E1,9.854382E1,1.4730945E2,2.0062767E1],"tree_param":{"num_deleted":"0","num_feature":"3073","num_nodes":"31","size_leaf_vector":"1"}},{"base_weights":[-9.154925E-4,-6.183959E-1,2.4845405E-2,-7.53412E-1,2.4492005E-1,8.5502714E-2,-2.2815457E-1,-1.6183841E-1,-9.0422493E-1,-3.8738757E-1,7.4136175E-2,1.3778107E-1,-2.7527282E-1,-5.5825824E-1,-8.836826E-2,-3.5933536E-2,2.9730363E-2,-5.1191833E-2,-1.0919183E-2,-4.5222197E-2,3.8192026E-2,1.908754E-2,2.1131937E-3,-2.1340108E-2,1.9207645E-2,-1.304095E-3,-4.0721815E-2,2.0666985E-2,-1.0754142E-2],"categories":[],"categories_nodes":[],"categories_segments":[],"categories_sizes":[],"default_left":[0,0,0,0,0,0,0,0,0,0,0,0,0,0,0,0,0,0,0,0,0,0,0,0,0,0,0,0,0],"id":41,"left_children":[1,3,5,7,9,11,13,15,17,19,-1,21,23,25,27,-1,-1,-1,-1,-1,-1,-1,-1,-1,-1,-1,-1,-1,-1],"loss_changes":[4.4551125E1,1.325877E1,4.1279854E1,8.529278E0,1.3037816E1,4.0954483E1,2.3955553E1,9.261139E0,6.1151886E0,7.436744E0,0E0,4.415521E1,2.7633102E1,2.105157E1,2.3398026E1,0E0,0E0,0E0,0E0,0E0,0E0,0E0,0E0,0E0,0E0,0E0,0E0,0E0,0E0],"parents":[2147483647,0,0,1,1,2,2,3,3,4,4,5,5,6,6,7,7,8,8,9,9,11,11,12,12,13,13,14,14],"right_children":[2,4,6,8,10,12,14,16,18,20,-1,22,24,26,28,-1,-1,-1,-1,-1,-1,-1,-1,-1,-1,-1,-1,-1,-1],"split_conditions":[-1.862106E0,1.7721183E0,6.390512E-1,-4.281164E-1,-8.443344E-1,1.1557984E0,-4.1903007E-1,-1.5842716E-1,4.7529298E-1,9.301065E-1,7.4136175E-2,-2.5088853E-1,9.435214E-1,-2.6468903E-1,-5.3209645E-1,-3.5933536E-2,2.9730363E-2,-5.1191833E-2,-1.0919183E-2,-4.5222197E-2,3.8192026E-2,1.908754E-2,2.1131937E-3,-2.1340108E-2,1.9207645E-2,-1.304095E-3,-4.0721815E-2,2.0666985E-2,-1.0754142E-2],"split_indices":[33,388,99,407,1645,434,471,10,363,453,0,339,388,258,399,0,0,0,0,0,0,0,0,0,0,0,0,0,0],"split_type":[0,0,0,0,0,0,0,0,0,0,0,0,0,0,0,0,0,0,0,0,0,0,0,0,0,0,0,0,0],"sum_hessian":[2.7987852E3,1.1116602E2,2.6876191E3,9.624184E1,1.4924191E1,2.1684019E3,5.1921716E2,1.9972296E1,7.626954E1,1.0332879E1,4.5913124E0,1.894497E3,2.7390494E2,1.5356993E2,3.6564722E2,1.1532769E1,8.4395275E0,6.452369E1,1.1745847E1,7.278306E0,3.054573E0,5.321878E2,1.3623091E3,2.2301186E2,5.0893097E1,5.026103E1,1.0330891E2,7.327269E1,2.923745E2],"tree_param":{"num_deleted":"0","num_feature":"3073","num_nodes":"29","size_leaf_vector":"1"}},{"base_weights":[-4.5583067E-3,1.0262842E-1,-1.488527E-1,3.25012E-1,-1.6520685E-3,-7.7380365E-1,-1.04853004E-1,4.090139E-1,-4.2792925E-1,2.6839462E-1,-1.0524822E-1,4.1014093E-1,-9.611987E-1,4.503411E-2,-2.9468855E-1,2.6856188E-2,-3.17004E-4,-3.462388E-2,3.088126E-2,3.138407E-2,-1.6982945E-3,2.1280466E-2,-1.0192687E-2,-1.9052895E-2,6.224239E-2,-9.7438897E-4,-5.5310976E-2,-8.461501E-3,1.5076011E-2,-2.1849707E-2,8.302286E-3],"categories":[],"categories_nodes":[],"categories_segments":[],"categories_sizes":[],"default_left":[0,0,0,0,0,0,0,0,0,0,0,0,0,0,0,0,0,0,0,0,0,0,0,0,0,0,0,0,0,0,0],"id":42,"left_children":[1,3,5,7,9,11,13,15,17,19,21,23,25,27,29,-1,-1,-1,-1,-1,-1,-1,-1,-1,-1,-1,-1,-1,-1,-1,-1],"loss_changes":[4.312279E1,3.710047E1,3.259593E1,3.247658E1,3.052459E1,1.7701195E1,3.1635553E1,2.447837E1,1.4740966E1,3.288552E1,4.1365116E1,7.9771194E0,9.21669E0,3.422724E1,3.222997E1,0E0,0E0,0E0,0E0,0E0,0E0,0E0,0E0,0E0,0E0,0E0,0E0,0E0,0E0,0E0,0E0],"parents":[2147483647,0,0,1,1,2,2,3,3,4,4,5,5,6,6,7,7,8,8,9,9,10,10,11,11,12,12,13,13,14,14],"right_children":[2,4,6,8,10,12,14,16,18,20,22,24,26,28,30,-1,-1,-1,-1,-1,-1,-1,-1,-1,-1,-1,-1,-1,-1,-1,-1],"split_conditions":[-1.7822038E-1,-4.861651E-1,-1.0601176E0,1.5863762E0,-3.761853E-1,-5.415249E-1,-1.7786838E-1,3.8425198E-1,2.0041442E0,-8.718003E-2,-7.496893E-1,6.402129E-1,-5.559095E-1,2.7281187E-2,6.5184E-1,2.6856188E-2,-3.17004E-4,-3.462388E-2,3.088126E-2,3.138407E-2,-1.6982945E-3,2.1280466E-2,-1.0192687E-2,-1.9052895E-2,6.224239E-2,-9.7438897E-4,-5.5310976E-2,-8.461501E-3,1.5076011E-2,-2.1849707E-2,8.302286E-3],"split_indices":[1310,1818,511,1295,1795,1281,1293,415,1917,97,1873,126,655,2516,1547,0,0,0,0,0,0,0,0,0,0,0,0,0,0,0,0],"split_type":[0,0,0,0,0,0,0,0,0,0,0,0,0,0,0,0,0,0,0,0,0,0,0,0,0,0,0,0,0,0,0],"sum_hessian":[2.786164E3,1.598806E3,1.187358E3,5.0970874E2,1.0890973E3,7.7006584E1,1.1103514E3,4.589615E2,5.0747257E1,3.0152188E2,7.8757544E2,1.0360604E1,6.664597E1,6.208858E2,4.8946564E2,3.505472E2,1.0841429E2,4.0769394E1,9.977863E0,1.3729822E2,1.6422366E2,1.2285435E2,6.6472107E2,5.5979366E0,4.762668E0,9.045071E0,5.7600906E1,3.3847214E2,2.8241367E2,3.740007E2,1.1546493E2],"tree_param":{"num_deleted":"0","num_feature":"3073","num_nodes":"31","size_leaf_vector":"1"}},{"base_weights":[1.0284901E-2,-3.1469223E-1,5.805571E-2,1.2791646E-1,-4.6334463E-1,-6.245973E-2,2.0253985E-1,7.3672825E-1,-1.5386117E-1,-1.0280058E-1,-6.975223E-1,-8.812329E-3,-6.9836456E-1,3.629085E-1,-7.047676E-3,-1.6357444E-2,5.4160006E-2,2.9268185E-2,-1.9553153E-2,2.110273E-2,-2.0583441E-2,-5.7422616E-2,-2.5016788E-2,-1.2969471E-2,5.9522125E-3,1.05853425E-2,-4.1603517E-2,-9.345203E-3,2.217072E-2,5.8200597E-3,-2.6423723E-2],"categories":[],"categories_nodes":[],"categories_segments":[],"categories_sizes":[],"default_left":[0,0,0,0,0,0,0,0,0,0,0,0,0,0,0,0,0,0,0,0,0,0,0,0,0,0,0,0,0,0,0],"id":43,"left_children":[1,3,5,7,9,11,13,15,17,19,21,23,25,27,29,-1,-1,-1,-1,-1,-1,-1,-1,-1,-1,-1,-1,-1,-1,-1,-1],"loss_changes":[4.318077E1,2.3513443E1,4.223504E1,1.5622628E1,2.2477158E1,4.5121914E1,3.7075356E1,1.0961681E1,1.1210793E1,1.7411564E1,1.3806351E1,3.914699E1,1.2697731E1,2.7742157E1,3.0901213E1,0E0,0E0,0E0,0E0,0E0,0E0,0E0,0E0,0E0,0E0,0E0,0E0,0E0,0E0,0E0,0E0],"parents":[2147483647,0,0,1,1,2,2,3,3,4,4,5,5,6,6,7,7,8,8,9,9,10,10,11,11,12,12,13,13,14,14],"right_children":[2,4,6,8,10,12,14,16,18,20,22,24,26,28,30,-1,-1,-1,-1,-1,-1,-1,-1,-1,-1,-1,-1,-1,-1,-1,-1],"split_conditions":[-8.484474E-1,-5.970571E-2,1.10504E-2,-7.5520134E-1,-2.7208233E-1,1.0034834E0,-8.2345694E-2,-1.1137584E0,-4.4860724E-1,-1.4116098E-1,-3.1654447E-1,-8.501938E-2,-5.1488817E-1,-7.1694404E-1,8.6879647E-1,-1.6357444E-2,5.4160006E-2,2.9268185E-2,-1.9553153E-2,2.110273E-2,-2.0583441E-2,-5.7422616E-2,-2.5016788E-2,-1.2969471E-2,5.9522125E-3,1.05853425E-2,-4.1603517E-2,-9.345203E-3,2.217072E-2,5.8200597E-3,-2.6423723E-2],"split_indices":[1918,1378,517,1680,1883,338,1395,0,2125,257,475,316,1350,1887,1625,0,0,0,0,0,0,0,0,0,0,0,0,0,0,0,0],"split_type":[0,0,0,0,0,0,0,0,0,0,0,0,0,0,0,0,0,0,0,0,0,0,0,0,0,0,0,0,0,0,0],"sum_hessian":[2.7792969E3,3.554744E2,2.4238225E3,8.940697E1,2.6606744E2,1.3218358E3,1.1019868E3,2.7777033E1,6.1629932E1,1.0533334E2,1.6073409E2,1.2199315E3,1.019043E2,6.238829E2,4.7810385E2,6.837516E0,2.0939518E1,1.4615099E1,4.7014835E1,3.8886925E1,6.644642E1,4.7434883E1,1.132992E2,4.1181522E2,8.081163E2,1.2979003E1,8.892529E1,7.951513E1,5.443678E2,3.8720828E2,9.089559E1],"tree_param":{"num_deleted":"0","num_feature":"3073","num_nodes":"31","size_leaf_vector":"1"}},{"base_weights":[4.158362E-3,1.037023E-1,-1.4610569E-1,-2.6528308E-1,1.6199112E-1,3.292204E-1,-2.2525369E-1,-3.6537206E-1,1.0008096E0,2.1702914E-1,-2.946236E-1,-2.9625623E-3,6.923239E-1,-3.329369E-1,1.3018738E-2,-2.9787077E-2,3.6713108E-3,7.128943E-2,-1.4073915E-2,-4.436998E-3,1.5021465E-2,-2.7967542E-2,1.6447796E-2,1.5924823E-2,-2.6074067E-2,4.0298857E-2,-4.239915E-2,-2.4839593E-2,-6.025777E-3,-1.3190788E-2,2.5638094E-2],"categories":[],"categories_nodes":[],"categories_segments":[],"categories_sizes":[],"default_left":[0,0,0,0,0,0,0,0,0,0,0,0,0,0,0,0,0,0,0,0,0,0,0,0,0,0,0,0,0,0,0],"id":44,"left_children":[1,3,5,7,9,11,13,15,17,19,21,23,25,27,29,-1,-1,-1,-1,-1,-1,-1,-1,-1,-1,-1,-1,-1,-1,-1,-1],"loss_changes":[4.159065E1,3.60148E1,4.175825E1,2.9327072E1,3.6377598E1,1.9127838E1,2.439043E1,2.15277E1,9.6713505E0,3.292593E1,2.591276E1,1.4134895E1,1.394635E1,2.2725533E1,4.1195915E1,0E0,0E0,0E0,0E0,0E0,0E0,0E0,0E0,0E0,0E0,0E0,0E0,0E0,0E0,0E0,0E0],"parents":[2147483647,0,0,1,1,2,2,3,3,4,4,5,5,6,6,7,7,8,8,9,9,10,10,11,11,12,12,13,13,14,14],"right_children":[2,4,6,8,10,12,14,16,18,20,22,24,26,28,30,-1,-1,-1,-1,-1,-1,-1,-1,-1,-1,-1,-1,-1,-1,-1,-1],"split_conditions":[-1.296622E-1,-1.2526436E0,-2.5958338E-1,1.4780195E0,9.884515E-1,1.1735287E-1,6.461753E-1,3.6811635E-2,9.675191E-1,