{"learner":{"attributes":{},"feature_names":[],"feature_types":[],"gradient_booster":{"model":{"gbtree_model_param":{"num_parallel_tree":"1","num_trees":"37"},"iteration_indptr":[0,1,2,3,4,5,6,7,8,9,10,11,12,13,14,15,16,17,18,19,20,21,22,23,24,25,26,27,28,29,30,31,32,33,34,35,36,37],"tree_info":[0,0,0,0,0,0,0,0,0,0,0,0,0,0,0,0,0,0,0,0,0,0,0,0,0,0,0,0,0,0,0,0,0,0,0,0,0],"trees":[{"base_weights":[4.5688264E-3,2.0802994E-1,-5.3303707E-1,-5.930181E-2,4.1152352E-1,-3.3194107E-1,-1.1344804E0,2.312411E-1,-4.4002363E-1,8.8738304E-1,1.675532E-1,-5.111516E-1,4.2656198E-1,-1.3319772E0,-5.5597013E-1,1.7708734E-2,-3.6886036E-2,1.257582E-3,-3.3985797E-2,5.0907653E-2,-1.7183794E-2,-9.700977E-3,2.1781247E-2,-1.1259748E-2,-4.02922E-2,-1.1063307E-2,5.714286E-2,-3.329828E-2,-7.39783E-2,-5.2361257E-2,1.2434008E-2],"categories":[],"categories_nodes":[],"categories_segments":[],"categories_sizes":[],"default_left":[0,0,0,0,0,0,0,0,0,0,0,0,0,0,0,0,0,0,0,0,0,0,0,0,0,0,0,0,0,0,0],"id":0,"left_children":[1,3,5,7,9,11,13,15,17,19,21,23,25,27,29,-1,-1,-1,-1,-1,-1,-1,-1,-1,-1,-1,-1,-1,-1,-1,-1],"loss_changes":[3.2478705E2,1.1720558E2,9.822337E1,1.0318142E2,1.4185767E2,8.3457924E1,2.2551422E1,6.329666E1,4.5027496E1,6.705249E1,7.8580826E1,4.1598236E1,5.481282E1,1.3883026E1,2.1447882E1,0E0,0E0,0E0,0E0,0E0,0E0,0E0,0E0,0E0,0E0,0E0,0E0,0E0,0E0,0E0,0E0],"parents":[2147483647,0,0,1,1,2,2,3,3,4,4,5,5,6,6,7,7,8,8,9,9,10,10,11,11,12,12,13,13,14,14],"right_children":[2,4,6,8,10,12,14,16,18,20,22,24,26,28,30,-1,-1,-1,-1,-1,-1,-1,-1,-1,-1,-1,-1,-1,-1,-1,-1],"split_conditions":[-3.538873E-2,-7.962068E-2,2.341059E-1,-1.502841E-2,-2.186349E-1,9.5207596E-1,7.735214E-2,9.982744E-1,-3.2408E-1,8.8323194E-1,2.6099774E-1,-2.749997E-2,-1.2450989E-1,-5.400812E-1,7.844423E-2,1.7708734E-2,-3.6886036E-2,1.257582E-3,-3.3985797E-2,5.0907653E-2,-1.7183794E-2,-9.700977E-3,2.1781247E-2,-1.1259748E-2,-4.02922E-2,-1.1063307E-2,5.714286E-2,-3.329828E-2,-7.39783E-2,-5.2361257E-2,1.2434008E-2],"split_indices":[1715,330,1739,2341,802,325,330,801,1613,1668,2084,1699,4,495,324,0,0,0,0,0,0,0,0,0,0,0,0,0,0,0,0],"split_type":[0,0,0,0,0,0,0,0,0,0,0,0,0,0,0,0,0,0,0,0,0,0,0,0,0,0,0,0,0,0,0],"sum_hessian":[2.9672808E3,2.153054E3,8.142269E2,9.3086926E2,1.2221846E3,6.1136536E2,2.0286154E2,5.2818463E2,4.0268463E2,4.1333847E2,8.088461E2,4.9478845E2,1.1657693E2,1.5026154E2,5.26E1,4.6928076E2,5.8903847E1,1.3723846E2,2.6544617E2,3.7380383E2,3.9534615E1,3.4448462E2,4.6436154E2,2.5201154E2,2.4277692E2,6.1576923E1,5.5E1,2.8257692E1,1.22003845E2,3.2473076E1,2.0126923E1],"tree_param":{"num_deleted":"0","num_feature":"3841","num_nodes":"31","size_leaf_vector":"1"}},{"base_weights":[1.083293E-3,1.9992077E-1,-4.9230665E-1,-7.058378E-2,4.0497854E-1,-2.1464835E-1,-9.0474844E-1,2.0474912E-1,-4.5736837E-1,8.170107E-1,1.600813E-1,-3.890272E-1,4.5457152E-1,-1.447503E0,-7.517945E-1,2.2445215E-2,-1.3252114E-2,-6.365333E-2,-1.6923983E-2,4.531633E-2,-3.393781E-2,-2.0963529E-3,3.1757113E-2,-2.4742847E-2,3.6570664E-2,-6.5852986E-3,6.8958186E-2,1.4092867E-2,-7.623025E-2,-7.461559E-3,-4.6902418E-2],"categories":[],"categories_nodes":[],"categories_segments":[],"categories_sizes":[],"default_left":[0,0,0,0,0,0,0,0,0,0,0,0,0,0,0,0,0,0,0,0,0,0,0,0,0,0,0,0,0,0,0],"id":1,"left_children":[1,3,5,7,9,11,13,15,17,19,21,23,25,27,29,-1,-1,-1,-1,-1,-1,-1,-1,-1,-1,-1,-1,-1,-1,-1,-1],"loss_changes":[2.929707E2,1.1809521E2,9.803908E1,9.7924355E1,1.2205246E2,6.015703E1,2.7537537E1,6.175175E1,3.6645058E1,6.0887848E1,7.3029236E1,4.8773422E1,5.802288E1,1.0393906E1,3.028444E1,0E0,0E0,0E0,0E0,0E0,0E0,0E0,0E0,0E0,0E0,0E0,0E0,0E0,0E0,0E0,0E0],"parents":[2147483647,0,0,1,1,2,2,3,3,4,4,5,5,6,6,7,7,8,8,9,9,10,10,11,11,12,12,13,13,14,14],"right_children":[2,4,6,8,10,12,14,16,18,20,22,24,26,28,30,-1,-1,-1,-1,-1,-1,-1,-1,-1,-1,-1,-1,-1,-1,-1,-1],"split_conditions":[-4.0908027E-2,-7.962068E-2,-4.7404967E-2,1.0846901E-3,-5.3988658E-2,1.0098798E0,-1.093339E0,3.392769E-1,-8.1848425E-1,8.14459E-2,3.1417233E-1,1.1011271E0,3.2639208E-1,-4.546391E-1,-6.083213E-1,2.2445215E-2,-1.3252114E-2,-6.365333E-2,-1.6923983E-2,4.531633E-2,-3.393781E-2,-2.0963529E-3,3.1757113E-2,-2.4742847E-2,3.6570664E-2,-6.5852986E-3,6.8958186E-2,1.4092867E-2,-7.623025E-2,-7.461559E-3,-4.6902418E-2],"split_indices":[1715,330,1620,2341,482,2086,68,1,1962,1697,440,320,4,1613,1936,0,0,0,0,0,0,0,0,0,0,0,0,0,0,0,0],"split_type":[0,0,0,0,0,0,0,0,0,0,0,0,0,0,0,0,0,0,0,0,0,0,0,0,0,0,0,0,0,0,0],"sum_hessian":[2.984312E3,2.1275132E3,8.567988E2,9.1764545E2,1.2098678E3,5.129788E2,3.4382E2,5.363295E2,3.8131595E2,4.5015674E2,7.597111E2,4.07274E2,1.05704834E2,7.3729256E1,2.7009073E2,3.52945E2,1.833845E2,4.7272205E1,3.3404373E2,4.2516327E2,2.4993465E1,5.336857E2,2.260254E2,3.726355E2,3.4638474E1,6.5211945E1,4.049289E1,3.033511E0,7.069575E1,6.4198555E1,2.0589218E2],"tree_param":{"num_deleted":"0","num_feature":"3841","num_nodes":"31","size_leaf_vector":"1"}},{"base_weights":[1.4240702E-3,1.3810009E-1,-6.574194E-1,-6.9119506E-2,3.7161753E-1,-3.4278858E-1,-1.0871029E0,1.5357202E-1,-4.4953334E-1,2.0118915E-1,1.0040674E0,-2.4761148E-2,-8.183096E-1,-1.196741E0,-2.3842454E-1,-5.920678E-3,1.9762715E-2,-8.206938E-3,-4.6551533E-2,2.0857839E-2,-1.544642E-2,6.106303E-2,4.45725E-3,-1.9749047E-2,2.6499555E-2,-1.0251482E-2,-5.439837E-2,-7.859818E-2,-4.663047E-2,4.3054137E-2,-6.450459E-2],"categories":[],"categories_nodes":[],"categories_segments":[],"categories_sizes":[],"default_left":[0,0,0,0,0,0,0,0,0,0,0,0,0,0,0,0,0,0,0,0,0,0,0,0,0,0,0,0,0,0,0],"id":2,"left_children":[1,3,5,7,9,11,13,15,17,19,21,23,25,27,29,-1,-1,-1,-1,-1,-1,-1,-1,-1,-1,-1,-1,-1,-1,-1,-1],"loss_changes":[2.6787772E2,1.1924376E2,6.8723495E1,1.1072433E2,1.2467142E2,4.4820713E1,1.9774445E1,5.425422E1,6.615908E1,1.00806305E2,4.8709366E1,3.691296E1,1.9423637E1,1.7431244E1,3.1074963E1,0E0,0E0,0E0,0E0,0E0,0E0,0E0,0E0,0E0,0E0,0E0,0E0,0E0,0E0,0E0,0E0],"parents":[2147483647,0,0,1,1,2,2,3,3,4,4,5,5,6,6,7,7,8,8,9,9,10,10,11,11,12,12,13,13,14,14],"right_children":[2,4,6,8,10,12,14,16,18,20,22,24,26,28,30,-1,-1,-1,-1,-1,-1,-1,-1,-1,-1,-1,-1,-1,-1,-1,-1],"split_conditions":[2.0408186E-1,2.6616124E-2,1.8223563E-1,-1.7474154E-1,4.6160704E-1,-2.8795568E-2,1.2183051E0,1.2883297E-1,1.3991575E-1,4.6847034E-1,1.4369552E-1,-6.152616E-3,-1.7209475E-1,-5.0066644E-1,4.9089798E-1,-5.920678E-3,1.9762715E-2,-8.206938E-3,-4.6551533E-2,2.0857839E-2,-1.544642E-2,6.106303E-2,4.45725E-3,-1.9749047E-2,2.6499555E-2,-1.0251482E-2,-5.439837E-2,-7.859818E-2,-4.663047E-2,4.3054137E-2,-6.450459E-2],"split_indices":[1757,5,1749,1670,324,1620,10,2084,2342,77,1602,59,3622,41,1668,0,0,0,0,0,0,0,0,0,0,0,0,0,0,0,0],"split_type":[0,0,0,0,0,0,0,0,0,0,0,0,0,0,0,0,0,0,0,0,0,0,0,0,0,0,0,0,0,0,0],"sum_hessian":[2.972821E3,2.4627236E3,5.1009763E2,1.3052075E3,1.157516E3,2.9551096E2,2.1458669E2,8.236469E2,4.8156067E2,9.128463E2,2.4466965E2,1.7771057E2,1.17800385E2,1.8967328E2,2.4913408E1,3.8776834E2,4.3587854E2,3.031924E2,1.7836826E2,6.4145624E2,2.7139005E2,1.9745988E2,4.7209774E1,1.0675469E2,7.095588E1,3.6515015E1,8.128537E1,7.631276E1,1.1336052E2,1.2268274E1,1.2645133E1],"tree_param":{"num_deleted":"0","num_feature":"3841","num_nodes":"31","size_leaf_vector":"1"}},{"base_weights":[-1.7146001E-3,1.8736456E-1,-4.472995E-1,-9.756856E-2,3.8104862E-1,-2.5161466E-1,-9.4667435E-1,-3.6393467E-1,2.7638996E-1,4.9113232E-1,-2.4229984E-1,4.3359634E-2,-7.033201E-1,-3.5520247E-1,-1.1137629E0,7.8889705E-2,-2.0176085E-2,2.1089671E-2,-2.9998606E-2,2.7681187E-2,-2.924685E-2,2.8202545E-3,-3.2576114E-2,1.6241072E-2,-2.5290627E-2,-1.0488859E-3,-4.532632E-2,-4.9182035E-2,1.1916858E-2,-2.8902454E-2,-6.622496E-2],"categories":[],"categories_nodes":[],"categories_segments":[],"categories_sizes":[],"default_left":[0,0,0,0,0,0,0,0,0,0,0,0,0,0,0,0,0,0,0,0,0,0,0,0,0,0,0,0,0,0,0],"id":3,"left_children":[1,3,5,7,9,11,13,15,17,19,21,23,25,27,29,-1,-1,-1,-1,-1,-1,-1,-1,-1,-1,-1,-1,-1,-1,-1,-1],"loss_changes":[2.5068681E2,1.1532461E2,8.6386246E1,8.438786E1,8.547319E1,8.507148E1,2.4233109E1,3.8655922E1,4.5179024E1,7.143506E1,2.2939663E1,5.9991123E1,3.4949577E1,2.1257383E1,2.1118515E1,0E0,0E0,0E0,0E0,0E0,0E0,0E0,0E0,0E0,0E0,0E0,0E0,0E0,0E0,0E0,0E0],"parents":[2147483647,0,0,1,1,2,2,3,3,4,4,5,5,6,6,7,7,8,8,9,9,10,10,11,11,12,12,13,13,14,14],"right_children":[2,4,6,8,10,12,14,16,18,20,22,24,26,28,30,-1,-1,-1,-1,-1,-1,-1,-1,-1,-1,-1,-1,-1,-1,-1,-1],"split_conditions":[-4.6076603E-2,-1.8388887E-1,4.0575227E-1,5.0936628E-2,-1.8481417E-2,2.8563397E-2,-4.382057E-1,-2.6019242E0,9.2629135E-1,1.4131674E0,-2.918304E-2,-7.305975E-2,-5.780115E-1,-3.1328934E-1,-2.7613994E-1,7.8889705E-2,-2.0176085E-2,2.1089671E-2,-2.9998606E-2,2.7681187E-2,-2.924685E-2,2.8202545E-3,-3.2576114E-2,1.6241072E-2,-2.5290627E-2,-1.0488859E-3,-4.532632E-2,-4.9182035E-2,1.1916858E-2,-2.8902454E-2,-6.622496E-2],"split_indices":[1715,803,1615,1926,1719,1603,495,69,83,2253,1708,1607,2269,548,488,0,0,0,0,0,0,0,0,0,0,0,0,0,0,0,0],"split_type":[0,0,0,0,0,0,0,0,0,0,0,0,0,0,0,0,0,0,0,0,0,0,0,0,0,0,0,0,0,0,0],"sum_hessian":[2.973487E3,2.0880325E3,8.854546E2,8.451738E2,1.2428586E3,6.372471E2,2.4820755E2,4.9360898E2,3.5156488E2,1.0564934E3,1.8636522E2,3.8605078E2,2.5119626E2,5.536133E1,1.9284622E2,9.086038E0,4.8452295E2,3.0197992E2,4.9584934E1,9.989653E2,5.7528168E1,1.0822812E2,7.813711E1,2.5550688E2,1.305439E2,5.7895016E1,1.9330125E2,2.6570892E1,2.8790436E1,5.5500717E1,1.3734552E2],"tree_param":{"num_deleted":"0","num_feature":"3841","num_nodes":"31","size_leaf_vector":"1"}},{"base_weights":[-5.15052E-3,1.2534967E-1,-5.962161E-1,-6.387124E-2,3.503351E-1,-4.1064933E-1,-1.0067772E0,2.637802E-1,-2.807001E-1,-8.0515057E-1,4.5227292E-1,-5.530977E-1,1.8131375E-1,-1.1148647E0,-9.98011E-2,2.0023026E-2,-1.6183432E-2,-9.746422E-3,-5.3186495E-2,-4.9361106E-2,2.3900649E-2,2.6541462E-2,-2.5619486E-2,-3.2886814E-2,1.5821423E-2,3.037925E-2,-3.6579873E-2,-7.853555E-3,-5.903085E-2,-5.9587236E-2,5.0201315E-2],"categories":[],"categories_nodes":[],"categories_segments":[],"categories_sizes":[],"default_left":[0,0,0,0,0,0,0,0,0,0,0,0,0,0,0,0,0,0,0,0,0,0,0,0,0,0,0,0,0,0,0],"id":4,"left_children":[1,3,5,7,9,11,13,15,17,19,21,23,25,27,29,-1,-1,-1,-1,-1,-1,-1,-1,-1,-1,-1,-1,-1,-1,-1,-1],"loss_changes":[2.2882321E2,1.034752E2,4.0462265E1,9.390884E1,1.3114117E2,3.1401306E1,1.6193878E1,4.2403393E1,5.3206184E1,2.15845E1,7.7636856E1,2.745356E1,2.875569E1,9.167557E0,2.3867361E1,0E0,0E0,0E0,0E0,0E0,0E0,0E0,0E0,0E0,0E0,0E0,0E0,0E0,0E0,0E0,0E0],"parents":[2147483647,0,0,1,1,2,2,3,3,4,4,5,5,6,6,7,7,8,8,9,9,10,10,11,11,12,12,13,13,14,14],"right_children":[2,4,6,8,10,12,14,16,18,20,22,24,26,28,30,-1,-1,-1,-1,-1,-1,-1,-1,-1,-1,-1,-1,-1,-1,-1,-1],"split_conditions":[3.1153953E-1,3.5941523E-2,2.341059E-1,-4.0688628E-1,-1.4824781E0,1.1756053E0,1.2396731E0,6.1756767E-2,1.0034834E0,1.1021847E0,1.9380343E-1,2.0172994E0,5.004089E-1,-1.6080886E-1,-6.21803E-1,2.0023026E-2,-1.6183432E-2,-9.746422E-3,-5.3186495E-2,-4.9361106E-2,2.3900649E-2,2.6541462E-2,-2.5619486E-2,-3.2886814E-2,1.5821423E-2,3.037925E-2,-3.6579873E-2,-7.853555E-3,-5.903085E-2,-5.9587236E-2,5.0201315E-2],"split_indices":[2519,5,1739,1670,800,488,330,1607,402,2238,1749,2245,1959,1718,2013,0,0,0,0,0,0,0,0,0,0,0,0,0,0,0,0],"split_type":[0,0,0,0,0,0,0,0,0,0,0,0,0,0,0,0,0,0,0,0,0,0,0,0,0,0,0,0,0,0,0],"sum_hessian":[2.9645923E3,2.4290706E3,5.355217E2,1.319793E3,1.1092776E3,3.7019846E2,1.6532329E2,5.2549603E2,7.9429694E2,8.936856E1,1.01990906E3,2.984467E2,7.1751755E1,1.4751428E2,1.7809006E1,4.265662E2,9.892981E1,7.1700635E2,7.729061E1,7.846551E1,1.090305E1,9.4352386E2,7.638519E1,2.6660687E2,3.1839823E1,4.914066E1,2.2611097E1,9.693972E0,1.3782031E2,8.912656E0,8.89635E0],"tree_param":{"num_deleted":"0","num_feature":"3841","num_nodes":"31","size_leaf_vector":"1"}},{"base_weights":[-4.966016E-3,1.2739569E-1,-5.903411E-1,2.7417508E-1,-2.0774546E-1,-3.6499664E-1,-1.1956091E0,8.8048294E-2,6.289097E-1,-5.1251906E-1,1.0187802E-1,-1.5904662E-1,-9.2012733E-1,-1.2447633E0,2.9100051E-2,3.1508785E-2,-5.008389E-3,4.8368327E-2,1.2664758E-2,-8.167728E-3,-4.016894E-2,-5.615417E-3,4.6701025E-2,-1.5840568E-2,2.700754E-2,2.146646E-2,-5.2541204E-2,5.409644E-3,-6.428667E-2],"categories":[],"categories_nodes":[],"categories_segments":[],"categories_sizes":[],"default_left":[0,0,0,0,0,0,0,0,0,0,0,0,0,0,0,0,0,0,0,0,0,0,0,0,0,0,0,0,0],"id":5,"left_children":[1,3,5,7,9,11,13,15,17,19,21,23,25,27,-1,-1,-1,-1,-1,-1,-1,-1,-1,-1,-1,-1,-1,-1,-1],"loss_changes":[2.3108298E2,1.1971413E2,7.458098E1,1.1166214E2,7.00171E1,4.584019E1,1.3724121E1,1.1341777E2,7.375914E1,3.783172E1,6.580568E1,3.266742E1,1.9611069E1,8.181656E0,0E0,0E0,0E0,0E0,0E0,0E0,0E0,0E0,0E0,0E0,0E0,0E0,0E0,0E0,0E0],"parents":[2147483647,0,0,1,1,2,2,3,3,4,4,5,5,6,6,7,7,8,8,9,9,10,10,11,11,12,12,13,13],"right_children":[2,4,6,8,10,12,14,16,18,20,22,24,26,28,-1,-1,-1,-1,-1,-1,-1,-1,-1,-1,-1,-1,-1,-1,-1],"split_conditions":[8.6539224E-2,-8.7977596E-2,8.828845E-1,3.8084438E-1,3.5941523E-2,2.325507E-1,2.4338686E0,-3.3569062E-1,-2.5219283E-1,-1.6191557E-1,8.805568E-1,6.8702716E-1,-1.2337284E0,-3.2448955E0,2.9100051E-2,3.1508785E-2,-5.008389E-3,4.8368327E-2,1.2664758E-2,-8.167728E-3,-4.016894E-2,-5.615417E-3,4.6701025E-2,-1.5840568E-2,2.700754E-2,2.146646E-2,-5.2541204E-2,5.409644E-3,-6.428667E-2],"split_indices":[1749,1607,1634,2135,5,1620,644,1923,1603,2025,4,340,2256,328,0,0,0,0,0,0,0,0,0,0,0,0,0,0,0],"split_type":[0,0,0,0,0,0,0,0,0,0,0,0,0,0,0,0,0,0,0,0,0,0,0,0,0,0,0,0,0],"sum_hessian":[2.980467E3,2.4314612E3,5.490059E2,1.6910332E3,7.4042786E2,4.0122922E2,1.4777669E2,1.1099163E3,5.8111707E2,3.7280606E2,3.676218E2,2.9359415E2,1.076351E2,1.4409203E2,3.684651E0,2.8543024E2,8.2448596E2,3.0484946E2,2.7626758E2,1.701318E2,2.0267426E2,2.9305658E2,7.4565216E1,2.3999036E2,5.360378E1,9.3023615E0,9.833274E1,4.186913E0,1.3990512E2],"tree_param":{"num_deleted":"0","num_feature":"3841","num_nodes":"29","size_leaf_vector":"1"}},{"base_weights":[-3.9896006E-3,1.1666835E-1,-5.872703E-1,4.2425093E-1,-1.743633E-2,-3.3907938E-1,-9.648533E-1,5.252468E-1,-7.343102E-1,7.332701E-1,-1.0525757E-1,-5.784604E-1,2.2275487E-1,-1.5234252E0,-7.886201E-1,3.2129854E-2,-1.6212476E-2,-6.3268594E-2,-1.5702823E-2,4.6322774E-2,-2.9283142E-2,4.088387E-3,-2.0756384E-2,-3.63578E-2,1.9428734E-2,3.718188E-2,-2.2794742E-2,-7.9651475E-2,-2.7763236E-2,-4.4311397E-2,1.5922239E-2],"categories":[],"categories_nodes":[],"categories_segments":[],"categories_sizes":[],"default_left":[0,0,0,0,0,0,0,0,0,0,0,0,0,0,0,0,0,0,0,0,0,0,0,0,0,0,0,0,0,0,0],"id":6,"left_children":[1,3,5,7,9,11,13,15,17,19,21,23,25,27,29,-1,-1,-1,-1,-1,-1,-1,-1,-1,-1,-1,-1,-1,-1,-1,-1],"loss_changes":[2.0853952E2,1.0128378E2,4.726915E1,8.7617966E1,1.12865204E2,4.1552418E1,1.8574692E1,6.862637E1,1.3036934E1,4.6227898E1,8.884642E1,3.1378784E1,3.3123608E1,2.2900543E0,1.70083E1,0E0,0E0,0E0,0E0,0E0,0E0,0E0,0E0,0E0,0E0,0E0,0E0,0E0,0E0,0E0,0E0],"parents":[2147483647,0,0,1,1,2,2,3,3,4,4,5,5,6,6,7,7,8,8,9,9,10,10,11,11,12,12,13,13,14,14],"right_children":[2,4,6,8,10,12,14,16,18,20,22,24,26,28,30,-1,-1,-1,-1,-1,-1,-1,-1,-1,-1,-1,-1,-1,-1,-1,-1],"split_conditions":[2.0408186E-1,-3.3569062E-1,2.1948287E-1,5.2223164E-1,-1.0077181E0,8.3252686E-1,-1.3040538E0,1.1584063E0,-6.964342E-1,6.410688E-1,-2.7479744E-1,7.3166436E-1,2.8647125E-1,1.3689774E0,1.3561313E0,3.2129854E-2,-1.6212476E-2,-6.3268594E-2,-1.5702823E-2,4.6322774E-2,-2.9283142E-2,4.088387E-3,-2.0756384E-2,-3.63578E-2,1.9428734E-2,3.718188E-2,-2.2794742E-2,-7.9651475E-2,-2.7763236E-2,-4.4311397E-2,1.5922239E-2],"split_indices":[1757,1923,1749,578,487,2085,2000,75,1933,412,1607,357,692,652,10,0,0,0,0,0,0,0,0,0,0,0,0,0,0,0,0],"split_type":[0,0,0,0,0,0,0,0,0,0,0,0,0,0,0,0,0,0,0,0,0,0,0,0,0,0,0,0,0,0,0],"sum_hessian":[2.9611846E3,2.4542883E3,5.0689624E2,7.445119E2,1.7097765E3,3.0699915E2,1.998971E2,6.85317E2,5.9194878E1,1.7829971E2,1.5314768E3,2.1525551E2,9.174362E1,4.6109238E1,1.5378786E2,6.0235114E2,8.2965836E1,2.52616E1,3.3933277E1,1.5578004E2,2.2519674E1,9.5550684E2,5.759699E2,1.8678297E2,2.8472538E1,5.1850864E1,3.989276E1,4.24145E1,3.694738E0,1.4151062E2,1.2277244E1],"tree_param":{"num_deleted":"0","num_feature":"3841","num_nodes":"31","size_leaf_vector":"1"}},{"base_weights":[4.0752124E-3,1.1928666E-1,-5.7015777E-1,1.9374064E-1,-4.118548E-1,-3.156255E-1,-8.727913E-1,-1.8964072E-1,3.0764666E-1,-1.0271699E-1,-8.0495036E-1,3.2682875E-1,-4.501117E-1,-1.3908104E-2,-9.455854E-1,2.3940077E-2,-1.7210497E-2,2.3228182E-2,-2.0716519E-3,1.1897371E-2,-3.3413302E-2,-2.8991416E-2,-6.529842E-2,5.8678716E-2,-5.9178486E-3,-1.232767E-2,-4.4761952E-2,4.5823384E-2,-3.316878E-2,-5.2380007E-2,-2.2937533E-2],"categories":[],"categories_nodes":[],"categories_segments":[],"categories_sizes":[],"default_left":[0,0,0,0,0,0,0,0,0,0,0,0,0,0,0,0,0,0,0,0,0,0,0,0,0,0,0,0,0,0,0],"id":7,"left_children":[1,3,5,7,9,11,13,15,17,19,21,23,25,27,29,-1,-1,-1,-1,-1,-1,-1,-1,-1,-1,-1,-1,-1,-1,-1,-1],"loss_changes":[1.9599797E2,9.765727E1,3.7859634E1,9.4593475E1,3.682058E1,2.3516113E1,1.4091583E1,5.146078E1,9.145853E1,3.3131134E1,1.4304726E1,1.8005653E1,2.0082458E1,1.187201E1,9.847412E0,0E0,0E0,0E0,0E0,0E0,0E0,0E0,0E0,0E0,0E0,0E0,0E0,0E0,0E0,0E0,0E0],"parents":[2147483647,0,0,1,1,2,2,3,3,4,4,5,5,6,6,7,7,8,8,9,9,10,10,11,11,12,12,13,13,14,14],"right_children":[2,4,6,8,10,12,14,16,18,20,22,24,26,28,30,-1,-1,-1,-1,-1,-1,-1,-1,-1,-1,-1,-1,-1,-1,-1,-1],"split_conditions":[3.7317362E-1,-4.033195E-3,-1.1720554E-2,-7.346694E-1,1.1671696E-1,-1.0223632E0,-9.007711E-2,-5.391726E-1,3.7536344E-1,6.0097057E-1,5.179613E-1,2.7790576E-1,1.5323396E0,1.3119084E-1,9.3234974E-1,2.3940077E-2,-1.7210497E-2,2.3228182E-2,-2.0716519E-3,1.1897371E-2,-3.3413302E-2,-2.8991416E-2,-6.529842E-2,5.8678716E-2,-5.9178486E-3,-1.232767E-2,-4.4761952E-2,4.5823384E-2,-3.316878E-2,-5.2380007E-2,-2.2937533E-2],"split_indices":[278,1695,1699,2244,2169,65,1720,655,1998,2355,459,2380,3101,3672,10,0,0,0,0,0,0,0,0,0,0,0,0,0,0,0,0],"split_type":[0,0,0,0,0,0,0,0,0,0,0,0,0,0,0,0,0,0,0,0,0,0,0,0,0,0,0,0,0,0,0],"sum_hessian":[2.9605361E3,2.4664678E3,4.940684E2,2.163789E3,3.0267886E2,2.694708E2,2.245976E2,4.954738E2,1.6683152E3,1.7013934E2,1.3253952E2,4.6397068E1,2.2307373E2,1.7641405E1,2.0695619E2,9.2660645E1,4.0281314E2,1.150718E3,5.175972E2,1.0654195E2,6.3597397E1,9.2937355E1,3.960216E1,1.5424134E1,3.0972933E1,1.5413922E2,6.89345E1,7.0833097E0,1.0558095E1,1.7014995E2,3.6806244E1],"tree_param":{"num_deleted":"0","num_feature":"3841","num_nodes":"31","size_leaf_vector":"1"}},{"base_weights":[3.7617448E-3,1.725413E-1,-3.9271286E-1,-2.5762264E-3,3.967166E-1,-2.2915567E-1,-8.2759196E-1,-3.2055476E-1,2.6493704E-1,-3.960075E-1,4.9339908E-1,-3.4131106E-2,-6.741217E-1,-2.9119924E-1,-9.676548E-1,-2.2174194E-2,1.7672278E-2,1.7265234E-2,-3.7435688E-2,4.821029E-2,-3.0097699E-2,-7.646384E-3,3.0708006E-2,-8.338114E-3,3.6118854E-2,-2.3228055E-2,-5.586363E-2,3.7271332E-2,-3.2764215E-2,-5.208197E-2,4.6965014E-4],"categories":[],"categories_nodes":[],"categories_segments":[],"categories_sizes":[],"default_left":[0,0,0,0,0,0,0,0,0,0,0,0,0,0,0,0,0,0,0,0,0,0,0,0,0,0,0,0,0,0,0],"id":8,"left_children":[1,3,5,7,9,11,13,15,17,19,21,23,25,27,29,-1,-1,-1,-1,-1,-1,-1,-1,-1,-1,-1,-1,-1,-1,-1,-1],"loss_changes":[1.9837578E2,8.162901E1,6.2770996E1,9.947217E1,7.008827E1,5.5918015E1,1.786502E1,4.4425262E1,5.199639E1,2.8505548E1,6.356874E1,4.519655E1,1.7718796E1,1.990407E1,1.3823746E1,0E0,0E0,0E0,0E0,0E0,0E0,0E0,0E0,0E0,0E0,0E0,0E0,0E0,0E0,0E0,0E0],"parents":[2147483647,0,0,1,1,2,2,3,3,4,4,5,5,6,6,7,7,8,8,9,9,10,10,11,11,12,12,13,13,14,14],"right_children":[2,4,6,8,10,12,14,16,18,20,22,24,26,28,30,-1,-1,-1,-1,-1,-1,-1,-1,-1,-1,-1,-1,-1,-1,-1,-1],"split_conditions":[-4.6076603E-2,5.0936628E-2,4.223826E-1,-4.347946E-2,-8.139E-1,-3.5317126E-3,-3.9189886E-2,6.4565426E-1,7.6463187E-1,-8.081597E-1,-8.086318E-1,1.3002583E0,2.4725235E-1,-4.3083987E-1,1.9483358E0,-2.2174194E-2,1.7672278E-2,1.7265234E-2,-3.7435688E-2,4.821029E-2,-3.0097699E-2,-7.646384E-3,3.0708006E-2,-8.338114E-3,3.6118854E-2,-2.3228055E-2,-5.586363E-2,3.7271332E-2,-3.2764215E-2,-5.208197E-2,4.6965014E-4],"split_indices":[1715,1926,1615,1924,2015,1620,1693,1977,1647,1929,2366,645,642,2327,644,0,0,0,0,0,0,0,0,0,0,0,0,0,0,0,0],"split_type":[0,0,0,0,0,0,0,0,0,0,0,0,0,0,0,0,0,0,0,0,0,0,0,0,0,0,0,0,0,0,0],"sum_hessian":[2.9625007E3,2.078322E3,8.8417865E2,1.167389E3,9.109331E2,6.436355E2,2.4054314E2,5.332936E2,6.3409546E2,9.868597E1,8.1224713E2,4.482488E2,1.9538667E2,5.0442966E1,1.9010017E2,4.5132043E2,8.197313E1,5.881251E2,4.5970333E1,1.2492828E1,8.619314E1,1.27828415E2,6.844187E2,3.8204767E2,6.6201126E1,1.340462E2,6.1340473E1,1.283933E1,3.7603638E1,1.7665715E2,1.3443023E1],"tree_param":{"num_deleted":"0","num_feature":"3841","num_nodes":"31","size_leaf_vector":"1"}},{"base_weights":[-5.1608467E-3,9.418203E-2,-6.272497E-1,1.5510601E-1,-5.6293714E-1,-7.990584E-1,-1.2128096E-1,-2.5112981E-2,3.632081E-1,-7.049841E-1,8.099054E-1,-2.7192318E-1,-9.373349E-1,3.1962833E-1,-6.986531E-1,8.270678E-3,-1.7390897E-2,-2.5343565E-2,2.2857582E-2,-4.2190384E-2,2.1542655E-2,7.458141E-2,-1.4414035E-2,1.5904073E-2,-3.568853E-2,-6.2233567E-2,-3.5278544E-2,4.163545E-2,-1.1837517E-2,8.014173E-3,-5.49349E-2],"categories":[],"categories_nodes":[],"categories_segments":[],"categories_sizes":[],"default_left":[0,0,0,0,0,0,0,0,0,0,0,0,0,0,0,0,0,0,0,0,0,0,0,0,0,0,0,0,0,0,0],"id":9,"left_children":[1,3,5,7,9,11,13,15,17,19,21,23,25,27,29,-1,-1,-1,-1,-1,-1,-1,-1,-1,-1,-1,-1,-1,-1,-1,-1],"loss_changes":[1.8268893E2,1.02139046E2,3.5289154E1,8.752854E1,4.2790344E1,2.1881882E1,2.679139E1,7.70058E1,8.87614E1,3.138485E1,1.5976667E1,1.704668E1,1.6229721E1,1.7285713E1,1.581164E1,0E0,0E0,0E0,0E0,0E0,0E0,0E0,0E0,0E0,0E0,0E0,0E0,0E0,0E0,0E0,0E0],"parents":[2147483647,0,0,1,1,2,2,3,3,4,4,5,5,6,6,7,7,8,8,9,9,10,10,11,11,12,12,13,13,14,14],"right_children":[2,4,6,8,10,12,14,16,18,20,22,24,26,28,30,-1,-1,-1,-1,-1,-1,-1,-1,-1,-1,-1,-1,-1,-1,-1,-1],"split_conditions":[1.01508856E-1,8.876429E-1,2.85796E-1,1.2117684E-2,1.3009973E0,-9.239099E-2,2.0957136E-1,-1.7474154E-1,-1.3528908E0,1.0068781E0,2.6245865E-1,3.5537723E-2,-6.3746715E-1,1.2672028E-1,-1.07537575E-1,8.270678E-3,-1.7390897E-2,-2.5343565E-2,2.2857582E-2,-4.2190384E-2,2.1542655E-2,7.458141E-2,-1.4414035E-2,1.5904073E-2,-3.568853E-2,-6.2233567E-2,-3.5278544E-2,4.163545E-2,-1.1837517E-2,8.014173E-3,-5.49349E-2],"split_indices":[1735,2341,330,1926,10,2520,581,1670,480,320,549,2123,12,617,1625,0,0,0,0,0,0,0,0,0,0,0,0,0,0,0,0],"split_type":[0,0,0,0,0,0,0,0,0,0,0,0,0,0,0,0,0,0,0,0,0,0,0,0,0,0,0,0,0,0,0],"sum_hessian":[2.954171E3,2.5481062E3,4.0606464E2,2.3326055E3,2.1550064E2,3.0269955E2,1.0336507E2,1.2505194E3,1.0820862E3,1.957346E2,1.9766031E1,6.351921E1,2.3918034E2,5.8861774E1,4.4503292E1,7.8659656E2,4.6392288E2,1.0502044E2,9.770657E2,1.7464622E2,2.1088385E1,1.19744E1,7.791631E0,2.7319386E1,3.6199825E1,1.0094683E2,1.3823352E2,3.036404E1,2.8497734E1,1.4331489E1,3.0171804E1],"tree_param":{"num_deleted":"0","num_feature":"3841","num_nodes":"31","size_leaf_vector":"1"}},{"base_weights":[9.080226E-3,1.2854804E-1,-4.9691847E-1,3.8189444E-1,-3.5344485E-2,-6.9274634E-1,-5.11528E-2,-2.7650106E-1,5.0412476E-1,3.29587E-1,-2.2032154E-1,-1.1200563E0,-5.1753056E-1,1.9285783E-1,-9.9071366E-1,-3.016504E-2,2.5828337E-2,2.809051E-2,-3.4247413E-2,2.3906041E-2,-3.175964E-2,6.810028E-3,-2.633058E-2,-6.058684E-2,4.4159265E-3,-4.502908E-2,-1.739321E-2,-2.4681227E-2,2.4735464E-2,-6.495431E-2,-6.837831E-3],"categories":[],"categories_nodes":[],"categories_segments":[],"categories_sizes":[],"default_left":[0,0,0,0,0,0,0,0,0,0,0,0,0,0,0,0,0,0,0,0,0,0,0,0,0,0,0,0,0,0,0],"id":10,"left_children":[1,3,5,7,9,11,13,15,17,19,21,23,25,27,29,-1,-1,-1,-1,-1,-1,-1,-1,-1,-1,-1,-1,-1,-1,-1,-1],"loss_changes":[1.7746605E2,9.8624E1,4.8913788E1,7.52202E1,9.747821E1,2.8583786E1,3.9677155E1,3.8339947E1,5.438269E1,6.991728E1,1.04704254E2,1.2560562E1,1.7760735E1,2.8748753E1,9.215786E0,0E0,0E0,0E0,0E0,0E0,0E0,0E0,0E0,0E0,0E0,0E0,0E0,0E0,0E0,0E0,0E0],"parents":[2147483647,0,0,1,1,2,2,3,3,4,4,5,5,6,6,7,7,8,8,9,9,10,10,11,11,12,12,13,13,14,14],"right_children":[2,4,6,8,10,12,14,16,18,20,22,24,26,28,30,-1,-1,-1,-1,-1,-1,-1,-1,-1,-1,-1,-1,-1,-1,-1,-1],"split_conditions":[3.147357E-2,-1.0973307E-1,1.7990656E-1,-7.333363E-1,-3.3569062E-1,-7.050828E-1,1.6602639E0,6.0946804E-1,1.3272793E0,4.748368E-2,-2.8167027E-1,1.964828E0,-7.628158E-1,-6.013523E-1,-3.2266223E-1,-3.016504E-2,2.5828337E-2,2.809051E-2,-3.4247413E-2,2.3906041E-2,-3.175964E-2,6.810028E-3,-2.633058E-2,-6.058684E-2,4.4159265E-3,-4.502908E-2,-1.739321E-2,-2.4681227E-2,2.4735464E-2,-6.495431E-2,-6.837831E-3],"split_indices":[1735,481,2091,151,1923,41,632,2091,2199,1704,1745,2245,2207,1993,2173,0,0,0,0,0,0,0,0,0,0,0,0,0,0,0,0],"split_type":[0,0,0,0,0,0,0,0,0,0,0,0,0,0,0,0,0,0,0,0,0,0,0,0,0,0,0,0,0,0,0],"sum_hessian":[2.9336655E3,2.3739216E3,5.597441E2,9.3196E2,1.4419615E3,3.885134E2,1.7123067E2,1.4572864E2,7.862314E2,4.8478094E2,9.5718054E2,1.1141241E2,2.7710098E2,1.3655984E2,3.4670826E1,1.0337156E2,4.2357075E1,7.5035693E2,3.587447E1,4.2054056E2,6.424039E1,4.4257632E2,5.1460425E2,1.0355296E2,7.8594413E0,8.373865E1,1.9336235E2,4.1513313E1,9.504653E1,2.5089497E1,9.581327E0],"tree_param":{"num_deleted":"0","num_feature":"3841","num_nodes":"31","size_leaf_vector":"1"}},{"base_weights":[-3.868642E-3,1.422984E-1,-3.4805688E-1,3.7809333E-1,-1.9945135E-2,-2.164733E-1,-7.928727E-1,4.7644517E-1,-5.2766764E-1,3.3717752E-1,-2.0011579E-1,-3.460418E-1,3.4547132E-1,-1.1960727E0,-5.897415E-1,2.6335955E-2,-5.379326E-2,1.2354434E-2,-4.349314E-2,-9.099967E-3,3.1462174E-2,-8.109193E-4,-3.6659617E-2,-9.472459E-3,-3.2755446E-2,-6.4093373E-3,5.36249E-2,-7.069768E-2,-3.589168E-2,1.2035413E-2,-3.940834E-2],"categories":[],"categories_nodes":[],"categories_segments":[],"categories_sizes":[],"default_left":[0,0,0,0,0,0,0,0,0,0,0,0,0,0,0,0,0,0,0,0,0,0,0,0,0,0,0,0,0,0,0],"id":11,"left_children":[1,3,5,7,9,11,13,15,17,19,21,23,25,27,29,-1,-1,-1,-1,-1,-1,-1,-1,-1,-1,-1,-1,-1,-1,-1,-1],"loss_changes":[1.4800377E2,7.900592E1,5.115541E1,7.52375E1,7.883811E1,4.949326E1,1.5659927E1,5.986432E1,2.219939E1,6.241992E1,7.981862E1,2.6569885E1,4.406374E1,5.8588867E0,2.2409931E1,0E0,0E0,0E0,0E0,0E0,0E0,0E0,0E0,0E0,0E0,0E0,0E0,0E0,0E0,0E0,0E0],"parents":[2147483647,0,0,1,1,2,2,3,3,4,4,5,5,6,6,7,7,8,8,9,9,10,10,11,11,12,12,13,13,14,14],"right_children":[2,4,6,8,10,12,14,16,18,20,22,24,26,28,30,-1,-1,-1,-1,-1,-1,-1,-1,-1,-1,-1,-1,-1,-1,-1,-1],"split_conditions":[-4.6076603E-2,-1.0973307E-1,2.341059E-1,1.3367656E-1,-3.2999054E-1,1.0250224E0,-9.13638E-1,1.1888872E0,-9.5389135E-2,-3.8285458E-1,4.0840663E-2,5.709344E-1,4.6758753E-1,2.886348E-1,-5.481602E-1,2.6335955E-2,-5.379326E-2,1.2354434E-2,-4.349314E-2,-9.099967E-3,3.1462174E-2,-8.109193E-4,-3.6659617E-2,-9.472459E-3,-3.2755446E-2,-6.4093373E-3,5.36249E-2,-7.069768E-2,-3.589168E-2,1.2035413E-2,-3.940834E-2],"split_indices":[1715,481,1739,1735,2243,2086,1989,1673,2341,805,2387,326,2245,930,495,0,0,0,0,0,0,0,0,0,0,0,0,0,0,0,0],"split_type":[0,0,0,0,0,0,0,0,0,0,0,0,0,0,0,0,0,0,0,0,0,0,0,0,0,0,0,0,0,0,0],"sum_hessian":[2.9399114E3,2.0639827E3,8.7592865E2,8.407529E2,1.2232297E3,6.771142E2,1.9881448E2,7.588296E2,8.192334E1,4.098936E2,8.133361E2,5.5055585E2,1.2655837E2,6.496859E1,1.338459E2,7.356647E2,2.3164928E1,2.5183613E1,5.6739723E1,1.4770674E2,2.6218683E2,6.054888E2,2.078473E2,3.6648477E2,1.8407104E2,7.713112E1,4.942726E1,4.3289677E1,2.1678913E1,2.5771965E1,1.0807393E2],"tree_param":{"num_deleted":"0","num_feature":"3841","num_nodes":"31","size_leaf_vector":"1"}},{"base_weights":[-2.031161E-3,1.0732536E-1,-4.4356743E-1,1.8360847E-1,-4.1054684E-1,-2.9638103E-1,-9.285816E-1,3.242639E-1,-1.406301E-1,-1.268839E0,-2.9016235E-1,-5.8907837E-1,-4.4341743E-2,-9.7863513E-1,3.919722E-2,2.556695E-2,-3.2025147E-3,-1.3485858E-2,2.609094E-2,-7.498466E-2,-2.1062426E-2,-2.15228E-2,2.159305E-2,-1.36708785E-2,-4.3331623E-2,-7.279936E-3,5.852724E-2,-6.3891836E-2,-3.683219E-2],"categories":[],"categories_nodes":[],"categories_segments":[],"categories_sizes":[],"default_left":[0,0,0,0,0,0,0,0,0,0,0,0,0,0,0,0,0,0,0,0,0,0,0,0,0,0,0,0,0],"id":12,"left_children":[1,3,5,7,9,11,13,15,17,19,21,23,25,27,-1,-1,-1,-1,-1,-1,-1,-1,-1,-1,-1,-1,-1,-1,-1],"loss_changes":[1.4180997E2,9.3068054E1,4.1344078E1,9.3648155E1,3.089087E1,3.3078083E1,1.2361755E1,1.0404115E2,5.3301563E1,6.5918045E0,2.7192636E1,1.7946465E1,2.9964676E1,8.606461E0,0E0,0E0,0E0,0E0,0E0,0E0,0E0,0E0,0E0,0E0,0E0,0E0,0E0,0E0,0E0],"parents":[2147483647,0,0,1,1,2,2,3,3,4,4,5,5,6,6,7,7,8,8,9,9,10,10,11,11,12,12,13,13],"right_children":[2,4,6,8,10,12,14,16,18,20,22,24,26,28,-1,-1,-1,-1,-1,-1,-1,-1,-1,-1,-1,-1,-1,-1,-1],"split_conditions":[2.388554E-2,8.6274505E-1,5.2223164E-1,-8.7977596E-2,-1.0122662E0,-3.2004043E-1,2.4231172E0,7.131731E-1,7.270496E-1,4.2461216E-1,7.562734E-1,-3.223438E-1,1.7776123E0,4.9803036E-1,3.919722E-2,2.556695E-2,-3.2025147E-3,-1.3485858E-2,2.609094E-2,-7.498466E-2,-2.1062426E-2,-2.15228E-2,2.159305E-2,-1.36708785E-2,-4.3331623E-2,-7.279936E-3,5.852724E-2,-6.3891836E-2,-3.683219E-2],"split_indices":[1735,2227,578,1607,607,2175,804,1923,325,803,484,2083,320,529,0,0,0,0,0,0,0,0,0,0,0,0,0,0,0],"split_type":[0,0,0,0,0,0,0,0,0,0,0,0,0,0,0,0,0,0,0,0,0,0,0,0,0,0,0,0,0],"sum_hessian":[2.934958E3,2.3529526E3,5.8200543E2,2.0514216E3,3.0153107E2,4.477413E2,1.3426414E2,1.4307562E3,6.2066534E2,3.591708E1,2.6561398E2,2.0654268E2,2.4119862E2,1.308677E2,3.396441E0,9.6536365E2,4.6539258E2,5.1994073E2,1.0072457E2,2.7623926E1,8.293156E0,2.2273836E2,4.2875633E1,9.756623E1,1.08976456E2,2.2345453E2,1.7744081E1,5.6602745E1,7.426497E1],"tree_param":{"num_deleted":"0","num_feature":"3841","num_nodes":"29","size_leaf_vector":"1"}},{"base_weights":[1.432749E-3,8.884798E-2,-5.555364E-1,1.5678006E-1,-4.2228898E-1,-3.2363364E-1,-9.470847E-1,-2.2994403E-2,3.6396527E-1,-8.7102973E-1,-7.1804486E-2,-1.1457625E-1,-8.1915253E-1,-5.1323485E-1,-1.1339335E0,-1.0163817E-2,1.7610954E-2,1.1302936E-2,4.1690562E-2,-3.7277285E-3,-5.253571E-2,2.842228E-2,-1.5305339E-2,2.3066837E-2,-1.53539125E-2,-2.8132756E-5,-5.1013596E-2,2.655288E-2,-3.8182706E-2,-2.0233093E-2,-6.071123E-2],"categories":[],"categories_nodes":[],"categories_segments":[],"categories_sizes":[],"default_left":[0,0,0,0,0,0,0,0,0,0,0,0,0,0,0,0,0,0,0,0,0,0,0,0,0,0,0,0,0,0,0],"id":13,"left_children":[1,3,5,7,9,11,13,15,17,19,21,23,25,27,29,-1,-1,-1,-1,-1,-1,-1,-1,-1,-1,-1,-1,-1,-1,-1,-1],"loss_changes":[1.4297311E2,8.819789E1,3.5865257E1,8.348308E1,4.6810535E1,2.5980673E1,1.1387863E1,8.130452E1,6.727916E1,1.861309E1,2.5439682E1,1.9895798E1,1.2268215E1,1.2507335E1,5.503525E0,0E0,0E0,0E0,0E0,0E0,0E0,0E0,0E0,0E0,0E0,0E0,0E0,0E0,0E0,0E0,0E0],"parents":[2147483647,0,0,1,1,2,2,3,3,4,4,5,5,6,6,7,7,8,8,9,9,10,10,11,11,12,12,13,13,14,14],"right_children":[2,4,6,8,10,12,14,16,18,20,22,24,26,28,30,-1,-1,-1,-1,-1,-1,-1,-1,-1,-1,-1,-1,-1,-1,-1,-1],"split_conditions":[1.9380343E-1,1.1656009E0,5.47082E-1,3.5941523E-2,-1.0149175E0,3.2225513E-1,-7.0955664E-1,4.9752998E-1,4.6160704E-1,-1.2955864E-1,-5.340602E-1,-5.8759534E-1,-1.2926223E0,-7.266107E-2,-1.1734883E0,-1.0163817E-2,1.7610954E-2,1.1302936E-2,4.1690562E-2,-3.7277285E-3,-5.253571E-2,2.842228E-2,-1.5305339E-2,2.3066837E-2,-1.53539125E-2,-2.8132756E-5,-5.1013596E-2,2.655288E-2,-3.8182706E-2,-2.0233093E-2,-6.071123E-2],"split_indices":[1749,494,1634,5,480,1687,2123,1924,324,495,80,2283,337,1626,2330,0,0,0,0,0,0,0,0,0,0,0,0,0,0,0,0],"split_type":[0,0,0,0,0,0,0,0,0,0,0,0,0,0,0,0,0,0,0,0,0,0,0,0,0,0,0,0,0,0,0],"sum_hessian":[2.9345276E3,2.5371648E3,3.9736267E2,2.2401355E3,2.970294E2,2.5070433E2,1.4665836E2,1.1998851E3,1.0402504E3,1.2960507E2,1.674243E2,1.7718283E2,7.3521484E1,4.5276424E1,1.0138193E2,8.107808E2,3.8910434E2,8.0534973E2,2.3490065E2,2.4117212E1,1.0548787E2,4.447276E1,1.22951546E2,4.403768E1,1.3314516E2,1.4698582E1,5.8822906E1,8.540473E0,3.673595E1,1.065392E1,9.0728004E1],"tree_param":{"num_deleted":"0","num_feature":"3841","num_nodes":"31","size_leaf_vector":"1"}},{"base_weights":[1.8921996E-3,1.1998037E-1,-3.8485068E-1,2.2242457E-1,-2.6105165E-1,-1.8704198E-1,-6.779765E-1,6.969746E-1,1.0484281E-1,-7.2815424E-1,-6.668425E-2,-7.4700946E-1,-4.0687583E-2,-4.4716844E-1,-1.0755794E0,3.7400752E-2,-5.6717444E-2,1.0229581E-2,-2.0736104E-2,-2.7885262E-4,-4.6875693E-2,1.68336E-2,-1.6901096E-2,-4.9663883E-2,1.2707203E-3,-8.800419E-3,3.5351943E-2,-6.029125E-3,-3.7476603E-2,-2.8515707E-3,-5.717203E-2],"categories":[],"categories_nodes":[],"categories_segments":[],"categories_sizes":[],"default_left":[0,0,0,0,0,0,0,0,0,0,0,0,0,0,0,0,0,0,0,0,0,0,0,0,0,0,0,0,0,0,0],"id":14,"left_children":[1,3,5,7,9,11,13,15,17,19,21,23,25,27,29,-1,-1,-1,-1,-1,-1,-1,-1,-1,-1,-1,-1,-1,-1,-1,-1],"loss_changes":[1.3342729E2,8.74233E1,3.9498833E1,9.838039E1,4.3049614E1,3.3523537E1,2.4753723E1,3.358188E1,7.343172E1,2.1081032E1,3.692229E1,1.6152E1,3.3074413E1,1.7258923E1,6.86644E0,0E0,0E0,0E0,0E0,0E0,0E0,0E0,0E0,0E0,0E0,0E0,0E0,0E0,0E0,0E0,0E0],"parents":[2147483647,0,0,1,1,2,2,3,3,4,4,5,5,6,6,7,7,8,8,9,9,10,10,11,11,12,12,13,13,14,14],"right_children":[2,4,6,8,10,12,14,16,18,20,22,24,26,28,30,-1,-1,-1,-1,-1,-1,-1,-1,-1,-1,-1,-1,-1,-1,-1,-1],"split_conditions":[-1.4041336E-2,6.53696E-1,3.4782556E-1,-7.002968E-1,-5.5522877E-1,-1.0227177E0,5.287407E-1,2.3747961E-1,5.2887547E-1,-4.344038E-1,-3.0320898E-1,-2.0055754E-1,1.1450355E0,3.7124712E-2,-2.5094852E-1,3.7400752E-2,-5.6717444E-2,1.0229581E-2,-2.0736104E-2,-2.7885262E-4,-4.6875693E-2,1.68336E-2,-1.6901096E-2,-4.9663883E-2,1.2707203E-3,-8.800419E-3,3.5351943E-2,-6.029125E-3,-3.7476603E-2,-2.8515707E-3,-5.717203E-2],"split_indices":[1719,530,1959,2275,10,1989,1610,1707,899,808,642,381,1926,2180,1758,0,0,0,0,0,0,0,0,0,0,0,0,0,0,0,0],"split_type":[0,0,0,0,0,0,0,0,0,0,0,0,0,0,0,0,0,0,0,0,0,0,0,0,0,0,0,0,0,0,0],"sum_hessian":[2.9195564E3,2.2371533E3,6.824032E2,1.763449E3,4.7370428E2,4.0842548E2,2.7397772E2,3.4919598E2,1.4142529E3,1.3838705E2,3.3531723E2,8.377797E1,3.2464752E2,1.746932E2,9.928452E1,3.40303E2,8.892975E0,1.186977E3,2.2727586E2,3.1319286E1,1.07067764E2,1.3475572E2,2.0056152E2,6.3307888E1,2.0470078E1,2.75545E2,4.9102512E1,8.465514E1,9.003806E1,6.316639E0,9.296788E1],"tree_param":{"num_deleted":"0","num_feature":"3841","num_nodes":"31","size_leaf_vector":"1"}},{"base_weights":[-2.4439136E-3,1.3058524E-1,-3.209003E-1,2.0873739E-1,-3.1201592E-1,-1.1745299E-1,-5.851375E-1,3.1616166E-1,-1.5386228E-1,1.5133989E-1,-5.3316116E-1,4.196844E-2,-6.5525144E-1,-4.740273E-1,-1.1000485E0,2.2945039E-2,1.5982472E-4,-1.6280722E-2,2.9334938E-2,2.7197454E-2,-2.5794148E-2,-3.2995295E-2,2.425996E-2,-5.4482846E-3,2.8942768E-2,-3.8822826E-2,1.5360812E-2,-3.9551288E-2,-1.4610514E-2,-1.1500533E-2,-6.240731E-2],"categories":[],"categories_nodes":[],"categories_segments":[],"categories_sizes":[],"default_left":[0,0,0,0,0,0,0,0,0,0,0,0,0,0,0,0,0,0,0,0,0,0,0,0,0,0,0,0,0,0,0],"id":15,"left_children":[1,3,5,7,9,11,13,15,17,19,21,23,25,27,29,-1,-1,-1,-1,-1,-1,-1,-1,-1,-1,-1,-1,-1,-1,-1,-1],"loss_changes":[1.2390159E2,7.1423096E1,4.62576E1,6.8368614E1,3.184592E1,4.1878296E1,2.0911194E1,6.045871E1,5.1264046E1,2.6720474E1,2.7433895E1,3.0650312E1,1.3265881E1,1.762938E1,8.182594E0,0E0,0E0,0E0,0E0,0E0,0E0,0E0,0E0,0E0,0E0,0E0,0E0,0E0,0E0,0E0,0E0],"parents":[2147483647,0,0,1,1,2,2,3,3,4,4,5,5,6,6,7,7,8,8,9,9,10,10,11,11,12,12,13,13,14,14],"right_children":[2,4,6,8,10,12,14,16,18,20,22,24,26,28,30,-1,-1,-1,-1,-1,-1,-1,-1,-1,-1,-1,-1,-1,-1,-1,-1],"split_conditions":[-4.6076603E-2,7.8022563E-1,-1.8018743E-2,6.1756767E-2,-1.227097E-1,6.024318E-1,3.3621085E-1,7.125832E-1,6.349607E-1,1.5817173E-1,8.535626E-1,8.428139E-1,7.29407E-1,-3.9449874E-1,-9.438117E-1,2.2945039E-2,1.5982472E-4,-1.6280722E-2,2.9334938E-2,2.7197454E-2,-2.5794148E-2,-3.2995295E-2,2.425996E-2,-5.4482846E-3,2.8942768E-2,-3.8822826E-2,1.5360812E-2,-3.9551288E-2,-1.4610514E-2,-1.1500533E-2,-6.240731E-2],"split_indices":[1715,2227,1751,1607,1,2083,1682,2243,1926,800,2245,324,2070,2030,838,0,0,0,0,0,0,0,0,0,0,0,0,0,0,0,0],"split_type":[0,0,0,0,0,0,0,0,0,0,0,0,0,0,0,0,0,0,0,0,0,0,0,0,0,0,0,0,0,0,0],"sum_hessian":[2.9227026E3,2.0619512E3,8.6075134E2,1.7529526E3,3.0899863E2,4.871323E2,3.7361908E2,1.352413E3,4.0053967E2,9.993174E1,2.0906688E2,3.7645917E2,1.1067312E2,3.0888654E2,6.473254E1,9.284798E2,4.239332E2,3.255889E2,7.49508E1,6.3028873E1,3.690287E1,1.8623956E2,2.2827314E1,2.9447183E2,8.198734E1,9.8466354E1,1.2206762E1,1.1136709E2,1.9751945E2,9.787349E0,5.4945187E1],"tree_param":{"num_deleted":"0","num_feature":"3841","num_nodes":"31","size_leaf_vector":"1"}},{"base_weights":[-2.7961861E-3,1.3476376E-1,-3.1197348E-1,-8.431513E-2,2.83353E-1,-2.116711E-1,-8.002857E-1,9.1948934E-2,-4.7524083E-1,4.6272963E-1,-1.2562278E-1,-8.526235E-2,-6.4543915E-1,-1.1012042E0,-5.6222E-1,1.5955163E-2,-1.0701873E-2,2.7246654E-3,-3.3315808E-2,-2.3829386E-2,2.6731536E-2,1.7494809E-2,-2.0377263E-2,7.5622177E-4,-4.4462815E-2,-2.1167899E-2,-4.8080284E-2,-9.133572E-3,-5.969472E-2,4.0430813E-3,-4.2337324E-2],"categories":[],"categories_nodes":[],"categories_segments":[],"categories_sizes":[],"default_left":[0,0,0,0,0,0,0,0,0,0,0,0,0,0,0,0,0,0,0,0,0,0,0,0,0,0,0,0,0,0,0],"id":16,"left_children":[1,3,5,7,9,11,13,15,17,19,21,23,25,27,29,-1,-1,-1,-1,-1,-1,-1,-1,-1,-1,-1,-1,-1,-1,-1,-1],"loss_changes":[1.2426061E2,6.584729E1,4.3894333E1,5.6406315E1,8.84644E1,4.094311E1,1.033754E1,3.9311745E1,2.5782215E1,5.684459E1,4.9502487E1,4.6835953E1,1.1429222E1,5.444618E0,1.6066383E1,0E0,0E0,0E0,0E0,0E0,0E0,0E0,0E0,0E0,0E0,0E0,0E0,0E0,0E0,0E0,0E0],"parents":[2147483647,0,0,1,1,2,2,3,3,4,4,5,5,6,6,7,7,8,8,9,9,10,10,11,11,12,12,13,13,14,14],"right_children":[2,4,6,8,10,12,14,16,18,20,22,24,26,28,30,-1,-1,-1,-1,-1,-1,-1,-1,-1,-1,-1,-1,-1,-1,-1,-1],"split_conditions":[-5.1280163E-2,-1.5551989E-1,9.1995627E-1,-5.0446823E-2,8.751323E-1,6.047153E-1,-1.2580143E0,3.7716258E-1,-6.6606605E-1,-9.833403E-1,-2.0814845E-1,1.5863762E0,1.0341288E-1,-8.870322E-1,-4.2283082E-1,1.5955163E-2,-1.0701873E-2,2.7246654E-3,-3.3315808E-2,-2.3829386E-2,2.6731536E-2,1.7494809E-2,-2.0377263E-2,7.5622177E-4,-4.4462815E-2,-2.1167899E-2,-4.8080284E-2,-9.133572E-3,-5.969472E-2,4.0430813E-3,-4.2337324E-2],"split_indices":[1715,2091,1634,1623,482,2243,2243,494,15,612,481,1615,1936,1925,2243,0,0,0,0,0,0,0,0,0,0,0,0,0,0,0,0],"split_type":[0,0,0,0,0,0,0,0,0,0,0,0,0,0,0,0,0,0,0,0,0,0,0,0,0,0,0,0,0,0,0],"sum_hessian":[2.9197E3,2.0210524E3,8.9864764E2,8.1696204E2,1.2040903E3,7.4670355E2,1.5194409E2,5.63604E2,2.5335802E2,8.3689636E2,3.671939E2,5.7913E2,1.6757356E2,6.551128E1,8.6432816E1,3.2344565E2,2.4015837E2,6.735073E1,1.8600728E2,5.910599E1,7.777904E2,1.3658119E2,2.3061273E2,5.157185E2,6.341149E1,9.9806595E1,6.776697E1,6.2771697E0,5.9234108E1,2.6731215E1,5.97016E1],"tree_param":{"num_deleted":"0","num_feature":"3841","num_nodes":"31","size_leaf_vector":"1"}},{"base_weights":[-9.951155E-4,6.7902915E-2,-6.1241364E-1,1.0673605E-1,-6.760446E-1,-2.7027467E-1,-9.150974E-1,3.4481952E-1,-1.1736692E-2,-9.157064E-1,5.976582E-2,2.1420656E-1,-5.5332935E-1,-9.85315E-1,7.82057E-2,2.2014743E-2,-2.6384328E-2,7.2028562E-3,-1.532273E-2,-2.5596055E-3,-5.4896563E-2,3.3384047E-2,-3.5687968E-2,3.212938E-2,-2.9426211E-2,-3.8432263E-2,4.9018534E-3,1.5995738E-3,-5.2411754E-2,-3.4057032E-2,5.931998E-2],"categories":[],"categories_nodes":[],"categories_segments":[],"categories_sizes":[],"default_left":[0,0,0,0,0,0,0,0,0,0,0,0,0,0,0,0,0,0,0,0,0,0,0,0,0,0,0,0,0,0,0],"id":17,"left_children":[1,3,5,7,9,11,13,15,17,19,21,23,25,27,29,-1,-1,-1,-1,-1,-1,-1,-1,-1,-1,-1,-1,-1,-1,-1,-1],"loss_changes":[1.2248692E2,7.556726E1,3.0247871E1,7.0080956E1,2.2940075E1,1.9268673E1,1.0945389E1,6.900164E1,7.625877E1,1.5374863E1,1.5911188E1,1.833519E1,1.2476944E1,9.353882E0,1.0245199E1,0E0,0E0,0E0,0E0,0E0,0E0,0E0,0E0,0E0,0E0,0E0,0E0,0E0,0E0,0E0,0E0],"parents":[2147483647,0,0,1,1,2,2,3,3,4,4,5,5,6,6,7,7,8,8,9,9,10,10,11,11,12,12,13,13,14,14],"right_children":[2,4,6,8,10,12,14,16,18,20,22,24,26,28,30,-1,-1,-1,-1,-1,-1,-1,-1,-1,-1,-1,-1,-1,-1,-1,-1],"split_conditions":[4.444158E-1,1.782898E0,1.095722E-2,-3.1354555E-1,-5.3508583E-2,-4.4219556E-1,3.0411036E0,1.3212591E0,-2.4073455E-1,-1.00292824E-1,3.3097455E-1,8.260059E-2,1.3428998E0,-1.5324651E0,3.4392175E-1,2.2014743E-2,-2.6384328E-2,7.2028562E-3,-1.532273E-2,-2.5596055E-3,-5.4896563E-2,3.3384047E-2,-3.5687968E-2,3.212938E-2,-2.9426211E-2,-3.8432263E-2,4.9018534E-3,1.5995738E-3,-5.2411754E-2,-3.4057032E-2,5.931998E-2],"split_indices":[578,494,1669,642,1921,505,553,1940,2497,15,2391,1717,3100,481,16,0,0,0,0,0,0,0,0,0,0,0,0,0,0,0,0],"split_type":[0,0,0,0,0,0,0,0,0,0,0,0,0,0,0,0,0,0,0,0,0,0,0,0,0,0,0,0,0,0,0],"sum_hessian":[2.9056775E3,2.6122085E3,2.9346918E2,2.4834329E3,1.2877557E2,1.386448E2,1.5482439E2,8.2453406E2,1.6588988E3,9.6952545E1,3.1823032E1,5.121964E1,8.742517E1,1.4460982E2,1.021457E1,7.4365393E2,8.088012E1,1.0855607E3,5.733381E2,1.7101286E1,7.985126E1,1.7895643E1,1.392739E1,3.3527195E1,1.7692444E1,6.557021E1,2.1854958E1,8.451727E0,1.3615808E2,6.2899733E0,3.9245973E0],"tree_param":{"num_deleted":"0","num_feature":"3841","num_nodes":"31","size_leaf_vector":"1"}},{"base_weights":[-2.7148852E-3,1.0676402E-1,-3.60807E-1,-4.0272813E-2,3.2749978E-1,-1.5342246E-1,-6.033217E-1,2.3971005E-1,-2.0927677E-1,-4.7541675E-1,4.497414E-1,-4.7396827E-1,1.0877722E-1,-1.3213687E-1,-7.6693094E-1,-2.7598394E-2,1.8661175E-2,8.427956E-3,-1.8017994E-2,-3.697622E-2,1.0981E-2,1.4321006E-2,3.9791066E-2,-3.9559644E-2,-4.5018406E-3,1.9917747E-2,-2.819307E-2,-1.90377E-2,3.41492E-2,-1.1511561E-2,-4.360869E-2],"categories":[],"categories_nodes":[],"categories_segments":[],"categories_sizes":[],"default_left":[0,0,0,0,0,0,0,0,0,0,0,0,0,0,0,0,0,0,0,0,0,0,0,0,0,0,0,0,0,0,0],"id":18,"left_children":[1,3,5,7,9,11,13,15,17,19,21,23,25,27,29,-1,-1,-1,-1,-1,-1,-1,-1,-1,-1,-1,-1,-1,-1,-1,-1],"loss_changes":[1.1422338E2,7.24367E1,3.421785E1,6.3465023E1,8.778681E1,3.1071247E1,2.4114578E1,5.3576412E1,4.7797955E1,2.1892408E1,4.356888E1,2.0176517E1,3.992638E1,1.69119E1,1.2957382E1,0E0,0E0,0E0,0E0,0E0,0E0,0E0,0E0,0E0,0E0,0E0,0E0,0E0,0E0,0E0,0E0],"parents":[2147483647,0,0,1,1,2,2,3,3,4,4,5,5,6,6,7,7,8,8,9,9,10,10,11,11,12,12,13,13,14,14],"right_children":[2,4,6,8,10,12,14,16,18,20,22,24,26,28,30,-1,-1,-1,-1,-1,-1,-1,-1,-1,-1,-1,-1,-1,-1,-1,-1],"split_conditions":[-1.4041336E-2,2.7708128E-1,-7.897542E-2,-3.1354555E-1,-1.3540555E0,-2.1976174E-1,-4.8081303E-1,-1.1263949E0,-3.071124E-1,6.805668E-1,4.0616313E-1,2.3508571E-1,8.3953464E-1,1.012202E0,-1.3030205E0,-2.7598394E-2,1.8661175E-2,8.427956E-3,-1.8017994E-2,-3.697622E-2,1.0981E-2,1.4321006E-2,3.9791066E-2,-3.9559644E-2,-4.5018406E-3,1.9917747E-2,-2.819307E-2,-1.90377E-2,3.41492E-2,-1.1511561E-2,-4.360869E-2],"split_indices":[1719,355,1620,642,2241,3168,1959,5,1745,2191,2135,437,11,488,335,0,0,0,0,0,0,0,0,0,0,0,0,0,0,0,0],"split_type":[0,0,0,0,0,0,0,0,0,0,0,0,0,0,0,0,0,0,0,0,0,0,0,0,0,0,0,0,0,0,0],"sum_hessian":[2.9116165E3,2.2304167E3,6.8119977E2,1.3391787E3,8.9123816E2,3.680755E2,3.1312427E2,5.039252E2,8.352535E2,1.17378E2,7.7386017E2,1.6524797E2,2.0282755E2,8.116927E1,2.3195497E2,7.226865E1,4.3165656E2,2.3855301E2,5.9670044E2,8.5010704E1,3.2367302E1,5.269912E2,2.4686894E2,8.9903854E1,7.534411E1,1.4207191E2,6.0755627E1,6.2606712E1,1.8562565E1,3.8550312E1,1.9340466E2],"tree_param":{"num_deleted":"0","num_feature":"3841","num_nodes":"31","size_leaf_vector":"1"}},{"base_weights":[-5.5973614E-3,9.3366675E-2,-3.8095832E-1,-1.9208367E-1,1.8920375E-1,-1.8448621E-1,-7.9562485E-1,6.091405E-1,-3.065513E-1,3.173195E-1,-1.1915422E-1,9.875502E-1,-2.4793501E-1,-1.2163129E0,-6.134122E-1,-1.0771725E-2,5.1575046E-2,-2.3198435E-2,5.9100245E-3,1.6590161E-3,2.5081772E-2,-1.7939074E-2,6.9760703E-3,7.369676E-2,-3.3648815E-2,-6.7948336E-3,-4.4656646E-2,4.2758887E-3,-6.504687E-2,-4.0043972E-2,-4.688671E-4],"categories":[],"categories_nodes":[],"categories_segments":[],"categories_sizes":[],"default_left":[0,0,0,0,0,0,0,0,0,0,0,0,0,0,0,0,0,0,0,0,0,0,0,0,0,0,0,0,0,0,0],"id":19,"left_children":[1,3,5,7,9,11,13,15,17,19,21,23,25,27,29,-1,-1,-1,-1,-1,-1,-1,-1,-1,-1,-1,-1,-1,-1,-1,-1],"loss_changes":[1.0777474E2,6.2847427E1,4.9169426E1,5.316081E1,6.79637E1,3.0884792E1,1.4148033E1,2.5485073E1,3.389173E1,6.3613968E1,3.1378502E1,1.8243746E1,2.8190836E1,6.468506E0,1.5573418E1,0E0,0E0,0E0,0E0,0E0,0E0,0E0,0E0,0E0,0E0,0E0,0E0,0E0,0E0,0E0,0E0],"parents":[2147483647,0,0,1,1,2,2,3,3,4,4,5,5,6,6,7,7,8,8,9,9,10,10,11,11,12,12,13,13,14,14],"right_children":[2,4,6,8,10,12,14,16,18,20,22,24,26,28,30,-1,-1,-1,-1,-1,-1,-1,-1,-1,-1,-1,-1,-1,-1,-1,-1],"split_conditions":[3.5955377E-2,-7.1179783E-1,5.239555E-1,-8.3601075E-1,4.1274366E-1,-1.574362E0,-1.5228627E0,-3.2797784E-1,4.0303436E-1,-8.818151E-2,-1.1433638E-2,1.5181481E0,1.3365407E0,-1.448632E0,5.552501E-1,-1.0771725E-2,5.1575046E-2,-2.3198435E-2,5.9100245E-3,1.6590161E-3,2.5081772E-2,-1.7939074E-2,6.9760703E-3,7.369676E-2,-3.3648815E-2,-6.7948336E-3,-4.4656646E-2,4.2758887E-3,-6.504687E-2,-4.0043972E-2,-4.688671E-4],"split_indices":[1749,483,1634,15,2267,15,2243,2368,804,2103,1977,1648,2100,1937,820,0,0,0,0,0,0,0,0,0,0,0,0,0,0,0,0],"split_type":[0,0,0,0,0,0,0,0,0,0,0,0,0,0,0,0,0,0,0,0,0,0,0,0,0,0,0,0,0,0,0],"sum_hessian":[2.8993281E3,2.2950015E3,6.043266E2,5.765991E2,1.7184023E3,4.1102487E2,1.9330174E2,7.153855E1,5.0506058E2,1.2139885E3,5.0441382E2,2.036037E1,3.9066452E2,5.6705723E1,1.3659601E2,2.4397398E1,4.7141155E1,3.6842584E2,1.3663472E2,4.7811392E2,7.3587463E2,2.61647E2,2.427668E2,1.5834619E1,4.525752E0,3.338945E2,5.6770016E1,3.4604776E0,5.3245247E1,1.0399456E2,3.260145E1],"tree_param":{"num_deleted":"0","num_feature":"3841","num_nodes":"31","size_leaf_vector":"1"}},{"base_weights":[3.9012728E-3,1.0306562E-1,-3.2624573E-1,1.9449104E-1,-2.263704E-1,-4.3134905E-2,-5.3734434E-1,2.6769742E-1,-3.3323815E-1,8.445858E-2,-5.1326877E-1,9.720235E-2,-7.2827494E-1,-6.6312313E-1,-5.8370605E-2,4.164829E-3,2.4432722E-2,-9.816496E-4,-3.4081824E-2,-6.417369E-3,3.6054995E-2,-3.0850872E-2,2.617617E-2,-1.3275988E-2,2.0036628E-2,2.7221084E-2,-4.520821E-2,-4.5080364E-2,-1.733858E-2,-6.385169E-2,8.344697E-3],"categories":[],"categories_nodes":[],"categories_segments":[],"categories_sizes":[],"default_left":[0,0,0,0,0,0,0,0,0,0,0,0,0,0,0,0,0,0,0,0,0,0,0,0,0,0,0,0,0,0,0],"id":20,"left_children":[1,3,5,7,9,11,13,15,17,19,21,23,25,27,29,-1,-1,-1,-1,-1,-1,-1,-1,-1,-1,-1,-1,-1,-1,-1,-1],"loss_changes":[9.4578064E1,6.69546E1,3.985675E1,6.729131E1,4.312078E1,2.7580933E1,2.298513E1,6.2222923E1,2.3188065E1,3.1621483E1,2.735868E1,2.6348658E1,1.1407211E1,2.251619E1,2.2334661E1,0E0,0E0,0E0,0E0,0E0,0E0,0E0,0E0,0E0,0E0,0E0,0E0,0E0,0E0,0E0,0E0],"parents":[2147483647,0,0,1,1,2,2,3,3,4,4,5,5,6,6,7,7,8,8,9,9,10,10,11,11,12,12,13,13,14,14],"right_children":[2,4,6,8,10,12,14,16,18,20,22,24,26,28,30,-1,-1,-1,-1,-1,-1,-1,-1,-1,-1,-1,-1,-1,-1,-1,-1],"split_conditions":[-1.9285114E-2,1.1625291E-1,-5.6987397E-2,8.6274505E-1,4.2071383E-2,7.5408363E-1,7.0897084E-1,-1.2966022E-1,-1.673174E-1,3.9335722E-1,1.5946726E0,-2.7227265E-1,-9.7581124E-1,2.890778E-1,-8.4814864E-1,4.164829E-3,2.4432722E-2,-9.816496E-4,-3.4081824E-2,-6.417369E-3,3.6054995E-2,-3.0850872E-2,2.617617E-2,-1.3275988E-2,2.0036628E-2,2.7221084E-2,-4.520821E-2,-4.5080364E-2,-1.733858E-2,-6.385169E-2,8.344697E-3],"split_indices":[1703,1607,514,2227,2341,1959,2091,2391,1630,361,2245,917,900,484,611,0,0,0,0,0,0,0,0,0,0,0,0,0,0,0,0],"split_type":[0,0,0,0,0,0,0,0,0,0,0,0,0,0,0,0,0,0,0,0,0,0,0,0,0,0,0,0,0,0,0],"sum_hessian":[2.8868396E3,2.2205527E3,6.662868E2,1.7384938E3,4.82059E2,2.851149E2,3.8117194E2,1.5271421E3,2.1135175E2,2.3171834E2,2.5034065E2,2.3735548E2,4.7759407E1,3.015898E2,7.958212E1,8.331824E2,6.939597E2,1.1178586E2,9.9565895E1,1.7426598E2,5.745236E1,2.279366E2,2.2404049E1,1.081911E2,1.2916438E2,5.5446014E0,4.2214806E1,1.7090312E2,1.3068668E2,1.1687054E1,6.7895065E1],"tree_param":{"num_deleted":"0","num_feature":"3841","num_nodes":"31","size_leaf_vector":"1"}},{"base_weights":[-5.6671174E-3,7.8396976E-2,-4.1507953E-1,3.1543413E-1,-2.3650268E-2,-5.582518E-1,2.5473787E-2,5.3660536E-1,1.924182E-3,5.780526E-1,-9.320159E-2,-9.139141E-1,-3.8036942E-1,7.386017E-1,-2.5329992E-1,3.9890625E-2,8.606265E-3,3.0499795E-2,-8.55026E-3,-4.352118E-2,3.599567E-2,1.949536E-2,-9.178623E-3,-5.2528825E-2,-9.165432E-3,-1.246364E-2,-5.295682E-2,5.9489507E-2,-2.4781073E-2,-3.883377E-2,3.5373939E-3],"categories":[],"categories_nodes":[],"categories_segments":[],"categories_sizes":[],"default_left":[0,0,0,0,0,0,0,0,0,0,0,0,0,0,0,0,0,0,0,0,0,0,0,0,0,0,0,0,0,0,0],"id":21,"left_children":[1,3,5,7,9,11,13,15,17,19,21,23,25,27,29,-1,-1,-1,-1,-1,-1,-1,-1,-1,-1,-1,-1,-1,-1,-1,-1],"loss_changes":[9.943477E1,5.7988945E1,3.1057411E1,5.002395E1,7.0216965E1,2.3155212E1,2.4375391E1,4.0136093E1,3.1590672E1,3.6350643E1,6.572213E1,1.21026535E1,2.192421E1,1.9774263E1,1.5016914E1,0E0,0E0,0E0,0E0,0E0,0E0,0E0,0E0,0E0,0E0,0E0,0E0,0E0,0E0,0E0,0E0],"parents":[2147483647,0,0,1,1,2,2,3,3,4,4,5,5,6,6,7,7,8,8,9,9,10,10,11,11,12,12,13,13,14,14],"right_children":[2,4,6,8,10,12,14,16,18,20,22,24,26,28,30,-1,-1,-1,-1,-1,-1,-1,-1,-1,-1,-1,-1,-1,-1,-1,-1],"split_conditions":[1.9201027E-1,-3.3569062E-1,1.217176E0,1.0604653E-1,-1.0077181E0,-3.5004675E-1,2.1850803E-1,1.7621945E-1,-4.8808214E-1,-9.0496236E-1,-8.2732856E-1,1.1533542E0,2.4445158E-1,1.0073937E0,6.209303E-1,3.9890625E-2,8.606265E-3,3.0499795E-2,-8.55026E-3,-4.352118E-2,3.599567E-2,1.949536E-2,-9.178623E-3,-5.2528825E-2,-9.165432E-3,-1.246364E-2,-5.295682E-2,5.9489507E-2,-2.4781073E-2,-3.883377E-2,3.5373939E-3],"split_indices":[1757,1923,484,2178,487,2122,597,2267,1670,94,561,1931,1682,1974,2478,0,0,0,0,0,0,0,0,0,0,0,0,0,0,0,0],"split_type":[0,0,0,0,0,0,0,0,0,0,0,0,0,0,0,0,0,0,0,0,0,0,0,0,0,0,0,0,0,0,0],"sum_hessian":[2.8871824E3,2.3960195E3,4.911629E2,7.204513E2,1.6755682E3,3.7049216E2,1.20670746E2,4.220189E2,2.9843243E2,1.7285477E2,1.5027135E3,1.2214157E2,2.483506E2,3.3450905E1,8.721984E1,2.451451E2,1.768738E2,6.551933E1,2.329131E2,1.4960823E1,1.5789395E2,2.3628033E2,1.2664331E3,1.02525795E2,1.9615772E1,2.0929478E2,3.9055817E1,2.4522385E1,8.928519E0,3.281804E1,5.4401802E1],"tree_param":{"num_deleted":"0","num_feature":"3841","num_nodes":"31","size_leaf_vector":"1"}},{"base_weights":[2.7724123E-4,5.9337612E-2,-5.414453E-1,9.67794E-2,-6.454779E-1,-2.3721997E-1,-8.230752E-1,1.3524738E-1,-5.74911E-1,-1.5359624E-2,-8.532578E-1,1.2721357E-1,-6.4995646E-1,-4.9594525E-1,-1.0484328E0,2.0194223E-2,8.588861E-4,-3.4146618E-2,3.9014433E-2,-4.3884143E-2,2.2654254E-2,3.9534695E-2,-4.610476E-2,-1.2623432E-2,3.810075E-2,1.2247982E-2,-4.2615216E-2,-4.4031914E-2,1.9014957E-4,-3.542472E-2,-6.583853E-2],"categories":[],"categories_nodes":[],"categories_segments":[],"categories_sizes":[],"default_left":[0,0,0,0,0,0,0,0,0,0,0,0,0,0,0,0,0,0,0,0,0,0,0,0,0,0,0,0,0,0,0],"id":22,"left_children":[1,3,5,7,9,11,13,15,17,19,21,23,25,27,29,-1,-1,-1,-1,-1,-1,-1,-1,-1,-1,-1,-1,-1,-1,-1,-1],"loss_changes":[9.249401E1,6.885341E1,2.4154434E1,6.405731E1,1.7219746E1,2.0843388E1,1.032988E1,7.430199E1,2.0195717E1,1.3993787E1,1.192852E1,1.8061075E1,1.1958593E1,1.190925E1,6.9341736E0,0E0,0E0,0E0,0E0,0E0,0E0,0E0,0E0,0E0,0E0,0E0,0E0,0E0,0E0,0E0,0E0],"parents":[2147483647,0,0,1,1,2,2,3,3,4,4,5,5,6,6,7,7,8,8,9,9,10,10,11,11,12,12,13,13,14,14],"right_children":[2,4,6,8,10,12,14,16,18,20,22,24,26,28,30,-1,-1,-1,-1,-1,-1,-1,-1,-1,-1,-1,-1,-1,-1,-1,-1],"split_conditions":[4.444158E-1,1.782898E0,-9.266346E-2,1.3532741E0,-1.2878922E-1,5.188913E-1,-5.8300555E-1,-3.4992462E-1,1.2396731E0,-6.616373E-1,-1.5382822E0,5.0358003E-1,-5.210504E-1,5.620418E-1,-3.1267816E-1,2.0194223E-2,8.588861E-4,-3.4146618E-2,3.9014433E-2,-4.3884143E-2,2.2654254E-2,3.9534695E-2,-4.610476E-2,-1.2623432E-2,3.810075E-2,1.2247982E-2,-4.2615216E-2,-4.4031914E-2,1.9014957E-4,-3.542472E-2,-6.583853E-2],"split_indices":[578,494,2269,19,15,2390,2224,2,330,2053,3676,2228,1955,2357,2105,0,0,0,0,0,0,0,0,0,0,0,0,0,0,0,0],"split_type":[0,0,0,0,0,0,0,0,0,0,0,0,0,0,0,0,0,0,0,0,0,0,0,0,0,0,0,0,0,0,0],"sum_hessian":[2.8889456E3,2.6057485E3,2.831968E2,2.4751257E3,1.3062297E2,1.370228E2,1.46174E2,2.341808E3,1.3331764E2,3.2657867E1,9.796511E1,7.313693E1,6.3885868E1,6.0929382E1,8.524461E1,7.142639E2,1.6275442E3,1.23935E2,9.38265E0,1.1188402E1,2.1469467E1,3.5157883E0,9.444932E1,4.6141468E1,2.6995468E1,1.1742439E1,5.214343E1,3.3997128E1,2.6932253E1,3.92111E1,4.6033512E1],"tree_param":{"num_deleted":"0","num_feature":"3841","num_nodes":"31","size_leaf_vector":"1"}},{"base_weights":[7.1983556E-3,7.8768924E-2,-3.8743833E-1,1.3074072E-1,-3.942937E-1,-4.993807E-1,2.9518792E-1,1.9910909E-1,-2.4719954E-1,-4.8795873E-1,2.852378E-1,-9.4015795E-1,-3.3203304E-1,6.483389E-1,-5.625066E-1,1.8676792E-3,2.0260256E-2,1.0275613E-2,-2.1539848E-2,-1.6836468E-2,-4.7328398E-2,4.453137E-2,-3.5036087E-2,-5.236679E-2,-5.262347E-3,-2.1550633E-2,1.4527217E-2,-2.5580112E-2,4.780954E-2,-4.538736E-2,1.6400535E-2],"categories":[],"categories_nodes":[],"categories_segments":[],"categories_sizes":[],"default_left":[0,0,0,0,0,0,0,0,0,0,0,0,0,0,0,0,0,0,0,0,0,0,0,0,0,0,0,0,0,0,0],"id":23,"left_children":[1,3,5,7,9,11,13,15,17,19,21,23,25,27,29,-1,-1,-1,-1,-1,-1,-1,-1,-1,-1,-1,-1,-1,-1,-1,-1],"loss_changes":[8.117589E1,5.9863094E1,3.3863045E1,5.6706615E1,1.5482334E1,2.7675682E1,1.938331E1,6.190394E1,2.8043768E1,1.4400375E1,1.8431246E1,9.1842575E0,1.7167624E1,1.6537163E1,6.0925407E0,0E0,0E0,0E0,0E0,0E0,0E0,0E0,0E0,0E0,0E0,0E0,0E0,0E0,0E0,0E0,0E0],"parents":[2147483647,0,0,1,1,2,2,3,3,4,4,5,5,6,6,7,7,8,8,9,9,10,10,11,11,12,12,13,13,14,14],"right_children":[2,4,6,8,10,12,14,16,18,20,22,24,26,28,30,-1,-1,-1,-1,-1,-1,-1,-1,-1,-1,-1,-1,-1,-1,-1,-1],"split_conditions":[4.807533E-1,9.597442E-1,1.2481451E0,6.549809E-1,1.0551503E0,-5.963435E-1,7.583746E-1,1.0154899E-1,-4.9511623E-1,4.3285474E-1,1.3245651E-1,7.63016E-1,1.0068781E0,-3.0875453E-1,5.6547157E-2,1.8676792E-3,2.0260256E-2,1.0275613E-2,-2.1539848E-2,-1.6836468E-2,-4.7328398E-2,4.453137E-2,-3.5036087E-2,-5.236679E-2,-5.262347E-3,-2.1550633E-2,1.4527217E-2,-2.5580112E-2,4.780954E-2,-4.538736E-2,1.6400535E-2],"split_indices":[580,2227,10,103,2245,41,1607,2086,136,2393,1676,2720,320,2387,2790,0,0,0,0,0,0,0,0,0,0,0,0,0,0,0,0],"split_type":[0,0,0,0,0,0,0,0,0,0,0,0,0,0,0,0,0,0,0,0,0,0,0,0,0,0,0,0,0,0,0],"sum_hessian":[2.871975E3,2.4317566E3,4.402184E2,2.1916953E3,2.4006128E2,3.7842908E2,6.178932E1,1.8563583E3,3.3533707E2,2.1122803E2,2.8833256E1,1.02867714E2,2.7556137E2,4.3940964E1,1.7848358E1,1.0407228E3,8.1563544E2,9.672201E1,2.3861505E2,1.6015132E2,5.10767E1,1.792426E1,1.0908997E1,9.093937E1,1.1928341E1,2.3802672E2,3.7534657E1,9.077275E0,3.486369E1,1.284802E1,5.0003386E0],"tree_param":{"num_deleted":"0","num_feature":"3841","num_nodes":"31","size_leaf_vector":"1"}},{"base_weights":[3.457494E-4,1.02969244E-1,-2.9841778E-1,1.8372454E-1,-2.8716317E-1,-6.997759E-1,-1.9263546E-1,-1.00165896E-1,3.0677116E-1,-5.337489E-1,2.7101568E-3,-3.266891E-1,-9.984303E-1,-3.0013186E-1,2.83531E-1,-9.973667E-3,2.6833935E-2,2.0599592E-2,-9.357882E-3,-1.4549791E-2,-4.9730424E-2,1.6304165E-2,-2.5198597E-2,5.311303E-3,-4.413328E-2,1.3669047E-2,-5.3297825E-2,-2.1377198E-2,1.4168546E-2,3.2552198E-2,-1.7119484E-2],"categories":[],"categories_nodes":[],"categories_segments":[],"categories_sizes":[],"default_left":[0,0,0,0,0,0,0,0,0,0,0,0,0,0,0,0,0,0,0,0,0,0,0,0,0,0,0,0,0,0,0],"id":24,"left_children":[1,3,5,7,9,11,13,15,17,19,21,23,25,27,29,-1,-1,-1,-1,-1,-1,-1,-1,-1,-1,-1,-1,-1,-1,-1,-1],"loss_changes":[8.826068E1,6.7558334E1,3.111316E1,6.206345E1,2.6294878E1,1.6737175E1,2.9970604E1,3.4113983E1,6.447559E1,2.1948135E1,2.8031324E1,1.6838972E1,7.5541E0,3.556991E1,2.507732E1,0E0,0E0,0E0,0E0,0E0,0E0,0E0,0E0,0E0,0E0,0E0,0E0,0E0,0E0,0E0,0E0],"parents":[2147483647,0,0,1,1,2,2,3,3,4,4,5,5,6,6,7,7,8,8,9,9,10,10,11,11,12,12,13,13,14,14],"right_children":[2,4,6,8,10,12,14,16,18,20,22,24,26,28,30,-1,-1,-1,-1,-1,-1,-1,-1,-1,-1,-1,-1,-1,-1,-1,-1],"split_conditions":[-2.6371216E-2,6.390512E-1,-1.0420364E0,-5.285678E-1,-1.8988387E-1,-1.6902824E-1,9.963951E-1,9.1872543E-1,1.1625291E-1,8.065117E-2,1.2505959E-1,5.067109E-1,-1.298756E0,7.0897084E-1,5.856396E-1,-9.973667E-3,2.6833935E-2,2.0599592E-2,-9.357882E-3,-1.4549791E-2,-4.9730424E-2,1.6304165E-2,-2.5198597E-2,5.311303E-3,-4.413328E-2,1.3669047E-2,-5.3297825E-2,-2.1377198E-2,1.4168546E-2,3.2552198E-2,-1.7119484E-2],"split_indices":[1719,99,1989,2244,1370,1613,5,645,1607,2279,258,140,3201,2091,2060,0,0,0,0,0,0,0,0,0,0,0,0,0,0,0,0],"split_type":[0,0,0,0,0,0,0,0,0,0,0,0,0,0,0,0,0,0,0,0,0,0,0,0,0,0,0,0,0,0,0],"sum_hessian":[2.8766743E3,2.1416765E3,7.349978E2,1.7748262E3,3.6685028E2,1.521389E2,5.828589E2,5.367151E2,1.2381112E3,1.9777136E2,1.6907892E2,6.85715E1,8.35674E1,4.758122E2,1.07046715E2,4.6490594E2,7.180912E1,1.0208149E3,2.1729628E2,1.3060692E2,6.7164444E1,1.0342669E2,6.565224E1,3.9007202E1,2.95643E1,4.059568E0,7.950783E1,3.907552E2,8.505699E1,6.742034E1,3.9626377E1],"tree_param":{"num_deleted":"0","num_feature":"3841","num_nodes":"31","size_leaf_vector":"1"}},{"base_weights":[-5.5041525E-4,6.1499674E-2,-4.9655294E-1,2.50131E-1,-7.147358E-2,-2.0472078E-1,-7.007248E-1,4.802848E-1,3.05095E-2,-7.0835847E-1,9.169711E-3,2.3869995E-2,-8.844062E-1,-7.985302E-1,-2.8882407E-2,3.3116974E-2,-2.1761477E-3,1.3906916E-2,-1.6105179E-2,1.7657068E-3,-4.3728773E-2,-1.0126762E-2,1.1915853E-2,-9.566995E-3,3.0641733E-2,-5.2129038E-2,7.394486E-3,-4.2180903E-2,2.5456687E-2,-3.647008E-2,2.975961E-2],"categories":[],"categories_nodes":[],"categories_segments":[],"categories_sizes":[],"default_left":[0,0,0,0,0,0,0,0,0,0,0,0,0,0,0,0,0,0,0,0,0,0,0,0,0,0,0,0,0,0,0],"id":25,"left_children":[1,3,5,7,9,11,13,15,17,19,21,23,25,27,29,-1,-1,-1,-1,-1,-1,-1,-1,-1,-1,-1,-1,-1,-1,-1,-1],"loss_changes":[8.821039E1,6.3915047E1,1.8844994E1,5.3236656E1,7.6786896E1,2.0622185E1,1.2270615E1,4.9078133E1,4.725447E1,2.0801071E1,6.4466965E1,1.2817323E1,5.6073284E0,1.0056328E1,1.1281627E1,0E0,0E0,0E0,0E0,0E0,0E0,0E0,0E0,0E0,0E0,0E0,0E0,0E0,0E0,0E0,0E0],"parents":[2147483647,0,0,1,1,2,2,3,3,4,4,5,5,6,6,7,7,8,8,9,9,10,10,11,11,12,12,13,13,14,14],"right_children":[2,4,6,8,10,12,14,16,18,20,22,24,26,28,30,-1,-1,-1,-1,-1,-1,-1,-1,-1,-1,-1,-1,-1,-1,-1,-1],"split_conditions":[1.4246269E-1,-8.242117E-2,-6.2789805E-2,-1.1698984E-1,-1.0191857E0,1.2251848E0,1.0114125E0,6.217401E-1,-1.3816804E-1,-6.144559E-1,-2.4881253E-2,5.6778055E-1,8.8170105E-1,2.2841642E0,-2.6183474E-1,3.3116974E-2,-2.1761477E-3,1.3906916E-2,-1.6105179E-2,1.7657068E-3,-4.3728773E-2,-1.0126762E-2,1.1915853E-2,-9.566995E-3,3.0641733E-2,-5.2129038E-2,7.394486E-3,-4.2180903E-2,2.5456687E-2,-3.647008E-2,2.975961E-2],"split_indices":[1735,2242,842,97,2241,2080,330,1947,1714,2379,1926,862,105,2245,406,0,0,0,0,0,0,0,0,0,0,0,0,0,0,0,0],"split_type":[0,0,0,0,0,0,0,0,0,0,0,0,0,0,0,0,0,0,0,0,0,0,0,0,0,0,0,0,0,0,0],"sum_hessian":[2.8641216E3,2.5464375E3,3.1768417E2,1.0525065E3,1.493931E3,1.315938E2,1.860904E2,5.133505E2,5.391559E2,1.6702869E2,1.3269023E3,9.9196915E1,3.2396877E1,1.6227776E2,2.3812632E1,3.8075192E2,1.3259862E2,3.1685205E2,2.223038E2,3.0656357E1,1.3637233E2,6.8976105E2,6.3714124E2,7.314469E1,2.6052221E1,2.8083754E1,4.313124E0,1.57212E2,5.0657573E0,1.1139665E1,1.2672967E1],"tree_param":{"num_deleted":"0","num_feature":"3841","num_nodes":"31","size_leaf_vector":"1"}},{"base_weights":[-1.744855E-3,6.307983E-2,-4.147296E-1,2.1905933E-1,-8.459582E-2,-2.6203275E-1,-8.788129E-1,4.4278654E-1,-5.06761E-2,-1.7508191E-1,2.92874E-1,-4.8440313E-1,2.6674127E-2,3.9121505E-2,-9.4453657E-1,2.6114492E-2,-2.3895761E-2,9.652025E-3,-1.88424E-2,-3.554808E-3,-2.8484007E-2,5.883278E-4,5.342899E-2,2.9505301E-2,-3.001074E-2,1.419113E-2,-2.8032903E-2,-5.097281E-2,4.9529867E-3],"categories":[],"categories_nodes":[],"categories_segments":[],"categories_sizes":[],"default_left":[0,0,0,0,0,0,0,0,0,0,0,0,0,0,0,0,0,0,0,0,0,0,0,0,0,0,0,0,0],"id":26,"left_children":[1,3,5,7,9,11,13,15,17,19,21,23,25,-1,27,-1,-1,-1,-1,-1,-1,-1,-1,-1,-1,-1,-1,-1,-1],"loss_changes":[7.667667E1,5.704135E1,2.7305672E1,7.2692894E1,4.3509254E1,1.8874796E1,1.1196007E1,4.843953E1,4.3544815E1,4.2097744E1,5.371678E1,2.1013718E1,1.9609016E1,0E0,7.339653E0,0E0,0E0,0E0,0E0,0E0,0E0,0E0,0E0,0E0,0E0,0E0,0E0,0E0,0E0],"parents":[2147483647,0,0,1,1,2,2,3,3,4,4,5,5,6,6,7,7,8,8,9,9,10,10,11,11,12,12,14,14],"right_children":[2,4,6,8,10,12,14,16,18,20,22,24,26,-1,28,-1,-1,-1,-1,-1,-1,-1,-1,-1,-1,-1,-1,-1,-1],"split_conditions":[1.8223563E-1,-3.4183177E-1,1.0942314E0,4.6262357E-1,8.97587E-1,1.0088464E-1,-3.2448955E0,1.1942132E0,-2.0274417E-1,6.752159E-1,1.0349705E0,-1.331835E0,5.88144E-1,3.9121505E-2,2.6897104E0,2.6114492E-2,-2.3895761E-2,9.652025E-3,-1.88424E-2,-3.554808E-3,-2.8484007E-2,5.883278E-4,5.342899E-2,2.9505301E-2,-3.001074E-2,1.419113E-2,-2.8032903E-2,-5.097281E-2,4.9529867E-3],"split_indices":[1749,1607,1634,2243,4,2008,328,494,2318,635,5,15,754,0,1849,0,0,0,0,0,0,0,0,0,0,0,0,0,0],"split_type":[0,0,0,0,0,0,0,0,0,0,0,0,0,0,0,0,0,0,0,0,0,0,0,0,0,0,0,0,0],"sum_hessian":[2.8621274E3,2.4745532E3,3.875742E2,1.2032065E3,1.2713467E3,2.9279935E2,9.4774826E1,6.573433E2,5.4586316E2,1.0259458E3,2.454009E2,1.6501906E2,1.2778028E2,3.1918628E0,9.158296E1,6.0549146E2,5.1851883E1,3.1265475E2,2.332084E2,8.1290643E2,2.1303941E2,1.8087053E2,6.4530365E1,1.5656984E1,1.4936208E2,8.9229965E1,3.8550316E1,8.547021E1,6.1127577E0],"tree_param":{"num_deleted":"0","num_feature":"3841","num_nodes":"29","size_leaf_vector":"1"}},{"base_weights":[-4.847814E-3,7.351793E-2,-3.4544456E-1,2.7893867E-2,6.009697E-1,-4.2163596E-1,3.4234804E-1,9.864384E-2,-3.2537067E-1,9.837021E-1,2.1196096E-1,-9.7394496E-1,-3.3426136E-1,6.6840357E-1,-8.437417E-1,-9.447366E-3,9.605446E-3,7.042547E-4,-2.6771262E-2,-3.17215E-2,5.6919463E-2,8.885342E-4,5.897817E-2,-5.3849567E-2,1.335457E-2,1.7158255E-2,-2.005372E-2,-1.2570013E-2,5.4597307E-2,5.593093E-3,-6.258674E-2],"categories":[],"categories_nodes":[],"categories_segments":[],"categories_sizes":[],"default_left":[0,0,0,0,0,0,0,0,0,0,0,0,0,0,0,0,0,0,0,0,0,0,0,0,0,0,0,0,0,0,0],"id":27,"left_children":[1,3,5,7,9,11,13,15,17,19,21,23,25,27,29,-1,-1,-1,-1,-1,-1,-1,-1,-1,-1,-1,-1,-1,-1,-1,-1],"loss_changes":[7.6512596E1,5.606449E1,2.8242573E1,5.366734E1,2.740767E1,2.29907E1,2.1457188E1,4.8115196E1,2.5556133E1,2.4056122E1,1.7503052E1,8.660557E0,1.9087833E1,1.7000584E1,4.854125E0,0E0,0E0,0E0,0E0,0E0,0E0,0E0,0E0,0E0,0E0,0E0,0E0,0E0,0E0,0E0,0E0],"parents":[2147483647,0,0,1,1,2,2,3,3,4,4,5,5,6,6,7,7,8,8,9,9,10,10,11,11,12,12,13,13,14,14],"right_children":[2,4,6,8,10,12,14,16,18,20,22,24,26,28,30,-1,-1,-1,-1,-1,-1,-1,-1,-1,-1,-1,-1,-1,-1,-1,-1],"split_conditions":[2.626659E-1,1.2734275E0,1.7830237E0,6.9229496E-1,7.534387E-2,-1.2340951E0,7.839947E-1,-7.101242E-1,-3.4639582E-1,-9.868359E-1,8.1164616E-1,1.390588E0,-1.1942728E0,-6.181106E-1,4.1215513E-2,-9.447366E-3,9.605446E-3,7.042547E-4,-2.6771262E-2,-3.17215E-2,5.6919463E-2,8.885342E-4,5.897817E-2,-5.3849567E-2,1.335457E-2,1.7158255E-2,-2.005372E-2,-1.2570013E-2,5.4597307E-2,5.593093E-3,-6.258674E-2],"split_indices":[1658,10,644,2020,2018,1989,448,2244,3756,1935,2238,3564,2256,2228,418,0,0,0,0,0,0,0,0,0,0,0,0,0,0,0,0],"split_type":[0,0,0,0,0,0,0,0,0,0,0,0,0,0,0,0,0,0,0,0,0,0,0,0,0,0,0,0,0,0,0],"sum_hessian":[2.8646423E3,2.3294565E3,5.351858E2,2.1449717E3,1.8448509E2,4.8216058E2,5.30252E1,1.7876676E3,3.5730396E2,9.222214E1,9.226295E1,6.4472534E1,4.1768805E2,4.193402E1,1.1091179E1,4.382267E2,1.3494409E3,1.3693881E2,2.2036513E2,7.7762184E0,8.4445915E1,7.768961E1,1.4573335E1,5.965169E1,4.820843E0,3.7126022E1,3.8056204E2,1.3349486E1,2.8584536E1,3.5356896E0,7.555489E0],"tree_param":{"num_deleted":"0","num_feature":"3841","num_nodes":"31","size_leaf_vector":"1"}},{"base_weights":[-9.021158E-3,7.349909E-2,-3.284509E-1,-3.29931E-2,3.0084598E-1,-9.5868564E-1,-2.3280837E-1,2.2981575E-1,-1.5298505E-1,4.1865006E-1,-1.3662283E-1,-1.0332551E0,9.4045615E-3,-9.1492283E-1,-1.5373819E-1,1.6329745E-2,-2.979256E-2,-4.429894E-2,-4.4398685E-3,1.0002223E-2,3.5237428E-2,3.3008587E-3,-5.3879727E-2,1.0368502E-2,-5.524798E-2,1.1125039E-2,-5.07643E-2,3.9833505E-2,-1.03998445E-2],"categories":[],"categories_nodes":[],"categories_segments":[],"categories_sizes":[],"default_left":[0,0,0,0,0,0,0,0,0,0,0,0,0,0,0,0,0,0,0,0,0,0,0,0,0,0,0,0,0],"id":28,"left_children":[1,3,5,7,9,11,13,15,17,19,21,23,-1,25,27,-1,-1,-1,-1,-1,-1,-1,-1,-1,-1,-1,-1,-1,-1],"loss_changes":[7.499046E1,5.474899E1,3.4982117E1,4.861865E1,3.723111E1,6.7477875E0,2.7280993E1,3.8815445E1,4.9713615E1,3.541694E1,2.939498E1,6.643959E0,0E0,6.2318153E0,2.3722422E1,0E0,0E0,0E0,0E0,0E0,0E0,0E0,0E0,0E0,0E0,0E0,0E0,0E0,0E0],"parents":[2147483647,0,0,1,1,2,2,3,3,4,4,5,5,6,6,7,7,8,8,9,9,10,10,11,11,13,13,14,14],"right_children":[2,4,6,8,10,12,14,16,18,20,22,24,-1,26,28,-1,-1,-1,-1,-1,-1,-1,-1,-1,-1,-1,-1,-1,-1],"split_conditions":[3.5955377E-2,4.0616313E-1,-1.3291779E0,-3.3569062E-1,7.036591E-1,1.6879671E0,-1.7631274E0,4.644001E-1,-1.0584451E0,3.1905857E-1,8.203973E-1,-2.663996E-1,9.4045615E-3,-4.5974037E-1,-1.5366027E0,1.6329745E-2,-2.979256E-2,-4.429894E-2,-4.4398685E-3,1.0002223E-2,3.5237428E-2,3.3008587E-3,-5.3879727E-2,1.0368502E-2,-5.524798E-2,1.1125039E-2,-5.07643E-2,3.9833505E-2,-1.03998445E-2],"split_indices":[1749,2135,1942,1923,2193,3685,2274,578,1996,467,952,1686,0,1856,15,0,0,0,0,0,0,0,0,0,0,0,0,0,0],"split_type":[0,0,0,0,0,0,0,0,0,0,0,0,0,0,0,0,0,0,0,0,0,0,0,0,0,0,0,0,0],"sum_hessian":[2.843005E3,2.2599482E3,5.830565E2,1.5396238E3,7.2032465E2,7.563531E1,5.074212E2,4.8232037E2,1.0573033E3,5.6753784E2,1.5278682E2,7.111033E1,4.524978E0,5.1611702E1,4.558095E2,4.322584E2,5.0061974E1,8.410139E1,9.7320197E2,3.2267987E2,2.4485794E2,1.2647914E2,2.6307676E1,3.782027E0,6.73283E1,4.086146E0,4.752556E1,2.3877787E1,4.319317E2],"tree_param":{"num_deleted":"0","num_feature":"3841","num_nodes":"29","size_leaf_vector":"1"}},{"base_weights":[2.316349E-3,7.0251875E-2,-3.3897945E-1,2.9496005E-1,-2.5621792E-2,-8.520549E-1,-2.2447717E-1,-7.047762E-1,3.5125676E-1,4.2243484E-1,-1.0251122E-1,-3.6835033E-1,-1.0823541E0,-3.2597667E-1,5.8767325E-1,-4.468241E-2,3.5651676E-2,-6.749223E-4,2.5170108E-2,3.330159E-2,-8.677143E-3,1.7580152E-2,-9.373024E-3,-3.2427005E-2,3.4365356E-2,7.708726E-3,-5.9383538E-2,-2.5808148E-3,-2.8008033E-2,4.365393E-2,-3.8994197E-2],"categories":[],"categories_nodes":[],"categories_segments":[],"categories_sizes":[],"default_left":[0,0,0,0,0,0,0,0,0,0,0,0,0,0,0,0,0,0,0,0,0,0,0,0,0,0,0,0,0,0,0],"id":29,"left_children":[1,3,5,7,9,11,13,15,17,19,21,23,25,27,29,-1,-1,-1,-1,-1,-1,-1,-1,-1,-1,-1,-1,-1,-1,-1,-1],"loss_changes":[6.5986626E1,5.1140778E1,2.7564453E1,4.0201775E1,5.7389492E1,9.163788E0,3.2143353E1,1.0860369E1,3.7339874E1,3.5540306E1,5.4905468E1,9.083765E0,7.689125E0,2.214999E1,1.762701E1,0E0,0E0,0E0,0E0,0E0,0E0,0E0,0E0,0E0,0E0,0E0,0E0,0E0,0E0,0E0,0E0],"parents":[2147483647,0,0,1,1,2,2,3,3,4,4,5,5,6,6,7,7,8,8,9,9,10,10,11,11,12,12,13,13,14,14],"right_children":[2,4,6,8,10,12,14,16,18,20,22,24,26,28,30,-1,-1,-1,-1,-1,-1,-1,-1,-1,-1,-1,-1,-1,-1,-1,-1],"split_conditions":[1.9201027E-1,-3.3569062E-1,-1.6135625E0,-1.5813737E0,-8.06337E-1,-5.8974844E-1,1.2734275E0,1.574958E0,-4.628262E-1,3.080664E-1,-8.2732856E-1,2.548888E-1,-1.9514904E0,-3.8060057E-1,1.289015E0,-4.468241E-2,3.5651676E-2,-6.749223E-4,2.5170108E-2,3.330159E-2,-8.677143E-3,1.7580152E-2,-9.373024E-3,-3.2427005E-2,3.4365356E-2,7.708726E-3,-5.9383538E-2,-2.5808148E-3,-2.8008033E-2,4.365393E-2,-3.8994197E-2],"split_indices":[1757,1923,2160,454,2248,2119,10,163,810,2011,561,364,2150,1601,71,0,0,0,0,0,0,0,0,0,0,0,0,0,0,0,0],"split_type":[0,0,0,0,0,0,0,0,0,0,0,0,0,0,0,0,0,0,0,0,0,0,0,0,0,0,0,0,0,0,0],"sum_hessian":[2.843928E3,2.3724766E3,4.7145145E2,7.0889526E2,1.6635813E3,8.484162E1,3.8660983E2,3.7176853E1,6.717184E2,2.4300835E2,1.420573E3,2.8203773E1,5.6637848E1,3.4419257E2,4.2417263E1,3.31328E1,4.04405E0,1.97983E2,4.7373538E2,1.7241768E2,7.059066E1,2.233688E2,1.1972042E3,2.2592886E1,5.610889E0,4.4088955E0,5.222895E1,1.5906221E2,1.8513036E2,3.539252E1,7.024742E0],"tree_param":{"num_deleted":"0","num_feature":"3841","num_nodes":"31","size_leaf_vector":"1"}},{"base_weights":[-1.2303498E-2,2.2441488E-2,-6.482298E-1,-1.9266548E-2,5.214556E-1,-3.6384654E-1,-1.0359656E0,2.8757637E-2,-4.9140662E-1,-1.8445404E-1,7.150796E-1,6.620632E-2,-4.6905425E-1,-4.2043808E-1,-1.1601168E0,3.3625145E-3,-2.4519853E-2,-2.776796E-2,3.8834073E-2,4.0117513E-2,-2.6055444E-2,7.050782E-3,4.88915E-2,5.068108E-2,-2.813909E-2,-5.427901E-2,1.7916271E-2,-2.9884574E-3,-6.383192E-2],"categories":[],"categories_nodes":[],"categories_segments":[],"categories_sizes":[],"default_left":[0,0,0,0,0,0,0,0,0,0,0,0,0,0,0,0,0,0,0,0,0,0,0,0,0,0,0,0,0],"id":30,"left_children":[1,3,5,7,9,11,13,15,17,19,21,-1,23,25,27,-1,-1,-1,-1,-1,-1,-1,-1,-1,-1,-1,-1,-1,-1],"loss_changes":[6.292354E1,5.621814E1,1.5891079E1,5.6547367E1,2.8608925E1,1.600944E1,4.241226E0,4.5276794E1,1.910392E1,1.5580749E1,2.4554657E1,0E0,1.2008394E1,6.5816E0,6.4533615E0,0E0,0E0,0E0,0E0,0E0,0E0,0E0,0E0,0E0,0E0,0E0,0E0,0E0,0E0],"parents":[2147483647,0,0,1,1,2,2,3,3,4,4,5,5,6,6,7,7,8,8,9,9,10,10,12,12,13,13,14,14],"right_children":[2,4,6,8,10,12,14,16,18,20,22,-1,24,26,28,-1,-1,-1,-1,-1,-1,-1,-1,-1,-1,-1,-1,-1,-1],"split_conditions":[5.421986E-2,1.2734275E0,3.3636874E-1,1.4246269E-1,-5.086544E-1,-1.3833427E0,-1.8176436E-1,9.3691397E-1,1.0089135E0,-3.0010104E-1,-3.859155E-2,6.620632E-2,-1.461851E0,-3.6717195E-2,-1.9415404E0,3.3625145E-3,-2.4519853E-2,-2.776796E-2,3.8834073E-2,4.0117513E-2,-2.6055444E-2,7.050782E-3,4.88915E-2,5.068108E-2,-2.813909E-2,-5.427901E-2,1.7916271E-2,-2.9884574E-3,-6.383192E-2],"split_indices":[1703,10,1601,1735,1935,115,633,2341,446,2360,1928,0,2096,1269,2092,0,0,0,0,0,0,0,0,0,0,0,0,0,0],"split_type":[0,0,0,0,0,0,0,0,0,0,0,0,0,0,0,0,0,0,0,0,0,0,0,0,0,0,0,0,0],"sum_hessian":[2.8461726E3,2.6996377E3,1.4653488E2,2.4922913E3,2.073465E2,8.565209E1,6.0882793E1,2.2630427E3,2.2924849E2,4.464139E1,1.627051E2,4.3455424E0,8.130655E1,1.095511E1,4.9927685E1,2.1076423E3,1.5540038E2,2.1877711E2,1.0471382E1,1.1003774E1,3.3637615E1,5.157009E1,1.1113501E2,4.2506704E0,7.705588E1,5.6960945E0,5.2590156E0,4.92571E0,4.5001972E1],"tree_param":{"num_deleted":"0","num_feature":"3841","num_nodes":"29","size_leaf_vector":"1"}},{"base_weights":[-7.5622867E-3,6.55213E-2,-3.2904902E-1,1.1094127E-1,-4.541169E-1,-7.8584635E-1,-2.2377476E-1,1.8895711E-1,-1.860794E-1,-8.5993713E-1,-2.037504E-1,-1.0725952E0,-1.5350997E-1,3.5350293E-1,-3.1541315E-1,-8.950224E-5,1.673986E-2,3.629677E-3,-2.400966E-2,-1.7873648E-3,-4.8915163E-2,-4.050631E-2,2.2888484E-3,-6.0543936E-2,-2.181694E-3,3.58326E-2,-3.276875E-2,-5.556032E-2,2.7746132E-2,-7.2240606E-3,-3.3811867E-2],"categories":[],"categories_nodes":[],"categories_segments":[],"categories_sizes":[],"default_left":[0,0,0,0,0,0,0,0,0,0,0,0,0,0,0,0,0,0,0,0,0,0,0,0,0,0,0,0,0,0,0],"id":31,"left_children":[1,3,5,7,9,11,13,15,17,19,21,23,25,27,29,-1,-1,-1,-1,-1,-1,-1,-1,-1,-1,-1,-1,-1,-1,-1,-1],"loss_changes":[6.6987175E1,5.487951E1,2.5219051E1,4.9557854E1,1.881734E1,1.769733E1,2.2889086E1,4.7099438E1,3.3896057E1,6.8926163E0,1.7727386E1,9.567062E0,1.4401178E1,1.8157969E1,2.2852932E1,0E0,0E0,0E0,0E0,0E0,0E0,0E0,0E0,0E0,0E0,0E0,0E0,0E0,0E0,0E0,0E0],"parents":[2147483647,0,0,1,1,2,2,3,3,4,4,5,5,6,6,7,7,8,8,9,9,10,10,11,11,12,12,13,13,14,14],"right_children":[2,4,6,8,10,12,14,16,18,20,22,24,26,28,30,-1,-1,-1,-1,-1,-1,-1,-1,-1,-1,-1,-1,-1,-1,-1,-1],"split_conditions":[2.626659E-1,1.5273355E-2,-9.747489E-1,7.7381396E-1,-1.7293227E-1,4.6477E-1,-8.5886914E-1,-1.2541148E-1,-1.1452532E-1,-6.8133277E-1,-3.6561078E-1,7.999101E-1,2.6816055E-1,-1.5108802E0,5.62726E-1,-8.950224E-5,1.673986E-2,3.629677E-3,-2.400966E-2,-1.7873648E-3,-4.8915163E-2,-4.050631E-2,2.2888484E-3,-6.0543936E-2,-2.181694E-3,3.58326E-2,-3.276875E-2,-5.556032E-2,2.7746132E-2,-7.2240606E-3,-3.3811867E-2],"split_indices":[1658,1695,2241,397,591,2251,495,2091,1603,1247,582,469,495,68,38,0,0,0,0,0,0,0,0,0,0,0,0,0,0,0,0],"split_type":[0,0,0,0,0,0,0,0,0,0,0,0,0,0,0,0,0,0,0,0,0,0,0,0,0,0,0,0,0,0,0],"sum_hessian":[2.8491577E3,2.3220762E3,5.270815E2,2.1361487E3,1.8592763E2,9.750989E1,4.2957162E2,1.6920709E3,4.440778E2,7.0011284E1,1.15916336E2,6.660839E1,3.0901495E1,5.8457844E1,3.7111377E2,7.3358636E2,9.584845E2,2.3667523E2,2.0740256E2,8.955519E0,6.1055767E1,3.3138912E1,8.277743E1,5.8561443E1,8.046951E0,1.1146713E1,1.9754782E1,6.520969E0,5.1936874E1,2.5277025E2,1.1834352E2],"tree_param":{"num_deleted":"0","num_feature":"3841","num_nodes":"31","size_leaf_vector":"1"}},{"base_weights":[-2.0778305E-3,1.2407166E-1,-1.6981013E-1,5.097365E-1,5.0200652E-2,-4.66048E-3,-3.8401324E-1,7.2504526E-1,1.0686139E-2,8.889638E-2,-7.388711E-1,-2.3393793E-1,2.811566E-1,-5.2387077E-1,-1.8287656E-3,4.3358844E-2,1.1124884E-3,-1.8606713E-2,2.6863689E-2,-7.525561E-3,1.1138603E-2,-5.9261764E-3,-4.817728E-2,-2.0599929E-3,-3.362384E-2,2.4343196E-2,-1.0261055E-2,-1.6874166E-2,-4.1464686E-2,-1.5355374E-2,2.4212005E-2],"categories":[],"categories_nodes":[],"categories_segments":[],"categories_sizes":[],"default_left":[0,0,0,0,0,0,0,0,0,0,0,0,0,0,0,0,0,0,0,0,0,0,0,0,0,0,0,0,0,0,0],"id":32,"left_children":[1,3,5,7,9,11,13,15,17,19,21,23,25,27,29,-1,-1,-1,-1,-1,-1,-1,-1,-1,-1,-1,-1,-1,-1,-1,-1],"loss_changes":[5.971642E1,4.5864838E1,4.2853645E1,2.7803192E1,4.1376568E1,4.4958576E1,2.818843E1,1.804084E1,1.6130617E1,4.1398552E1,8.715889E0,3.214794E1,3.0654146E1,2.1699165E1,2.1262938E1,0E0,0E0,0E0,0E0,0E0,0E0,0E0,0E0,0E0,0E0,0E0,0E0,0E0,0E0,0E0,0E0],"parents":[2147483647,0,0,1,1,2,2,3,3,4,4,5,5,6,6,7,7,8,8,9,9,10,10,11,11,12,12,13,13,14,14],"right_children":[2,4,6,8,10,12,14,16,18,20,22,24,26,28,30,-1,-1,-1,-1,-1,-1,-1,-1,-1,-1,-1,-1,-1,-1,-1,-1],"split_conditions":[-1.7822038E-1,-8.0937374E-1,-1.6431344E-1,-2.8016198E-1,1.782898E0,4.3576714E-3,5.182645E-1,9.9796796E-1,-2.377527E-1,-2.3134993E-1,1.7883834E-1,1.7501451E-1,6.227041E-1,1.3641116E-1,3.2280776E-1,4.3358844E-2,1.1124884E-3,-1.8606713E-2,2.6863689E-2,-7.525561E-3,1.1138603E-2,-5.9261764E-3,-4.817728E-2,-2.0599929E-3,-3.362384E-2,2.4343196E-2,-1.0261055E-2,-1.6874166E-2,-4.1464686E-2,-1.5355374E-2,2.4212005E-2],"split_indices":[1630,2275,1613,1634,494,1427,1931,2112,217,2142,1601,1929,514,2089,2332,0,0,0,0,0,0,0,0,0,0,0,0,0,0,0,0],"split_type":[0,0,0,0,0,0,0,0,0,0,0,0,0,0,0,0,0,0,0,0,0,0,0,0,0,0,0,0,0,0,0],"sum_hessian":[2.8202288E3,1.6097871E3,1.2104417E3,2.5782697E2,1.3519602E3,6.840578E2,5.263838E2,1.7980121E2,7.802574E1,1.2896058E3,6.235435E1,3.796726E2,3.043852E2,3.8509167E2,1.4129211E2,1.4936093E2,3.0440283E1,4.535021E1,3.2675533E1,4.624644E2,8.271415E2,1.6984915E1,4.536944E1,2.6451297E2,1.1515964E2,2.1391258E2,9.0472626E1,2.40456E2,1.446357E2,8.70119E1,5.4280212E1],"tree_param":{"num_deleted":"0","num_feature":"3841","num_nodes":"31","size_leaf_vector":"1"}},{"base_weights":[2.4101513E-3,4.3031782E-2,-4.9348712E-1,1.23132296E-1,-1.8488233E-1,-8.22782E-1,-2.7631935E-1,1.8283401E-1,-3.575683E-1,-2.9226652E-1,3.1328258E-1,-9.831475E-1,-1.8985444E-1,9.4522816E-1,-3.8106596E-1,5.7635857E-3,2.9707555E-2,3.0485297E-2,-2.3060802E-2,-2.0800972E-2,3.9879857E-3,-2.531441E-3,4.8176575E-2,-5.5470552E-2,-1.2663215E-2,-5.014048E-2,2.8100464E-2,7.581541E-2,-1.8336637E-2,-2.7715487E-2,1.5877659E-2],"categories":[],"categories_nodes":[],"categories_segments":[],"categories_sizes":[],"default_left":[0,0,0,0,0,0,0,0,0,0,0,0,0,0,0,0,0,0,0,0,0,0,0,0,0,0,0,0,0,0,0],"id":33,"left_children":[1,3,5,7,9,11,13,15,17,19,21,23,25,27,29,-1,-1,-1,-1,-1,-1,-1,-1,-1,-1,-1,-1,-1,-1,-1,-1],"loss_changes":[5.702952E1,4.7792706E1,1.5101311E1,5.564865E1,3.651498E1,8.408184E0,1.708002E1,4.7826283E1,2.1766825E1,2.5845142E1,2.8734522E1,5.923195E0,1.1784097E1,8.503483E0,1.4828602E1,0E0,0E0,0E0,0E0,0E0,0E0,0E0,0E0,0E0,0E0,0E0,0E0,0E0,0E0,0E0,0E0],"parents":[2147483647,0,0,1,1,2,2,3,3,4,4,5,5,6,6,7,7,8,8,9,9,10,10,11,11,12,12,13,13,14,14],"right_children":[2,4,6,8,10,12,14,16,18,20,22,24,26,28,30,-1,-1,-1,-1,-1,-1,-1,-1,-1,-1,-1,-1,-1,-1,-1,-1],"split_conditions":[1.6427337E-1,2.9165067E-2,-3.6089027E-1,9.389403E-1,7.116257E-1,6.240705E-1,-2.9011685E-1,8.5667056E-1,-9.862236E-1,7.8631353E-1,9.5010287E-1,4.9195695E-1,-3.8224193E-1,-8.286304E-2,1.1383749E0,5.7635857E-3,2.9707555E-2,3.0485297E-2,-2.3060802E-2,-2.0800972E-2,3.9879857E-3,-2.531441E-3,4.8176575E-2,-5.5470552E-2,-1.2663215E-2,-5.014048E-2,2.8100464E-2,7.581541E-2,-1.8336637E-2,-2.7715487E-2,1.5877659E-2],"split_indices":[1734,1607,2316,2227,325,35,1733,340,617,48,2245,415,147,1679,3685,0,0,0,0,0,0,0,0,0,0,0,0,0,0,0,0],"split_type":[0,0,0,0,0,0,0,0,0,0,0,0,0,0,0,0,0,0,0,0,0,0,0,0,0,0,0,0,0,0,0],"sum_hessian":[2.8290156E3,2.6156655E3,2.1335011E2,1.9357909E3,6.798748E2,8.367847E1,1.2967165E2,1.7224828E3,2.1330803E2,5.596502E2,1.20224594E2,6.632125E1,1.7357216E1,9.607361E0,1.20064285E2,1.4805674E3,2.4191542E2,2.0172184E1,1.9313585E2,4.1986548E2,1.3978471E2,7.767562E1,4.2548973E1,5.6096973E1,1.022428E1,8.179422E0,9.177793E0,6.5851645E0,3.0221963E0,9.63724E1,2.3691887E1],"tree_param":{"num_deleted":"0","num_feature":"3841","num_nodes":"31","size_leaf_vector":"1"}},{"base_weights":[-8.532367E-4,-3.57455E-1,5.5381723E-2,8.4898256E-2,-5.314891E-1,1.89438E-2,6.593313E-1,3.2996407E-1,-6.4930904E-1,-1.1406522E0,-4.082607E-1,-9.224332E-2,2.0384686E-1,8.806802E-1,-3.9543787E-1,3.1916406E-2,-1.1298924E-2,1.0859785E-2,-5.5839818E-2,7.2059496E-3,-6.1905887E-2,-4.7402296E-2,-1.273305E-2,-1.5699161E-2,1.3337365E-3,1.7239705E-2,-9.349675E-3,-2.2216594E-2,4.8800003E-2,3.378899E-2,-4.0029075E-2],"categories":[],"categories_nodes":[],"categories_segments":[],"categories_sizes":[],"default_left":[0,0,0,0,0,0,0,0,0,0,0,0,0,0,0,0,0,0,0,0,0,0,0,0,0,0,0,0,0,0,0],"id":34,"left_children":[1,3,5,7,9,11,13,15,17,19,21,23,25,27,29,-1,-1,-1,-1,-1,-1,-1,-1,-1,-1,-1,-1,-1,-1,-1,-1],"loss_changes":[5.653483E1,2.9608738E1,5.3578033E1,1.987844E1,2.0232422E1,4.7256065E1,3.269172E1,1.4304905E1,1.1457895E1,5.918026E0,1.890234E1,3.7861897E1,4.761218E1,1.4934563E1,1.1269104E1,0E0,0E0,0E0,0E0,0E0,0E0,0E0,0E0,0E0,0E0,0E0,0E0,0E0,0E0,0E0,0E0],"parents":[2147483647,0,0,1,1,2,2,3,3,4,4,5,5,6,6,7,7,8,8,9,9,10,10,11,11,12,12,13,13,14,14],"right_children":[2,4,6,8,10,12,14,16,18,20,22,24,26,28,30,-1,-1,-1,-1,-1,-1,-1,-1,-1,-1,-1,-1,-1,-1,-1,-1],"split_conditions":[-1.1069709E0,-4.606534E-1,1.4532107E0,4.4353658E-1,-7.466677E-1,2.9614294E-1,1.188731E0,1.4314064E-1,2.0252322E-3,-6.202833E-1,-8.52313E-1,-4.202494E-1,1.3096076E-1,-1.3580431E0,-5.453392E-1,3.1916406E-2,-1.1298924E-2,1.0859785E-2,-5.5839818E-2,7.2059496E-3,-6.1905887E-2,-4.7402296E-2,-1.273305E-2,-1.5699161E-2,1.3337365E-3,1.7239705E-2,-9.349675E-3,-2.2216594E-2,4.8800003E-2,3.378899E-2,-4.0029075E-2],"split_indices":[2102,495,1926,2170,2274,355,2183,1971,86,1648,120,810,1602,94,2234,0,0,0,0,0,0,0,0,0,0,0,0,0,0,0,0],"split_type":[0,0,0,0,0,0,0,0,0,0,0,0,0,0,0,0,0,0,0,0,0,0,0,0,0,0,0,0,0,0,0],"sum_hessian":[2.8172148E3,3.8302005E2,2.4341946E3,1.0828854E2,2.747315E2,2.296662E3,1.3753252E2,8.160184E1,2.668671E1,4.483572E1,2.2989578E2,1.4345377E3,8.6212445E2,1.13813255E2,2.3719265E1,5.239292E1,2.9208918E1,9.539779E0,1.714693E1,3.1277442E0,4.1707977E1,4.978112E1,1.8011467E2,5.002007E2,9.34337E2,6.337099E2,2.2841454E2,7.392388E0,1.0642087E2,6.3257375E0,1.7393528E1],"tree_param":{"num_deleted":"0","num_feature":"3841","num_nodes":"31","size_leaf_vector":"1"}},{"base_weights":[-1.5046608E-2,5.7518337E-2,-2.7490008E-1,-4.072647E-1,1.0982626E-1,-1.6485867E-1,-6.3888615E-1,-6.6379267E-1,1.8359771E-2,-3.355E-2,2.9419217E-1,-3.1132966E-1,1.930536E-1,-9.177525E-1,-2.4825712E-1,-3.9138924E-2,6.429446E-3,2.6862128E-2,-1.6436553E-2,-1.2214302E-2,6.733951E-3,2.3916803E-2,4.6722027E-3,-1.7696802E-2,5.0489128E-2,3.3352666E-2,-7.7275606E-3,3.8825676E-2,-5.0430488E-2,-3.7137043E-2,7.818247E-3],"categories":[],"categories_nodes":[],"categories_segments":[],"categories_sizes":[],"default_left":[0,0,0,0,0,0,0,0,0,0,0,0,0,0,0,0,0,0,0,0,0,0,0,0,0,0,0,0,0,0,0],"id":35,"left_children":[1,3,5,7,9,11,13,15,17,19,21,23,25,27,29,-1,-1,-1,-1,-1,-1,-1,-1,-1,-1,-1,-1,-1,-1,-1,-1],"loss_changes":[5.3614384E1,5.408538E1,2.47547E1,2.458612E1,5.2844078E1,2.5115227E1,1.5429737E1,1.3343208E1,1.5595161E1,3.992546E1,3.2282043E1,1.9468605E1,2.3072529E1,1.3635986E1,1.2369226E1,0E0,0E0,0E0,0E0,0E0,0E0,0E0,0E0,0E0,0E0,0E0,0E0,0E0,0E0,0E0,0E0],"parents":[2147483647,0,0,1,1,2,2,3,3,4,4,5,5,6,6,7,7,8,8,9,9,10,10,11,11,12,12,13,13,14,14],"right_children":[2,4,6,8,10,12,14,16,18,20,22,24,26,28,30,-1,-1,-1,-1,-1,-1,-1,-1,-1,-1,-1,-1,-1,-1,-1,-1],"split_conditions":[1.6175846E-2,-1.3291594E0,5.5449724E-1,1.8676245E-1,1.7180504E-1,4.0504217E-1,1.22415155E-1,8.798904E-1,5.1341865E-2,-3.3752808E-1,8.3780615E-3,2.5007353E0,-8.472733E-2,-6.8350846E-1,-4.7140867E-1,-3.9138924E-2,6.429446E-3,2.6862128E-2,-1.6436553E-2,-1.2214302E-2,6.733951E-3,2.3916803E-2,4.6722027E-3,-1.7696802E-2,5.0489128E-2,3.3352666E-2,-7.7275606E-3,3.8825676E-2,-5.0430488E-2,-3.7137043E-2,7.818247E-3],"split_indices":[1752,480,1669,885,355,910,485,2805,31,623,1978,484,1719,2485,2000,0,0,0,0,0,0,0,0,0,0,0,0,0,0,0,0],"split_type":[0,0,0,0,0,0,0,0,0,0,0,0,0,0,0,0,0,0,0,0,0,0,0,0,0,0,0,0,0,0,0],"sum_hessian":[2.8414824E3,2.2218127E3,6.1966986E2,2.2406783E2,1.9977448E3,4.7693445E2,1.4273541E2,1.3945648E2,8.4611336E1,1.1242583E3,8.734865E2,3.3852686E2,1.3840761E2,8.249418E1,6.0241234E1,1.21259926E2,1.8196556E1,3.369348E1,5.091785E1,4.9887665E2,6.2538165E2,4.5486313E2,4.1862338E2,3.2865955E2,9.867294E0,5.8168747E1,8.023887E1,3.8146026E0,7.867957E1,2.6734133E1,3.3507103E1],"tree_param":{"num_deleted":"0","num_feature":"3841","num_nodes":"31","size_leaf_vector":"1"}},{"base_weights":[-3.8801823E-3,5.782508E-2,-3.1969088E-1,1.0807282E-1,-3.459489E-1,-1.3011985E-1,-5.797581E-1,-2.7109167E-1,1.635184E-1,-5.4315317E-1,5.836838E-2,-4.8370466E-2,-1.0259858E0,-7.595349E-1,-1.987285E-1,-2.373169E-2,2.9842532E-3,1.1760811E-2,-7.3909857E-3,2.5389839E-2,-3.2305565E-2,2.0783933E-2,-2.7205536E-2,-1.3435713E-2,1.5841449E-2,-6.0889132E-2,4.8445264E-4,9.59301E-3,-4.361714E-2,-3.522184E-2,7.775207E-3],"categories":[],"categories_nodes":[],"categories_segments":[],"categories_sizes":[],"default_left":[0,0,0,0,0,0,0,0,0,0,0,0,0,0,0,0,0,0,0,0,0,0,0,0,0,0,0,0,0,0,0],"id":36,"left_children":[1,3,5,7,9,11,13,15,17,19,21,23,25,27,29,-1,-1,-1,-1,-1,-1,-1,-1,-1,-1,-1,-1,-1,-1,-1,-1],"loss_changes":[5.4961525E1,4.7907658E1,2.2652111E1,4.4173416E1,2.0871105E1,1.9572216E1,1.3142845E1,1.808329E1,4.092735E1,1.9347637E1,1.8866432E1,1.992646E1,4.4523125E0,1.4280846E1,1.1496795E1,0E0,0E0,0E0,0E0,0E0,0E0,0E0,0E0,0E0,0E0,0E0,0E0,0E0,0E0,0E0,0E0],"parents":[2147483647,0,0,1,1,2,2,3,3,4,4,5,5,6,6,7,7,8,8,9,9,10,10,11,11,12,12,13,13,14,14],"right_children":[2,4,6,8,10,12,14,16,18,20,22,24,26,28,30,-1,-1,-1,-1,-1,-1,-1,-1,-1,-1,-1,-1,-1,-1,-1,-1],"split_conditions":[7.855665E-2,7.486216E-1,9.1896E-3,-9.670856E-1,2.9250535E-1,9.364559E-1,1.8289813E-1,1.8855311E-1,8.5923034E-1,-9.957531E-1,5.5329305E-1,3.9780354E-1,1.5096714E0,-7.348164E-1,-4.985873E-1,-2.373169E-2,2.9842532E-3,1.1760811E-2,-7.3909857E-3,2.5389839E-2,-3.2305565E-2,2.0783933E-2,-2.7205536E-2,-1.3435713E-2,1.5841449E-2,-6.0889132E-2,4.8445264E-4,9.59301E-3,-4.361714E-2,-3.522184E-2,7.775207E-3],"split_indices":[1752,2342,1625,368,2328,1687,1926,1427,400,413,511,2031,3152,580,661,0,0,0,0,0,0,0,0,0,0,0,0,0,0,0,0],"split_type":[0,0,0,0,0,0,0,0,0,0,0,0,0,0,0,0,0,0,0,0,0,0,0,0,0,0,0,0,0,0,0],"sum_hessian":[2.818445E3,2.3584514E3,4.5999356E2,2.098087E3,2.6036453E2,2.6692444E2,1.9306914E2,2.6716818E2,1.8309188E3,1.7477519E2,8.558933E1,2.4556973E2,2.1354687E1,1.3050235E2,6.256679E1,1.6512456E2,1.02043625E2,1.4884006E3,3.425182E2,1.5243573E1,1.5953162E2,5.3920773E1,3.166856E1,1.53325E2,9.2244736E1,1.7869581E1,3.485105E0,1.3759259E1,1.16743095E2,2.536569E1,3.7201103E1],"tree_param":{"num_deleted":"0","num_feature":"3841","num_nodes":"31","size_leaf_vector":"1"}}]},"name":"gbtree"},"learner_model_param":{"base_score":"5E-1","boost_from_average":"1","num_class":"0","num_feature":"3841","num_target":"1"},"objective":{"name":"binary:logistic","reg_loss_param":{"scale_pos_weight":"0.446153849"}}},"version":[2,1,4]}