{"learner":{"attributes":{},"feature_names":[],"feature_types":[],"gradient_booster":{"model":{"gbtree_model_param":{"num_parallel_tree":"1","num_trees":"39"},"iteration_indptr":[0,1,2,3,4,5,6,7,8,9,10,11,12,13,14,15,16,17,18,19,20,21,22,23,24,25,26,27,28,29,30,31,32,33,34,35,36,37,38,39],"tree_info":[0,0,0,0,0,0,0,0,0,0,0,0,0,0,0,0,0,0,0,0,0,0,0,0,0,0,0,0,0,0,0,0,0,0,0,0,0,0,0],"trees":[{"base_weights":[4.5688264E-3,2.0802994E-1,-5.3303707E-1,-5.930181E-2,4.1152352E-1,-2.1228953E-1,-9.1912925E-1,2.312411E-1,-4.4002363E-1,8.529154E-1,1.4903076E-1,-4.0968087E-1,5.001383E-1,-4.818427E-1,-1.1508359E0,1.7708734E-2,-3.6886036E-2,1.257582E-3,-3.3985797E-2,4.7568873E-2,-3.213856E-2,-1.0979774E-2,2.071398E-2,-2.6134992E-2,2.1097926E-2,-9.150276E-3,5.9074458E-2,-3.8554218E-2,9.995124E-3,-6.2340785E-2,-1.5452931E-2],"categories":[],"categories_nodes":[],"categories_segments":[],"categories_sizes":[],"default_left":[0,0,0,0,0,0,0,0,0,0,0,0,0,0,0,0,0,0,0,0,0,0,0,0,0,0,0,0,0,0,0],"id":0,"left_children":[1,3,5,7,9,11,13,15,17,19,21,23,25,27,29,-1,-1,-1,-1,-1,-1,-1,-1,-1,-1,-1,-1,-1,-1,-1,-1],"loss_changes":[3.2478705E2,1.1720558E2,1.0076103E2,1.0318142E2,1.4159369E2,6.3008415E1,3.6897278E1,6.329666E1,4.5027496E1,6.7756836E1,7.520828E1,3.314127E1,4.5525227E1,2.5737907E1,1.9076935E1,0E0,0E0,0E0,0E0,0E0,0E0,0E0,0E0,0E0,0E0,0E0,0E0,0E0,0E0,0E0,0E0],"parents":[2147483647,0,0,1,1,2,2,3,3,4,4,5,5,6,6,7,7,8,8,9,9,10,10,11,11,12,12,13,13,14,14],"right_children":[2,4,6,8,10,12,14,16,18,20,22,24,26,28,30,-1,-1,-1,-1,-1,-1,-1,-1,-1,-1,-1,-1,-1,-1,-1,-1],"split_conditions":[-3.538873E-2,-7.962068E-2,-1.514549E-2,-1.502841E-2,-5.3988658E-2,9.5207596E-1,-3.5376545E-2,9.982744E-1,-3.2408E-1,7.3913865E-2,2.6099774E-1,1.0857892E0,-2.2513491E-1,5.785681E-1,1.8391563E0,1.7708734E-2,-3.6886036E-2,1.257582E-3,-3.3985797E-2,4.7568873E-2,-3.213856E-2,-1.0979774E-2,2.071398E-2,-2.6134992E-2,2.1097926E-2,-9.150276E-3,5.9074458E-2,-3.8554218E-2,9.995124E-3,-6.2340785E-2,-1.5452931E-2],"split_indices":[2355,458,2391,3237,674,453,2389,1121,2253,2337,2916,10,2693,2836,900,0,0,0,0,0,0,0,0,0,0,0,0,0,0,0,0],"split_type":[0,0,0,0,0,0,0,0,0,0,0,0,0,0,0,0,0,0,0,0,0,0,0,0,0,0,0,0,0,0,0],"sum_hessian":[2.9672808E3,2.153054E3,8.142269E2,9.3086926E2,1.2221846E3,4.4559616E2,3.6863077E2,5.2818463E2,4.0268463E2,4.5493848E2,7.6724615E2,3.4925385E2,9.634231E1,1.2874231E2,2.3988846E2,4.6928076E2,5.8903847E1,1.3723846E2,2.6544617E2,4.271808E2,2.7757692E1,3.2113077E2,4.461154E2,3.0779614E2,4.145769E1,4.8473076E1,4.7869232E1,9.03E1,3.8442307E1,2.1490384E2,2.4984615E1],"tree_param":{"num_deleted":"0","num_feature":"5377","num_nodes":"31","size_leaf_vector":"1"}},{"base_weights":[1.0625161E-3,1.9987138E-1,-4.9225098E-1,-7.058378E-2,4.0489146E-1,-3.030565E-1,-1.0857487E0,2.0474912E-1,-4.5736837E-1,8.584247E-1,1.7410934E-1,-4.565673E-1,3.713596E-1,-1.5349251E0,-8.368834E-1,2.2693317E-2,-1.5036756E-2,-6.365333E-2,-1.6923983E-2,4.8902806E-2,-1.5888283E-2,-1.0535221E-2,2.1167973E-2,-1.0014146E-2,-3.6796726E-2,-1.2878609E-2,4.961619E-2,-6.4796447E-3,-7.989217E-2,5.806874E-3,-5.391547E-2],"categories":[],"categories_nodes":[],"categories_segments":[],"categories_sizes":[],"default_left":[0,0,0,0,0,0,0,0,0,0,0,0,0,0,0,0,0,0,0,0,0,0,0,0,0,0,0,0,0,0,0],"id":1,"left_children":[1,3,5,7,9,11,13,15,17,19,21,23,25,27,29,-1,-1,-1,-1,-1,-1,-1,-1,-1,-1,-1,-1,-1,-1,-1,-1],"loss_changes":[2.928843E2,1.18052025E2,9.599124E1,9.7924355E1,1.26589066E2,6.765506E1,2.1850876E1,6.779961E1,3.6645058E1,5.7735046E1,7.7182106E1,3.7901657E1,4.7673004E1,6.2112427E0,3.1273247E1,0E0,0E0,0E0,0E0,0E0,0E0,0E0,0E0,0E0,0E0,0E0,0E0,0E0,0E0,0E0,0E0],"parents":[2147483647,0,0,1,1,2,2,3,3,4,4,5,5,6,6,7,7,8,8,9,9,10,10,11,11,12,12,13,13,14,14],"right_children":[2,4,6,8,10,12,14,16,18,20,22,24,26,28,30,-1,-1,-1,-1,-1,-1,-1,-1,-1,-1,-1,-1,-1,-1,-1,-1],"split_conditions":[-4.0908027E-2,-7.962068E-2,2.341059E-1,1.0846901E-3,-2.186349E-1,1.0098798E0,-8.8348967E-1,-8.714243E-2,-8.1848425E-1,8.8323194E-1,1.9331348E-1,-2.749997E-2,-2.1286243E-1,-3.730506E-1,-4.302293E-1,2.2693317E-2,-1.5036756E-2,-6.365333E-2,-1.6923983E-2,4.8902806E-2,-1.5888283E-2,-1.0535221E-2,2.1167973E-2,-1.0014146E-2,-3.6796726E-2,-1.2878609E-2,4.961619E-2,-6.4796447E-3,-7.989217E-2,5.806874E-3,-5.391547E-2],"split_indices":[2355,458,2379,3237,1122,2918,2757,2263,2730,2308,2916,2339,4,2679,687,0,0,0,0,0,0,0,0,0,0,0,0,0,0,0,0],"split_type":[0,0,0,0,0,0,0,0,0,0,0,0,0,0,0,0,0,0,0,0,0,0,0,0,0,0,0,0,0,0,0],"sum_hessian":[2.9843235E3,2.1275146E3,8.568088E2,9.1764545E2,1.2098693E3,6.508441E2,2.0596466E2,5.363295E2,3.8131595E2,4.0710553E2,8.0276373E2,5.304304E2,1.204137E2,7.158796E1,1.3437671E2,3.5933902E2,1.7699051E2,4.7272205E1,3.3404373E2,3.6967407E2,3.743144E1,3.1562674E2,4.87137E2,2.7753958E2,2.5289087E2,6.0113796E1,6.0299904E1,3.1988454E0,6.8389114E1,2.7265612E1,1.0711109E2],"tree_param":{"num_deleted":"0","num_feature":"5377","num_nodes":"31","size_leaf_vector":"1"}},{"base_weights":[1.4081802E-3,1.3766912E-1,-6.554443E-1,-6.971588E-2,3.7136516E-1,-2.9162097E-1,-1.0335437E0,1.5208815E-1,-4.4860396E-1,2.0017637E-1,1.0065717E0,-5.711842E-1,4.249588E-1,-7.093798E-1,-1.2528812E0,-5.8073425E-3,1.9523023E-2,-8.134686E-3,-4.6548333E-2,2.08165E-2,-1.5519375E-2,5.4987323E-2,-4.289181E-2,5.725886E-3,-4.0560607E-2,3.771614E-2,-1.9467855E-2,-5.4601084E-2,-1.3755347E-2,-4.0603336E-2,-7.076033E-2],"categories":[],"categories_nodes":[],"categories_segments":[],"categories_sizes":[],"default_left":[0,0,0,0,0,0,0,0,0,0,0,0,0,0,0,0,0,0,0,0,0,0,0,0,0,0,0,0,0,0,0],"id":2,"left_children":[1,3,5,7,9,11,13,15,17,19,21,23,25,27,29,-1,-1,-1,-1,-1,-1,-1,-1,-1,-1,-1,-1,-1,-1,-1,-1],"loss_changes":[2.662545E2,1.1942949E2,7.000433E1,1.0983782E2,1.2577722E2,5.269962E1,1.6903076E1,5.2771423E1,6.639894E1,1.00980194E2,4.362448E1,3.116571E1,2.0157434E1,1.6863384E1,9.436859E0,0E0,0E0,0E0,0E0,0E0,0E0,0E0,0E0,0E0,0E0,0E0,0E0,0E0,0E0,0E0,0E0],"parents":[2147483647,0,0,1,1,2,2,3,3,4,4,5,5,6,6,7,7,8,8,9,9,10,10,11,11,12,12,13,13,14,14],"right_children":[2,4,6,8,10,12,14,16,18,20,22,24,26,28,30,-1,-1,-1,-1,-1,-1,-1,-1,-1,-1,-1,-1,-1,-1,-1,-1],"split_conditions":[2.0408186E-1,2.6616124E-2,-2.8795568E-2,-1.7474154E-1,4.6160704E-1,8.131709E-1,-4.4235095E-1,1.2883297E-1,1.3991575E-1,4.6847034E-1,1.5033052E0,-1.1692261E-1,5.146243E-1,-4.2349836E-1,-6.342252E-2,-5.8073425E-3,1.9523023E-2,-8.134686E-3,-4.6548333E-2,2.08165E-2,-1.5519375E-2,5.4987323E-2,-4.289181E-2,5.725886E-3,-4.0560607E-2,3.771614E-2,-1.9467855E-2,-5.4601084E-2,-1.3755347E-2,-4.0603336E-2,-7.076033E-2],"split_indices":[2397,5,2260,2310,452,4,175,2916,3238,77,3075,2377,2955,134,2445,0,0,0,0,0,0,0,0,0,0,0,0,0,0,0,0],"split_type":[0,0,0,0,0,0,0,0,0,0,0,0,0,0,0,0,0,0,0,0,0,0,0,0,0,0,0,0,0,0,0],"sum_hessian":[2.972791E3,2.462705E3,5.100861E2,1.305176E3,1.157529E3,2.6085324E2,2.4923285E2,8.236206E2,4.8155536E2,9.128344E2,2.4469463E2,1.8779185E2,7.3061386E1,1.02290115E2,1.4694273E2,3.8777682E2,4.3584378E2,3.0318576E2,1.783696E2,6.4145215E2,2.7138223E2,2.3343854E2,1.1256085E1,4.8827194E1,1.3896465E2,5.207317E1,2.098821E1,5.357239E1,4.8717728E1,4.1162827E1,1.0577991E2],"tree_param":{"num_deleted":"0","num_feature":"5377","num_nodes":"31","size_leaf_vector":"1"}},{"base_weights":[-1.9805888E-3,1.8754712E-1,-4.4857863E-1,3.8284275E-1,-8.84161E-2,-1.9781527E-1,-8.872468E-1,4.8688847E-1,-2.2016767E-1,-3.1859308E-1,2.9204836E-1,-3.2891843E-3,-8.138577E-1,-1.2131678E0,-6.6329974E-1,3.313236E-2,7.5306105E-3,-3.2206163E-2,1.5563019E-2,-4.3656066E-2,-8.800461E-3,3.540286E-2,-8.532948E-3,1.11501105E-2,-2.8833393E-2,-4.686142E-2,2.2038734E-2,4.101753E-3,-6.381438E-2,-3.3278062E-3,-4.5169752E-2],"categories":[],"categories_nodes":[],"categories_segments":[],"categories_sizes":[],"default_left":[0,0,0,0,0,0,0,0,0,0,0,0,0,0,0,0,0,0,0,0,0,0,0,0,0,0,0,0,0,0,0],"id":3,"left_children":[1,3,5,7,9,11,13,15,17,19,21,23,25,27,29,-1,-1,-1,-1,-1,-1,-1,-1,-1,-1,-1,-1,-1,-1,-1,-1],"loss_changes":[2.5185732E2,1.12619774E2,9.7344635E1,7.6869446E1,7.597819E1,6.7748566E1,2.270993E1,6.1589813E1,4.091899E1,4.257183E1,6.309442E1,5.6010723E1,2.1413734E1,1.0732895E1,2.7615326E1,0E0,0E0,0E0,0E0,0E0,0E0,0E0,0E0,0E0,0E0,0E0,0E0,0E0,0E0,0E0,0E0],"parents":[2147483647,0,0,1,1,2,2,3,3,4,4,5,5,6,6,7,7,8,8,9,9,10,10,11,11,12,12,13,13,14,14],"right_children":[2,4,6,8,10,12,14,16,18,20,22,24,26,28,30,-1,-1,-1,-1,-1,-1,-1,-1,-1,-1,-1,-1,-1,-1,-1,-1],"split_conditions":[-4.6076603E-2,-2.7479744E-1,-9.082569E-3,7.904867E-1,1.9069843E-1,2.996464E-1,-3.8128483E-1,6.6002136E-1,-7.6078005E-2,-5.9400064E-1,-2.974639E-1,-1.4718177E-2,1.1302541E0,-1.7439866E0,-6.4585024E-1,3.313236E-2,7.5306105E-3,-3.2206163E-2,1.5563019E-2,-4.3656066E-2,-8.800461E-3,3.540286E-2,-8.532948E-3,1.11501105E-2,-2.8833393E-2,-4.686142E-2,2.2038734E-2,4.101753E-3,-6.381438E-2,-3.3278062E-3,-4.5169752E-2],"split_indices":[2355,2247,2260,3059,2694,2255,2757,3139,2753,3301,450,2262,1124,2719,2928,0,0,0,0,0,0,0,0,0,0,0,0,0,0,0,0],"split_type":[0,0,0,0,0,0,0,0,0,0,0,0,0,0,0,0,0,0,0,0,0,0,0,0,0,0,0,0,0,0,0],"sum_hessian":[2.9735408E3,2.0880093E3,8.8553143E2,1.2224851E3,8.655243E2,5.6436487E2,3.2116656E2,1.0427565E3,1.7972862E2,5.393723E2,3.2615195E2,4.2968857E2,1.3467628E2,1.2900383E2,1.9216272E2,6.841874E2,3.585691E2,9.985531E1,7.987331E1,1.092726E2,4.3009973E2,1.7146327E2,1.5468869E2,3.0853305E2,1.2115553E2,1.2284924E2,1.1827044E1,5.980749E0,1.2302309E2,5.549936E1,1.3666338E2],"tree_param":{"num_deleted":"0","num_feature":"5377","num_nodes":"31","size_leaf_vector":"1"}},{"base_weights":[-5.338337E-3,1.24773584E-1,-6.2890816E-1,1.8270692E-1,-6.0958344E-1,-7.124102E-1,2.0685157E-1,-8.34773E-3,4.1079605E-1,1.4137484E-1,-7.917668E-1,-5.317318E-1,-1.0964159E0,-1.2655036E0,5.716127E-1,1.5889386E-2,-1.08601125E-2,-4.236807E-2,2.5340665E-2,4.5190345E-2,-2.3577906E-2,-4.5431547E-2,2.6203966E-2,-3.312504E-2,8.785228E-3,-5.6833502E-2,2.2499654E-2,-2.3803601E-2,-7.930822E-2,-4.6789028E-2,4.2114608E-2],"categories":[],"categories_nodes":[],"categories_segments":[],"categories_sizes":[],"default_left":[0,0,0,0,0,0,0,0,0,0,0,0,0,0,0,0,0,0,0,0,0,0,0,0,0,0,0,0,0,0,0],"id":4,"left_children":[1,3,5,7,9,11,13,15,17,19,21,23,25,27,29,-1,-1,-1,-1,-1,-1,-1,-1,-1,-1,-1,-1,-1,-1,-1,-1],"loss_changes":[2.4070251E2,1.0453949E2,3.5889847E1,9.9181015E1,2.4699074E1,3.1739288E1,2.6124922E1,8.4495415E1,1.25754654E2,1.7219503E1,2.2739662E1,2.9603798E1,9.73172E0,1.7008677E0,1.653593E1,0E0,0E0,0E0,0E0,0E0,0E0,0E0,0E0,0E0,0E0,0E0,0E0,0E0,0E0,0E0,0E0],"parents":[2147483647,0,0,1,1,2,2,3,3,4,4,5,5,6,6,7,7,8,8,9,9,10,10,11,11,12,12,13,13,14,14],"right_children":[2,4,6,8,10,12,14,16,18,20,22,24,26,28,30,-1,-1,-1,-1,-1,-1,-1,-1,-1,-1,-1,-1,-1,-1,-1,-1],"split_conditions":[3.5733208E-1,1.4246269E-1,2.091387E0,3.5941523E-2,-1.8035099E-1,3.077974E-1,-1.6114796E0,-4.1475666E-1,-1.5411105E0,-6.2789805E-2,1.4287312E0,1.0046165E0,2.0414445E0,8.599295E-2,-8.7429506E-1,1.5889386E-2,-1.08601125E-2,-4.236807E-2,2.5340665E-2,4.5190345E-2,-2.3577906E-2,-4.5431547E-2,2.6203966E-2,-3.312504E-2,8.785228E-3,-5.6833502E-2,2.2499654E-2,-2.3803601E-2,-7.930822E-2,-4.6789028E-2,4.2114608E-2],"split_indices":[342,2375,676,5,2451,2441,2694,2310,2689,1162,458,10,2692,2803,3191,0,0,0,0,0,0,0,0,0,0,0,0,0,0,0,0],"split_type":[0,0,0,0,0,0,0,0,0,0,0,0,0,0,0,0,0,0,0,0,0,0,0,0,0,0,0,0,0,0,0],"sum_hessian":[2.9647656E3,2.453605E3,5.1116077E2,2.2748904E3,1.7871465E2,4.648632E2,4.6297585E1,1.2384711E3,1.0364192E3,3.493537E1,1.4377928E2,3.1774554E2,1.4711765E2,8.7021265E0,3.759546E1,4.8328262E2,7.551885E2,7.293207E1,9.634871E2,1.5357499E1,1.9577871E1,1.3233563E2,1.1443641E1,2.6822745E2,4.9518097E1,1.4364346E2,3.474182E0,3.23141E0,5.470716E0,5.349172E0,3.224629E1],"tree_param":{"num_deleted":"0","num_feature":"5377","num_nodes":"31","size_leaf_vector":"1"}},{"base_weights":[-4.868835E-3,1.2965563E-1,-5.996904E-1,2.7728063E-1,-2.0747194E-1,-3.7338787E-1,-1.2069495E0,9.0399705E-2,6.334262E-1,-5.12848E-1,1.0278205E-1,-1.701149E-1,-9.210928E-1,-1.2547835E0,2.6525838E-2,3.1259816E-2,-4.761785E-3,4.8802447E-2,1.2657558E-2,-8.814214E-3,-4.0286414E-2,-5.471291E-3,4.636383E-2,-1.635107E-2,2.6287822E-2,1.5727887E-2,-5.3398002E-2,4.3281564E-3,-6.476814E-2],"categories":[],"categories_nodes":[],"categories_segments":[],"categories_sizes":[],"default_left":[0,0,0,0,0,0,0,0,0,0,0,0,0,0,0,0,0,0,0,0,0,0,0,0,0,0,0,0,0],"id":5,"left_children":[1,3,5,7,9,11,13,15,17,19,21,23,25,27,-1,-1,-1,-1,-1,-1,-1,-1,-1,-1,-1,-1,-1,-1,-1],"loss_changes":[2.3868257E2,1.2112998E2,7.515646E1,1.1257625E2,7.029821E1,4.4627834E1,1.3042267E1,1.1036255E2,7.561224E1,3.670607E1,6.459456E1,3.233837E1,2.0054276E1,8.01683E0,0E0,0E0,0E0,0E0,0E0,0E0,0E0,0E0,0E0,0E0,0E0,0E0,0E0,0E0,0E0],"parents":[2147483647,0,0,1,1,2,2,3,3,4,4,5,5,6,6,7,7,8,8,9,9,10,10,11,11,12,12,13,13],"right_children":[2,4,6,8,10,12,14,16,18,20,22,24,26,28,-1,-1,-1,-1,-1,-1,-1,-1,-1,-1,-1,-1,-1,-1,-1],"split_conditions":[8.6539224E-2,-8.7977596E-2,8.828845E-1,3.8084438E-1,3.5941523E-2,2.325507E-1,2.4338686E0,-3.3569062E-1,-2.5219283E-1,-1.4545357E-1,8.805568E-1,6.8702716E-1,-1.2544653E0,-3.2448955E0,2.6525838E-2,3.1259816E-2,-4.761785E-3,4.8802447E-2,1.2657558E-2,-8.814214E-3,-4.0286414E-2,-5.471291E-3,4.636383E-2,-1.635107E-2,2.6287822E-2,1.5727887E-2,-5.3398002E-2,4.3281564E-3,-6.476814E-2],"split_indices":[2389,2247,2274,2967,5,2260,900,2691,2243,104,4,468,1135,456,0,0,0,0,0,0,0,0,0,0,0,0,0,0,0],"split_type":[0,0,0,0,0,0,0,0,0,0,0,0,0,0,0,0,0,0,0,0,0,0,0,0,0,0,0,0,0],"sum_hessian":[2.9808875E3,2.4317146E3,5.4917303E2,1.6912914E3,7.4042316E2,4.0125525E2,1.4791777E2,1.1100609E3,5.8123047E2,3.7281583E2,3.676073E2,2.9360025E2,1.0765499E2,1.4422493E2,3.6928384E0,2.8542184E2,8.2463904E2,3.049279E2,2.763026E2,1.7421655E2,1.9859927E2,2.9304965E2,7.455765E1,2.4001193E2,5.3588318E1,1.13150835E1,9.633991E1,4.20179E0,1.4002315E2],"tree_param":{"num_deleted":"0","num_feature":"5377","num_nodes":"29","size_leaf_vector":"1"}},{"base_weights":[-4.1201487E-3,1.1691924E-1,-5.889584E-1,4.1721338E-1,-1.3947236E-2,-3.3103678E-1,-9.807754E-1,5.399471E-1,-5.2099043E-1,7.458153E-1,-1.0287687E-1,-5.634517E-1,2.1472216E-1,-1.5323488E0,-8.066292E-1,3.2786645E-2,-1.4891098E-2,-5.9701778E-2,-8.997329E-3,4.6906397E-2,-2.848486E-2,1.3434757E-3,-2.818931E-2,-3.556567E-2,1.9862114E-2,3.700422E-2,-2.3490854E-2,-2.5690395E-2,-8.094707E-2,-4.5308158E-2,1.6192041E-2],"categories":[],"categories_nodes":[],"categories_segments":[],"categories_sizes":[],"default_left":[0,0,0,0,0,0,0,0,0,0,0,0,0,0,0,0,0,0,0,0,0,0,0,0,0,0,0,0,0,0,0],"id":6,"left_children":[1,3,5,7,9,11,13,15,17,19,21,23,25,27,29,-1,-1,-1,-1,-1,-1,-1,-1,-1,-1,-1,-1,-1,-1,-1,-1],"loss_changes":[2.0979163E2,9.650249E1,5.103154E1,8.61048E1,1.15691895E2,3.918397E1,1.8092102E1,6.4177E1,1.9693218E1,4.5926857E1,9.167476E1,3.1002472E1,3.3686554E1,3.3288422E0,1.7739311E1,0E0,0E0,0E0,0E0,0E0,0E0,0E0,0E0,0E0,0E0,0E0,0E0,0E0,0E0,0E0,0E0],"parents":[2147483647,0,0,1,1,2,2,3,3,4,4,5,5,6,6,7,7,8,8,9,9,10,10,11,11,12,12,13,13,14,14],"right_children":[2,4,6,8,10,12,14,16,18,20,22,24,26,28,30,-1,-1,-1,-1,-1,-1,-1,-1,-1,-1,-1,-1,-1,-1,-1,-1],"split_conditions":[2.0408186E-1,-3.3569062E-1,2.1948287E-1,3.9298198E-1,-1.0077181E0,8.3252686E-1,-1.3040538E0,1.1584063E0,-4.4576862E-1,6.410688E-1,1.2702486E-1,7.3166436E-1,2.8647125E-1,-2.1702256E0,1.3561313E0,3.2786645E-2,-1.4891098E-2,-5.9701778E-2,-8.997329E-3,4.6906397E-2,-2.848486E-2,1.3434757E-3,-2.818931E-2,-3.556567E-2,1.9862114E-2,3.700422E-2,-2.3490854E-2,-2.5690395E-2,-8.094707E-2,-4.5308158E-2,1.6192041E-2],"split_indices":[2397,2691,2389,770,679,2917,2768,75,2730,540,244,485,948,216,10,0,0,0,0,0,0,0,0,0,0,0,0,0,0,0,0],"split_type":[0,0,0,0,0,0,0,0,0,0,0,0,0,0,0,0,0,0,0,0,0,0,0,0,0,0,0,0,0,0,0],"sum_hessian":[2.9616687E3,2.4544836E3,5.0718518E2,7.4432416E2,1.7101594E3,3.0696442E2,2.0022075E2,6.58593E2,8.573114E1,1.784239E2,1.5317355E3,2.152615E2,9.170292E1,4.6174152E1,1.540466E2,5.7881396E2,7.977903E1,2.7990728E1,5.7740414E1,1.5591745E2,2.2506447E1,1.1960017E3,3.357338E2,1.867744E2,2.8487106E1,5.1837856E1,3.986506E1,4.1612563E0,4.2012897E1,1.4176326E2,1.2283343E1],"tree_param":{"num_deleted":"0","num_feature":"5377","num_nodes":"31","size_leaf_vector":"1"}},{"base_weights":[4.1728686E-3,1.5174799E-1,-4.8731396E-1,2.1046673E-1,-5.8195305E-1,-2.064629E-1,-8.271133E-1,4.7637433E-2,4.7136173E-1,-9.736826E-1,-1.3202512E-1,-6.6968393E-1,1.0260829E-1,-5.3394824E-1,-1.0990661E0,-1.0333135E-3,4.005977E-2,2.98879E-2,-1.5700333E-2,4.134504E-2,-5.3349223E-2,1.9119859E-2,-3.1880897E-2,-1.6256107E-2,-5.643654E-2,-3.948038E-2,1.7366624E-2,-4.357112E-2,1.1636998E-2,-3.491415E-2,-6.594661E-2],"categories":[],"categories_nodes":[],"categories_segments":[],"categories_sizes":[],"default_left":[0,0,0,0,0,0,0,0,0,0,0,0,0,0,0,0,0,0,0,0,0,0,0,0,0,0,0,0,0,0,0],"id":7,"left_children":[1,3,5,7,9,11,13,15,17,19,21,23,25,27,29,-1,-1,-1,-1,-1,-1,-1,-1,-1,-1,-1,-1,-1,-1,-1,-1],"loss_changes":[2.1491385E2,9.829732E1,6.512868E1,8.9641396E1,2.9679768E1,5.3892647E1,2.4072342E1,6.696401E1,8.069142E1,1.6044601E1,2.1017633E1,2.3451439E1,4.969951E1,3.92172E1,1.3134598E1,0E0,0E0,0E0,0E0,0E0,0E0,0E0,0E0,0E0,0E0,0E0,0E0,0E0,0E0,0E0,0E0],"parents":[2147483647,0,0,1,1,2,2,3,3,4,4,5,5,6,6,7,7,8,8,9,9,10,10,11,11,12,12,13,13,14,14],"right_children":[2,4,6,8,10,12,14,16,18,20,22,24,26,28,30,-1,-1,-1,-1,-1,-1,-1,-1,-1,-1,-1,-1,-1,-1,-1,-1],"split_conditions":[1.9424709E-2,1.4994864E0,-1.4812334E-2,2.9614294E-1,-1.1409708E0,-2.699982E-1,6.642893E-2,1.2073232E0,-1.1603525E-2,-7.095955E-1,-1.0491052E-1,-1.6856405E-1,-1.2806263E0,5.2428716E-1,-3.3012375E-1,-1.0333135E-3,4.005977E-2,2.98879E-2,-1.5700333E-2,4.134504E-2,-5.3349223E-2,1.9119859E-2,-3.1880897E-2,-1.6256107E-2,-5.643654E-2,-3.948038E-2,1.7366624E-2,-4.357112E-2,1.1636998E-2,-3.491415E-2,-6.594661E-2],"split_indices":[2409,2703,2337,483,0,2122,2260,2699,2359,2140,2376,3480,582,94,175,0,0,0,0,0,0,0,0,0,0,0,0,0,0,0,0],"split_type":[0,0,0,0,0,0,0,0,0,0,0,0,0,0,0,0,0,0,0,0,0,0,0,0,0,0,0,0,0,0,0],"sum_hessian":[2.9610334E3,2.2777896E3,6.832438E2,2.1096643E3,1.6812518E2,3.749487E2,3.082951E2,1.2996881E3,8.099763E2,8.925301E1,7.887217E1,1.4958745E2,2.2536124E2,1.4978757E2,1.5850754E2,1.1925647E3,1.071234E2,6.9789655E2,1.1207978E2,4.009678E0,8.524333E1,3.9215496E1,3.9656673E1,8.642492E1,6.3162533E1,4.8029324E1,1.7733191E2,1.0391191E2,4.587565E1,5.763089E1,1.0087664E2],"tree_param":{"num_deleted":"0","num_feature":"5377","num_nodes":"31","size_leaf_vector":"1"}},{"base_weights":[3.9032171E-3,1.7236596E-1,-3.9179826E-1,-6.903973E-3,3.913559E-1,-2.2719917E-1,-8.2936734E-1,-3.352659E-1,2.6979443E-1,-3.8736627E-1,4.8472843E-1,1.6329385E-2,-6.0517305E-1,-3.0315414E-1,-9.7837716E-1,-2.2964625E-2,1.7599871E-2,2.0550001E-2,-1.5211239E-2,2.7196202E-2,-3.5153236E-2,3.1271815E-2,-6.10115E-3,1.2832849E-2,-2.3305949E-2,-4.594645E-3,-4.291499E-2,-4.5658004E-2,1.6221656E-2,5.318509E-3,-5.2345585E-2],"categories":[],"categories_nodes":[],"categories_segments":[],"categories_sizes":[],"default_left":[0,0,0,0,0,0,0,0,0,0,0,0,0,0,0,0,0,0,0,0,0,0,0,0,0,0,0,0,0,0,0],"id":8,"left_children":[1,3,5,7,9,11,13,15,17,19,21,23,25,27,29,-1,-1,-1,-1,-1,-1,-1,-1,-1,-1,-1,-1,-1,-1,-1,-1],"loss_changes":[1.976396E2,8.1640785E1,6.357567E1,1.04070816E2,6.8250885E1,5.9353165E1,1.8649124E1,4.4810257E1,5.0511227E1,3.0011963E1,7.147479E1,4.5692936E1,3.2746117E1,2.1264116E1,1.4076645E1,0E0,0E0,0E0,0E0,0E0,0E0,0E0,0E0,0E0,0E0,0E0,0E0,0E0,0E0,0E0,0E0],"parents":[2147483647,0,0,1,1,2,2,3,3,4,4,5,5,6,6,7,7,8,8,9,9,10,10,11,11,12,12,13,13,14,14],"right_children":[2,4,6,8,10,12,14,16,18,20,22,24,26,28,30,-1,-1,-1,-1,-1,-1,-1,-1,-1,-1,-1,-1,-1,-1,-1,-1],"split_conditions":[-4.6076603E-2,2.6616124E-2,4.223826E-1,-4.347946E-2,-1.298654E0,2.8563397E-2,-4.382057E-1,6.4565426E-1,-5.282593E-2,-3.879993E-1,5.9246236E-1,-7.305975E-2,-3.3868828E-1,-2.8272033E-1,-7.5403476E-1,-2.2964625E-2,1.7599871E-2,2.0550001E-2,-1.5211239E-2,2.7196202E-2,-3.5153236E-2,3.1271815E-2,-6.10115E-3,1.2832849E-2,-2.3305949E-2,-4.594645E-3,-4.291499E-2,-4.5658004E-2,1.6221656E-2,5.318509E-3,-5.2345585E-2],"split_indices":[2355,5,2255,2692,2689,2243,687,2745,2359,2255,197,2247,3165,740,706,0,0,0,0,0,0,0,0,0,0,0,0,0,0,0,0],"split_type":[0,0,0,0,0,0,0,0,0,0,0,0,0,0,0,0,0,0,0,0,0,0,0,0,0,0,0,0,0,0,0],"sum_hessian":[2.962835E3,2.0785107E3,8.8432404E2,1.1434369E3,9.35074E2,6.437033E2,2.4062074E2,5.2280505E2,6.206319E2,9.977843E1,8.3529553E2,3.920575E2,2.5164581E2,5.3770397E1,1.8685034E2,4.431618E2,7.9643234E1,4.9832953E2,1.2230233E2,2.5077745E1,7.4700676E1,6.7802765E2,1.572679E2,2.6200827E2,1.3004921E2,8.356306E1,1.6808275E2,2.7036383E1,2.6734015E1,1.1070895E1,1.7577945E2],"tree_param":{"num_deleted":"0","num_feature":"5377","num_nodes":"31","size_leaf_vector":"1"}},{"base_weights":[-5.041561E-3,9.284184E-2,-6.1834264E-1,1.5366334E-1,-5.6347966E-1,-7.920692E-1,-1.06431894E-1,-2.9899435E-2,3.656717E-1,-7.037929E-1,7.9546154E-1,-1.1581904E0,-5.4165715E-1,-8.994839E-1,2.1722724E-1,7.989459E-3,-1.7560622E-2,-2.4078753E-2,2.2851171E-2,-4.2217635E-2,2.2282785E-2,-4.1881315E-2,6.2425762E-2,-6.2283922E-2,-3.175215E-3,-4.171934E-2,-4.9024057E-3,-1.4535297E-3,-6.34368E-2,2.950941E-2,-2.7575925E-2],"categories":[],"categories_nodes":[],"categories_segments":[],"categories_sizes":[],"default_left":[0,0,0,0,0,0,0,0,0,0,0,0,0,0,0,0,0,0,0,0,0,0,0,0,0,0,0,0,0,0,0],"id":9,"left_children":[1,3,5,7,9,11,13,15,17,19,21,23,25,27,29,-1,-1,-1,-1,-1,-1,-1,-1,-1,-1,-1,-1,-1,-1,-1,-1],"loss_changes":[1.7748056E2,1.01861534E2,3.6102844E1,9.084774E1,4.183113E1,2.7211517E1,2.6955887E1,7.635936E1,8.4058105E1,3.215947E1,1.638068E1,1.1648392E1,2.3577816E1,9.737446E0,2.1784557E1,0E0,0E0,0E0,0E0,0E0,0E0,0E0,0E0,0E0,0E0,0E0,0E0,0E0,0E0,0E0,0E0],"parents":[2147483647,0,0,1,1,2,2,3,3,4,4,5,5,6,6,7,7,8,8,9,9,10,10,11,11,12,12,13,13,14,14],"right_children":[2,4,6,8,10,12,14,16,18,20,22,24,26,28,30,-1,-1,-1,-1,-1,-1,-1,-1,-1,-1,-1,-1,-1,-1,-1,-1],"split_conditions":[1.01508856E-1,8.876429E-1,2.85796E-1,1.2117684E-2,1.3009973E0,-5.079097E-1,-7.267048E-1,-1.7474154E-1,-1.3528908E0,1.0068781E0,-1.0053215E0,1.6305386E0,-2.2082308E-1,-3.1946605E-1,4.8084995E-1,7.989459E-3,-1.7560622E-2,-2.4078753E-2,2.2851171E-2,-4.2217635E-2,2.2282785E-2,-4.1881315E-2,6.2425762E-2,-6.2283922E-2,-3.175215E-3,-4.171934E-2,-4.9024057E-3,-1.4535297E-3,-6.34368E-2,2.950941E-2,-2.7575925E-2],"split_indices":[2375,3237,458,2694,10,41,2902,2310,672,448,1322,3037,649,211,2727,0,0,0,0,0,0,0,0,0,0,0,0,0,0,0,0],"split_type":[0,0,0,0,0,0,0,0,0,0,0,0,0,0,0,0,0,0,0,0,0,0,0,0,0,0,0,0,0,0,0],"sum_hessian":[2.9544766E3,2.548571E3,4.059056E2,2.3331255E3,2.1544553E2,3.0264874E2,1.0325684E2,1.2509109E3,1.0822146E3,1.9571925E2,1.9726284E1,1.2145188E2,1.8119687E2,2.9411541E1,7.384531E1,7.868771E2,4.640338E2,1.0491381E2,9.7730084E2,1.7463013E2,2.1089127E1,4.099671E0,1.5626614E1,1.1233597E2,9.115908E0,1.08631805E2,7.256507E1,9.081963E0,2.0329578E1,4.9878677E1,2.3966625E1],"tree_param":{"num_deleted":"0","num_feature":"5377","num_nodes":"31","size_leaf_vector":"1"}},{"base_weights":[9.100475E-3,1.2781416E-1,-4.9384925E-1,3.6991236E-1,-3.602668E-2,-7.218856E-1,-1.0013606E-1,-1.7356223E-1,5.17363E-1,3.255741E-1,-2.2017905E-1,-1.1641644E0,-5.343157E-1,-7.021272E-1,1.6617739E-1,-2.3119135E-2,3.7413076E-2,2.8785756E-2,-3.4090377E-2,2.3555554E-2,-3.178626E-2,6.786977E-3,-2.6636347E-2,-2.2942668E-3,-6.217904E-2,-8.790442E-3,-3.873111E-2,-1.12848E-2,-5.7682216E-2,-4.695353E-2,1.5354536E-2],"categories":[],"categories_nodes":[],"categories_segments":[],"categories_sizes":[],"default_left":[0,0,0,0,0,0,0,0,0,0,0,0,0,0,0,0,0,0,0,0,0,0,0,0,0,0,0,0,0,0,0],"id":10,"left_children":[1,3,5,7,9,11,13,15,17,19,21,23,25,27,29,-1,-1,-1,-1,-1,-1,-1,-1,-1,-1,-1,-1,-1,-1,-1,-1],"loss_changes":[1.7530682E2,9.423382E1,5.0266876E1,7.6924805E1,9.4466545E1,2.881871E1,3.3270905E1,5.502378E1,5.3183975E1,6.727576E1,1.0462079E2,9.253494E0,2.1492065E1,1.34250965E1,2.274415E1,0E0,0E0,0E0,0E0,0E0,0E0,0E0,0E0,0E0,0E0,0E0,0E0,0E0,0E0,0E0,0E0],"parents":[2147483647,0,0,1,1,2,2,3,3,4,4,5,5,6,6,7,7,8,8,9,9,10,10,11,11,12,12,13,13,14,14],"right_children":[2,4,6,8,10,12,14,16,18,20,22,24,26,28,30,-1,-1,-1,-1,-1,-1,-1,-1,-1,-1,-1,-1,-1,-1,-1,-1],"split_conditions":[3.147357E-2,-7.610112E-2,-4.3397114E-2,-4.6555886E-1,-3.242581E-1,-6.415473E-1,-8.3865154E-1,8.0151373E-1,1.3272793E0,4.748368E-2,-2.8167027E-1,-2.059728E0,3.0389816E-1,-3.824791E-1,-1.1599003E0,-2.3119135E-2,3.7413076E-2,2.8785756E-2,-3.4090377E-2,2.3555554E-2,-3.178626E-2,6.786977E-3,-2.6636347E-2,-2.2942668E-3,-6.217904E-2,-8.790442E-3,-3.873111E-2,-1.12848E-2,-5.7682216E-2,-4.695353E-2,1.5354536E-2],"split_indices":[2375,2690,458,3064,898,2730,661,2923,3031,2344,2385,2982,3236,3030,540,0,0,0,0,0,0,0,0,0,0,0,0,0,0,0,0],"split_type":[0,0,0,0,0,0,0,0,0,0,0,0,0,0,0,0,0,0,0,0,0,0,0,0,0,0,0,0,0,0,0],"sum_hessian":[2.9340608E3,2.374372E3,5.596888E2,9.5781134E2,1.4165607E3,3.5388632E2,2.0580246E2,2.0436911E2,7.534422E2,4.7772803E2,9.388326E2,1.0383737E2,2.5004895E2,6.261875E1,1.4318372E2,1.5599277E2,4.8376347E1,7.1897644E2,3.4465775E1,4.1535483E2,6.2373188E1,4.3922464E2,4.9960797E2,6.989831E0,9.684754E1,1.0104066E2,1.4900829E2,3.119856E1,3.1420193E1,1.5550422E1,1.2763329E2],"tree_param":{"num_deleted":"0","num_feature":"5377","num_nodes":"31","size_leaf_vector":"1"}},{"base_weights":[-4.0372103E-3,9.019721E-2,-5.987726E-1,2.1989016E-1,-2.0658562E-1,-1.2412497E0,-4.5490897E-1,3.708735E-1,-1.5469882E-1,-3.5600024E-1,4.6710137E-1,-1.2968564E0,-8.219918E-4,-1.9085419E-1,-7.242391E-1,2.2770941E-2,-2.413872E-2,1.3142115E-2,-2.221561E-2,-2.2629006E-2,1.6822286E-2,5.149994E-2,2.2406252E-3,-7.8102723E-3,-6.750405E-2,-3.0697957E-2,7.879876E-3,2.2677371E-2,-4.0886644E-2],"categories":[],"categories_nodes":[],"categories_segments":[],"categories_sizes":[],"default_left":[0,0,0,0,0,0,0,0,0,0,0,0,0,0,0,0,0,0,0,0,0,0,0,0,0,0,0,0,0],"id":11,"left_children":[1,3,5,7,9,11,13,15,17,19,21,23,-1,25,27,-1,-1,-1,-1,-1,-1,-1,-1,-1,-1,-1,-1,-1,-1],"loss_changes":[1.6489749E2,9.780648E1,3.6631485E1,1.00047714E2,7.7965256E1,4.9537354E0,2.3357826E1,9.118323E1,6.1619095E1,4.2495995E1,3.3407063E1,4.030472E0,0E0,2.4892178E1,1.834169E1,0E0,0E0,0E0,0E0,0E0,0E0,0E0,0E0,0E0,0E0,0E0,0E0,0E0,0E0],"parents":[2147483647,0,0,1,1,2,2,3,3,4,4,5,5,6,6,7,7,8,8,9,9,10,10,11,11,13,13,14,14],"right_children":[2,4,6,8,10,12,14,16,18,20,22,24,-1,26,28,-1,-1,-1,-1,-1,-1,-1,-1,-1,-1,-1,-1,-1,-1],"split_conditions":[1.9380343E-1,-7.305975E-2,-1.7857565E0,8.1115866E-1,7.116257E-1,1.4860028E0,-7.897542E-2,1.1656009E0,-3.9043325E-1,1.0741695E0,-2.837944E-1,-6.8901934E-2,-8.219918E-4,-5.043369E-1,-1.2337284E0,2.2770941E-2,-2.413872E-2,1.3142115E-2,-2.221561E-2,-2.2629006E-2,1.6822286E-2,5.149994E-2,2.2406252E-3,-7.8102723E-3,-6.750405E-2,-3.0697957E-2,7.879876E-3,2.2677371E-2,-4.0886644E-2],"split_indices":[2389,2247,2722,3139,453,5157,2260,686,3214,496,2274,2361,0,2984,3152,0,0,0,0,0,0,0,0,0,0,0,0,0,0],"split_type":[0,0,0,0,0,0,0,0,0,0,0,0,0,0,0,0,0,0,0,0,0,0,0,0,0,0,0,0,0],"sum_hessian":[2.9402942E3,2.5388652E3,4.014289E2,1.7669667E3,7.7189856E2,7.2047165E1,3.2938174E2,1.25937E3,5.0759677E2,6.321646E2,1.3973398E2,6.886199E1,3.1851768E0,1.6718248E2,1.6219926E2,1.1463063E3,1.13063736E2,2.0792285E2,2.9967392E2,5.550892E2,7.7075424E1,5.9278526E1,8.045545E1,3.245376E0,6.5616615E1,7.515911E1,9.202337E1,1.1645401E1,1.5055386E2],"tree_param":{"num_deleted":"0","num_feature":"5377","num_nodes":"29","size_leaf_vector":"1"}},{"base_weights":[-2.0093198E-3,1.4379555E-1,-3.508218E-1,-8.62387E-2,3.187255E-1,-1.400815E-1,-6.5562046E-1,3.139063E-1,-2.7372953E-1,6.9919264E-1,1.2707508E-1,2.7315542E-1,-4.228698E-1,-7.706388E-1,-1.7755127E-2,4.952235E-2,5.181346E-3,9.120683E-3,-2.2692764E-2,4.0850904E-2,-2.199108E-2,-1.0024416E-2,1.724982E-2,2.9369835E-2,-1.0205304E-2,-3.981171E-2,-5.836733E-3,-6.1082896E-2,-3.1036798E-2,5.4256834E-2,-1.559631E-2],"categories":[],"categories_nodes":[],"categories_segments":[],"categories_sizes":[],"default_left":[0,0,0,0,0,0,0,0,0,0,0,0,0,0,0,0,0,0,0,0,0,0,0,0,0,0,0,0,0,0,0],"id":12,"left_children":[1,3,5,7,9,11,13,15,17,19,21,23,25,27,29,-1,-1,-1,-1,-1,-1,-1,-1,-1,-1,-1,-1,-1,-1,-1,-1],"loss_changes":[1.4942523E2,8.340355E1,5.553988E1,6.729244E1,8.5746475E1,6.0101685E1,2.594069E1,4.062448E1,5.02454E1,5.3250977E1,5.603765E1,3.1489567E1,3.478651E1,1.950386E1,1.8204796E1,0E0,0E0,0E0,0E0,0E0,0E0,0E0,0E0,0E0,0E0,0E0,0E0,0E0,0E0,0E0,0E0],"parents":[2147483647,0,0,1,1,2,2,3,3,4,4,5,5,6,6,7,7,8,8,9,9,10,10,11,11,12,12,13,13,14,14],"right_children":[2,4,6,8,10,12,14,16,18,20,22,24,26,28,30,-1,-1,-1,-1,-1,-1,-1,-1,-1,-1,-1,-1,-1,-1,-1,-1],"split_conditions":[-4.6076603E-2,-7.962068E-2,9.636366E-2,-5.037065E-1,-2.186349E-1,-6.520939E-2,1.5098296E0,-3.642578E-1,-5.5537856E-1,8.8323194E-1,1.9331348E-1,-1.3990639E-1,-2.668108E-1,-7.165871E-1,-2.0718604E-1,4.952235E-2,5.181346E-3,9.120683E-3,-2.2692764E-2,4.0850904E-2,-2.199108E-2,-1.0024416E-2,1.724982E-2,2.9369835E-2,-1.0205304E-2,-3.981171E-2,-5.836733E-3,-6.1082896E-2,-3.1036798E-2,5.4256834E-2,-1.559631E-2],"split_indices":[2355,458,2243,2241,1122,3236,3141,3171,687,2308,2916,2262,1120,2730,2689,0,0,0,0,0,0,0,0,0,0,0,0,0,0,0,0],"split_type":[0,0,0,0,0,0,0,0,0,0,0,0,0,0,0,0,0,0,0,0,0,0,0,0,0,0,0,0,0,0,0],"sum_hessian":[2.9360632E3,2.0709756E3,8.650875E2,8.9480597E2,1.1761697E3,5.123229E2,3.5276465E2,2.8528128E2,6.0952466E2,3.931113E2,7.830584E2,2.0816568E2,3.0415723E2,2.986963E2,5.406836E1,6.676506E1,2.1851622E2,1.7255093E2,4.3697375E2,3.5651434E2,3.659696E1,3.1286404E2,4.7019437E2,1.2538089E2,8.278478E1,1.3631079E2,1.6784642E2,7.272771E1,2.2596857E2,1.0818684E1,4.3249676E1],"tree_param":{"num_deleted":"0","num_feature":"5377","num_nodes":"31","size_leaf_vector":"1"}},{"base_weights":[1.7125258E-3,8.847053E-2,-5.5154586E-1,1.8906204E-1,-2.2769502E-1,-3.2380947E-1,-9.367473E-1,-1.6469799E-1,3.1350526E-1,-6.106903E-1,2.2983074E-2,-1.1700874E-1,-8.1444055E-1,-5.193159E-1,-1.1173704E0,-2.2546872E-2,8.25641E-3,2.3281297E-2,-2.6089947E-3,-4.5071796E-2,-8.929362E-3,1.0313878E-2,-2.8038267E-2,2.2838613E-2,-1.5431131E-2,-1.3672617E-4,-5.0720513E-2,2.6068438E-2,-3.8380533E-2,2.1113168E-2,-5.9420593E-2],"categories":[],"categories_nodes":[],"categories_segments":[],"categories_sizes":[],"default_left":[0,0,0,0,0,0,0,0,0,0,0,0,0,0,0,0,0,0,0,0,0,0,0,0,0,0,0,0,0,0,0],"id":13,"left_children":[1,3,5,7,9,11,13,15,17,19,21,23,25,27,29,-1,-1,-1,-1,-1,-1,-1,-1,-1,-1,-1,-1,-1,-1,-1,-1],"loss_changes":[1.4093863E2,8.076698E1,3.4613243E1,8.484488E1,5.8876175E1,2.5439672E1,1.0530182E1,4.7457428E1,7.93069E1,3.0313942E1,3.9867527E1,1.9734371E1,1.2082703E1,1.238284E1,1.16566925E1,0E0,0E0,0E0,0E0,0E0,0E0,0E0,0E0,0E0,0E0,0E0,0E0,0E0,0E0,0E0,0E0],"parents":[2147483647,0,0,1,1,2,2,3,3,4,4,5,5,6,6,7,7,8,8,9,9,10,10,11,11,12,12,13,13,14,14],"right_children":[2,4,6,8,10,12,14,16,18,20,22,24,26,28,30,-1,-1,-1,-1,-1,-1,-1,-1,-1,-1,-1,-1,-1,-1,-1,-1],"split_conditions":[1.9380343E-1,3.94313E-1,5.47082E-1,-6.8423784E-1,-3.297877E-1,3.2225513E-1,-7.0955664E-1,-1.2780637E-1,3.8836026E-1,3.902208E-1,7.140608E-1,-5.8759534E-1,-1.2926223E0,-7.266107E-2,-2.765918E-1,-2.2546872E-2,8.25641E-3,2.3281297E-2,-2.6089947E-3,-4.5071796E-2,-8.929362E-3,1.0313878E-2,-2.8038267E-2,2.2838613E-2,-1.5431131E-2,-1.3672617E-4,-5.0720513E-2,2.6068438E-2,-3.8380533E-2,2.1113168E-2,-5.9420593E-2],"split_indices":[2389,3236,2274,3140,1969,2327,2955,2245,77,2913,3156,3179,465,2266,2440,0,0,0,0,0,0,0,0,0,0,0,0,0,0,0,0],"split_type":[0,0,0,0,0,0,0,0,0,0,0,0,0,0,0,0,0,0,0,0,0,0,0,0,0,0,0,0,0,0,0],"sum_hessian":[2.9342292E3,2.5372034E3,3.970259E2,1.9251105E3,6.1209283E2,2.506681E2,1.4635782E2,5.008889E2,1.4242216E3,2.4157281E2,3.7052005E2,1.7721188E2,7.345622E1,4.537303E1,1.0098478E2,2.6796683E2,2.3292204E2,1.00562164E3,4.185999E2,1.4375763E2,9.781518E1,2.8247177E2,8.804828E1,4.401793E1,1.3319395E2,1.4719858E1,5.8736366E1,8.528306E0,3.6844723E1,4.236038E0,9.674874E1],"tree_param":{"num_deleted":"0","num_feature":"5377","num_nodes":"31","size_leaf_vector":"1"}},{"base_weights":[2.0996756E-3,1.19726084E-1,-3.8303304E-1,2.2187796E-1,-2.6019612E-1,-1.8226177E-1,-6.8018436E-1,6.958066E-1,1.04412876E-1,-7.2521496E-1,-6.644792E-2,-7.960462E-1,-3.8982954E-2,-4.482284E-1,-1.0796965E0,-1.0441566E-2,3.9874017E-2,1.0125122E-2,-2.0353088E-2,-2.168195E-4,-4.6731573E-2,1.6223218E-2,-1.632991E-2,-2.0837782E-2,-6.5456234E-2,-9.01031E-3,3.9593015E-2,-1.3104009E-2,-4.9851865E-2,6.001833E-3,-5.6838065E-2],"categories":[],"categories_nodes":[],"categories_segments":[],"categories_sizes":[],"default_left":[0,0,0,0,0,0,0,0,0,0,0,0,0,0,0,0,0,0,0,0,0,0,0,0,0,0,0,0,0,0,0],"id":14,"left_children":[1,3,5,7,9,11,13,15,17,19,21,23,25,27,29,-1,-1,-1,-1,-1,-1,-1,-1,-1,-1,-1,-1,-1,-1,-1,-1],"loss_changes":[1.3235353E2,8.69156E1,4.065586E1,9.81482E1,4.272092E1,3.596309E1,2.5023315E1,3.238304E1,7.107719E1,2.1057327E1,3.429515E1,1.4518768E1,3.9201313E1,1.7703827E1,7.009926E0,0E0,0E0,0E0,0E0,0E0,0E0,0E0,0E0,0E0,0E0,0E0,0E0,0E0,0E0,0E0,0E0],"parents":[2147483647,0,0,1,1,2,2,3,3,4,4,5,5,6,6,7,7,8,8,9,9,10,10,11,11,12,12,13,13,14,14],"right_children":[2,4,6,8,10,12,14,16,18,20,22,24,26,28,30,-1,-1,-1,-1,-1,-1,-1,-1,-1,-1,-1,-1,-1,-1,-1,-1],"split_conditions":[-1.4041336E-2,6.53696E-1,3.4782556E-1,-7.002968E-1,-5.5522877E-1,-1.093339E0,5.287407E-1,-9.096482E-1,5.2887547E-1,-4.344038E-1,-3.069903E-1,3.1512177E-1,1.191457E0,4.7758862E-1,-8.262078E-1,-1.0441566E-2,3.9874017E-2,1.0125122E-2,-2.0353088E-2,-2.168195E-4,-4.6731573E-2,1.6223218E-2,-1.632991E-2,-2.0837782E-2,-6.5456234E-2,-9.01031E-3,3.9593015E-2,-1.3104009E-2,-4.9851865E-2,6.001833E-3,-5.6838065E-2],"split_indices":[2359,722,2727,3171,10,68,2250,148,1219,1128,2,1244,2694,215,3997,0,0,0,0,0,0,0,0,0,0,0,0,0,0,0,0],"split_type":[0,0,0,0,0,0,0,0,0,0,0,0,0,0,0,0,0,0,0,0,0,0,0,0,0,0,0,0,0,0,0],"sum_hessian":[2.9195847E3,2.2370415E3,6.825433E2,1.7633385E3,4.7370303E2,4.0829248E2,2.742508E2,3.4926367E2,1.4140748E3,1.3851276E2,3.3519028E2,7.640959E1,3.318829E2,1.7485327E2,9.939754E1,3.518172E1,3.1408197E2,1.1870322E3,2.2704253E2,3.1410038E1,1.0710272E2,1.3383589E2,2.013544E2,4.4974613E1,3.1434977E1,2.843358E2,4.7547108E1,1.3167017E2,4.31831E1,4.4630284E0,9.49345E1],"tree_param":{"num_deleted":"0","num_feature":"5377","num_nodes":"31","size_leaf_vector":"1"}},{"base_weights":[-2.3087754E-3,8.337575E-2,-4.8455882E-1,1.3708712E-1,-5.247651E-1,-6.461501E-1,4.3856412E-2,2.4406375E-1,-1.6874997E-1,-8.063987E-1,1.1415309E-1,-3.4649405E-1,-8.2641935E-1,6.1443317E-1,-6.7924565E-1,2.8183177E-2,4.3186853E-3,-1.8683163E-3,-3.2078158E-2,1.5360773E-2,-4.5076966E-2,-2.5009234E-2,2.4815379E-2,-3.2099504E-2,1.2286871E-2,-2.4108585E-2,-5.0247546E-2,4.93037E-2,-3.1274255E-2,-4.3010913E-2,3.246378E-2],"categories":[],"categories_nodes":[],"categories_segments":[],"categories_sizes":[],"default_left":[0,0,0,0,0,0,0,0,0,0,0,0,0,0,0,0,0,0,0,0,0,0,0,0,0,0,0,0,0,0,0],"id":15,"left_children":[1,3,5,7,9,11,13,15,17,19,21,23,25,27,29,-1,-1,-1,-1,-1,-1,-1,-1,-1,-1,-1,-1,-1,-1,-1,-1],"loss_changes":[1.2085769E2,8.119567E1,3.770707E1,7.472916E1,3.6396397E1,1.7971573E1,4.3440197E1,8.520699E1,3.6761055E1,1.512645E1,1.4945336E1,2.2676748E1,1.2441147E1,2.7716805E1,1.17301445E1,0E0,0E0,0E0,0E0,0E0,0E0,0E0,0E0,0E0,0E0,0E0,0E0,0E0,0E0,0E0,0E0],"parents":[2147483647,0,0,1,1,2,2,3,3,4,4,5,5,6,6,7,7,8,8,9,9,10,10,11,11,12,12,13,13,14,14],"right_children":[2,4,6,8,10,12,14,16,18,20,22,24,26,28,30,-1,-1,-1,-1,-1,-1,-1,-1,-1,-1,-1,-1,-1,-1,-1,-1],"split_conditions":[2.1772307E-1,1.441457E0,7.623212E-1,-4.9722735E-2,-8.963941E-2,-5.861375E-2,-2.4718506E-2,-2.0053178E-1,6.470751E-1,-9.412222E-1,-2.3974174E-1,2.0554554E-1,-2.3951022E-1,9.8345476E-1,1.2844009E0,2.8183177E-2,4.3186853E-3,-1.8683163E-3,-3.2078158E-2,1.5360773E-2,-4.5076966E-2,-2.5009234E-2,2.4815379E-2,-3.2099504E-2,1.2286871E-2,-2.4108585E-2,-5.0247546E-2,4.93037E-2,-3.1274255E-2,-4.3010913E-2,3.246378E-2],"split_indices":[2455,3151,452,2355,672,2375,2260,1121,2915,2697,1228,795,36,3034,2703,0,0,0,0,0,0,0,0,0,0,0,0,0,0,0,0],"split_type":[0,0,0,0,0,0,0,0,0,0,0,0,0,0,0,0,0,0,0,0,0,0,0,0,0,0,0,0,0,0,0],"sum_hessian":[2.9228452E3,2.4825767E3,4.402686E2,2.2818196E3,2.0075713E2,3.369923E2,1.0327627E2,1.6906581E3,5.911615E2,1.3915555E2,6.1601574E1,1.2767844E2,2.0931387E2,5.7810295E1,4.5465977E1,5.577198E2,1.1329384E3,4.6345685E2,1.2770469E2,1.0777433E1,1.2837811E2,2.350574E1,3.8095833E1,8.512233E1,4.255611E1,7.274548E1,1.3656839E2,4.4636208E1,1.3174088E1,4.0325317E1,5.1406584E0],"tree_param":{"num_deleted":"0","num_feature":"5377","num_nodes":"31","size_leaf_vector":"1"}},{"base_weights":[-2.9127842E-3,1.3286449E-1,-3.0799505E-1,1.9279854E-1,-4.12983E-1,-2.0829667E-1,-7.944279E-1,3.0057952E-1,-1.4800097E-1,-6.9813155E-2,-8.63282E-1,-7.724862E-2,-6.3924974E-1,-8.755869E-1,2.1091715E-2,2.2608504E-2,-2.3515735E-5,-1.9259514E-2,1.5862128E-2,-2.2529474E-2,2.1831108E-2,8.0422076E-5,-5.1842745E-2,1.1745169E-3,-4.4081073E-2,5.256011E-2,-3.4377825E-2,-2.478572E-2,-5.356579E-2,7.502802E-2,-2.5800988E-2],"categories":[],"categories_nodes":[],"categories_segments":[],"categories_sizes":[],"default_left":[0,0,0,0,0,0,0,0,0,0,0,0,0,0,0,0,0,0,0,0,0,0,0,0,0,0,0,0,0,0,0],"id":16,"left_children":[1,3,5,7,9,11,13,15,17,19,21,23,25,27,29,-1,-1,-1,-1,-1,-1,-1,-1,-1,-1,-1,-1,-1,-1,-1,-1],"loss_changes":[1.2103511E2,6.622998E1,4.3476448E1,6.699378E1,3.09029E1,4.2204712E1,1.01260605E1,6.3209038E1,4.852229E1,2.2334602E1,1.2997864E1,4.660249E1,1.4958153E1,9.797508E0,1.2533925E1,0E0,0E0,0E0,0E0,0E0,0E0,0E0,0E0,0E0,0E0,0E0,0E0,0E0,0E0,0E0,0E0],"parents":[2147483647,0,0,1,1,2,2,3,3,4,4,5,5,6,6,7,7,8,8,9,9,10,10,11,11,12,12,13,13,14,14],"right_children":[2,4,6,8,10,12,14,16,18,20,22,24,26,28,30,-1,-1,-1,-1,-1,-1,-1,-1,-1,-1,-1,-1,-1,-1,-1,-1],"split_conditions":[-5.1280163E-2,9.389403E-1,9.1995627E-1,1.748945E-2,-9.666867E-2,5.813343E-1,2.658964E0,7.131731E-1,2.6571953E-1,-1.3739398E-1,-9.44809E-1,1.5863762E0,-1.295922E0,1.4071804E-2,1.2786521E0,2.2608504E-2,-2.3515735E-5,-1.9259514E-2,1.5862128E-2,-2.2529474E-2,2.1831108E-2,8.0422076E-5,-5.1842745E-2,1.1745169E-3,-4.4081073E-2,5.256011E-2,-3.4377825E-2,-2.478572E-2,-5.356579E-2,7.502802E-2,-2.5800988E-2],"split_indices":[2355,3059,2274,2247,2271,3139,745,2691,1125,1328,3221,2255,760,2379,3509,0,0,0,0,0,0,0,0,0,0,0,0,0,0,0,0],"split_type":[0,0,0,0,0,0,0,0,0,0,0,0,0,0,0,0,0,0,0,0,0,0,0,0,0,0,0,0,0,0,0],"sum_hessian":[2.9199253E3,2.0210284E3,8.98897E2,1.8216572E3,1.9937115E2,7.471838E2,1.5171318E2,1.3840552E3,4.3760208E2,1.1379998E2,8.557117E1,5.738589E2,1.7332489E2,1.3791452E2,1.3798667E1,9.201972E2,4.6385794E2,2.899517E2,1.4765039E2,6.502189E1,4.8778095E1,1.4468302E1,7.110287E1,5.1085114E2,6.300776E1,4.238573E0,1.6908632E2,4.8098026E1,8.981649E1,3.1974797E0,1.0601188E1],"tree_param":{"num_deleted":"0","num_feature":"5377","num_nodes":"31","size_leaf_vector":"1"}},{"base_weights":[-1.003237E-3,6.817684E-2,-6.1401445E-1,3.0165723E-1,-5.0620615E-2,-2.7005652E-1,-9.181398E-1,-2.2941189E-1,4.5164263E-1,7.253557E-2,-4.3769276E-1,-3.8402677E-2,-8.8386416E-1,-2.2976859E-1,-1.00833E0,-1.7113486E-2,6.584586E-2,4.012468E-2,1.0627161E-2,3.96471E-2,-1.9117462E-4,-3.1337038E-2,3.0667498E-3,4.011732E-2,-1.6721265E-2,-5.2596767E-2,2.8835747E-2,-3.331418E-2,5.342217E-2,-1.4506745E-3,-5.3900696E-2],"categories":[],"categories_nodes":[],"categories_segments":[],"categories_sizes":[],"default_left":[0,0,0,0,0,0,0,0,0,0,0,0,0,0,0,0,0,0,0,0,0,0,0,0,0,0,0,0,0,0,0],"id":17,"left_children":[1,3,5,7,9,11,13,15,17,19,21,23,25,27,29,-1,-1,-1,-1,-1,-1,-1,-1,-1,-1,-1,-1,-1,-1,-1,-1],"loss_changes":[1.2334038E2,7.2505226E1,3.0604408E1,7.031586E1,8.264469E1,1.9847458E1,9.460678E0,3.4444138E1,5.7518814E1,7.237139E1,3.951471E1,2.5792675E1,1.0000088E1,1.1694268E1,9.368179E0,0E0,0E0,0E0,0E0,0E0,0E0,0E0,0E0,0E0,0E0,0E0,0E0,0E0,0E0,0E0,0E0],"parents":[2147483647,0,0,1,1,2,2,3,3,4,4,5,5,6,6,7,7,8,8,9,9,10,10,11,11,12,12,13,13,14,14],"right_children":[2,4,6,8,10,12,14,16,18,20,22,24,26,28,30,-1,-1,-1,-1,-1,-1,-1,-1,-1,-1,-1,-1,-1,-1,-1,-1],"split_conditions":[4.444158E-1,-3.1775108E-1,1.095722E-2,-8.8726234E-1,2.223302E-1,1.0109584E0,-1.5868303E0,1.1470429E0,-1.8433408E-1,-1.0226113E0,2.6252612E-1,-3.5298964E-1,1.7537884E0,7.6330274E-1,-1.5034556E0,-1.7113486E-2,6.584586E-2,4.012468E-2,1.0627161E-2,3.96471E-2,-1.9117462E-4,-3.1337038E-2,3.0667498E-3,4.011732E-2,-1.6721265E-2,-5.2596767E-2,2.8835747E-2,-3.331418E-2,5.342217E-2,-1.4506745E-3,-5.3900696E-2],"split_indices":[770,2,2309,3142,771,2839,536,3021,3234,3144,759,885,1042,2854,2690,0,0,0,0,0,0,0,0,0,0,0,0,0,0,0,0],"split_type":[0,0,0,0,0,0,0,0,0,0,0,0,0,0,0,0,0,0,0,0,0,0,0,0,0,0,0,0,0,0,0],"sum_hessian":[2.9064243E3,2.6124866E3,2.9393787E2,8.8048083E2,1.7320056E3,1.388219E2,1.5511597E2,1.9378746E2,6.8669336E2,1.3145598E3,4.174458E2,1.0155655E2,3.7265347E1,1.8379908E1,1.3673605E2,1.8133174E2,1.2455724E1,2.7735315E2,4.093402E2,1.25083206E2,1.1894767E3,3.0256744E2,1.1487834E2,2.600057E1,7.555598E1,3.36706E1,3.594746E0,1.4119193E1,4.2607155E0,9.177314E0,1.2755874E2],"tree_param":{"num_deleted":"0","num_feature":"5377","num_nodes":"31","size_leaf_vector":"1"}},{"base_weights":[-2.4685822E-3,8.5410096E-2,-4.7823954E-1,1.7800523E-1,-2.332961E-1,-3.3919234E-2,-6.1410886E-1,-2.1787338E-1,2.865452E-1,-3.4560654E-1,6.933639E-1,-3.2747686E-1,7.8481376E-1,-8.117206E-1,-3.0101898E-1,3.998261E-3,-2.6075546E-2,1.871604E-2,-6.6443905E-3,-8.039475E-3,-3.56109E-2,-2.382735E-3,6.1309826E-2,-2.4627151E-2,4.630293E-2,-4.5478906E-2,5.176848E-2,5.8439035E-2,-4.2445786E-2,5.9088464E-3,-3.629382E-2],"categories":[],"categories_nodes":[],"categories_segments":[],"categories_sizes":[],"default_left":[0,0,0,0,0,0,0,0,0,0,0,0,0,0,0,0,0,0,0,0,0,0,0,0,0,0,0,0,0,0,0],"id":18,"left_children":[1,3,5,7,9,11,13,15,17,19,21,23,25,27,29,-1,-1,-1,-1,-1,-1,-1,-1,-1,-1,-1,-1,-1,-1,-1,-1],"loss_changes":[1.218258E2,7.2623604E1,2.7404305E1,8.197714E1,5.791078E1,2.608068E1,2.127687E1,3.7190636E1,5.514866E1,3.341825E1,2.3841066E1,1.696656E1,1.3105343E1,1.6657715E1,2.434009E1,0E0,0E0,0E0,0E0,0E0,0E0,0E0,0E0,0E0,0E0,0E0,0E0,0E0,0E0,0E0,0E0],"parents":[2147483647,0,0,1,1,2,2,3,3,4,4,5,5,6,6,7,7,8,8,9,9,10,10,11,11,12,12,13,13,14,14],"right_children":[2,4,6,8,10,12,14,16,18,20,22,24,26,28,30,-1,-1,-1,-1,-1,-1,-1,-1,-1,-1,-1,-1,-1,-1,-1,-1],"split_conditions":[1.7252126E-1,2.3751754E-1,-2.0141017E-1,-8.232577E-1,1.553559E0,7.989408E-1,3.993204E-1,-6.313405E-2,6.6895205E-1,-7.184167E-4,1.0349705E0,6.8144274E-1,-1.1423905E0,-1.627443E0,5.061383E-2,3.998261E-3,-2.6075546E-2,1.871604E-2,-6.6443905E-3,-8.039475E-3,-3.56109E-2,-2.382735E-3,6.1309826E-2,-2.4627151E-2,4.630293E-2,-4.5478906E-2,5.176848E-2,5.8439035E-2,-4.2445786E-2,5.9088464E-3,-3.629382E-2],"split_indices":[2441,685,2263,675,3141,4807,4,2341,99,2397,5,4269,914,5144,2367,0,0,0,0,0,0,0,0,0,0,0,0,0,0,0,0],"split_type":[0,0,0,0,0,0,0,0,0,0,0,0,0,0,0,0,0,0,0,0,0,0,0,0,0,0,0,0,0,0,0],"sum_hessian":[2.91181E3,2.458522E3,4.5328812E2,1.9053838E3,5.5313824E2,1.0644405E2,3.4684406E2,4.0978058E2,1.4956033E3,4.9390445E2,5.9233772E1,7.879282E1,2.7651232E1,2.1165924E2,1.3518481E2,2.0723755E2,2.0254303E2,1.2368688E3,2.5873447E2,3.2932364E2,1.6458081E2,2.515746E1,3.4076313E1,7.016106E1,8.631766E0,3.2233043E0,2.4427929E1,3.3409874E0,2.0831825E2,6.840913E1,6.677569E1],"tree_param":{"num_deleted":"0","num_feature":"5377","num_nodes":"31","size_leaf_vector":"1"}},{"base_weights":[-4.844051E-3,8.368375E-2,-4.2048094E-1,-2.8410238E-1,1.530211E-1,-1.7896874E-1,-6.7815816E-1,-5.045686E-1,1.6554417E-1,2.2400123E-1,-2.6384458E-1,-6.7646027E-1,1.0348266E-1,-4.4408014E-1,-9.1396505E-1,-3.397801E-2,2.1105486E-3,-3.949396E-3,6.363418E-2,1.5526341E-2,-3.7420117E-3,1.5799394E-2,-1.8806258E-2,-1.1880019E-2,-5.811428E-2,2.783959E-2,-2.0495903E-2,-3.900438E-2,-2.6558442E-3,2.0117352E-6,-4.939724E-2],"categories":[],"categories_nodes":[],"categories_segments":[],"categories_sizes":[],"default_left":[0,0,0,0,0,0,0,0,0,0,0,0,0,0,0,0,0,0,0,0,0,0,0,0,0,0,0,0,0,0,0],"id":19,"left_children":[1,3,5,7,9,11,13,15,17,19,21,23,25,27,29,-1,-1,-1,-1,-1,-1,-1,-1,-1,-1,-1,-1,-1,-1,-1,-1],"loss_changes":[1.0676522E2,6.1046093E1,3.1585747E1,3.773333E1,5.9632225E1,3.721662E1,1.3180405E1,2.4436188E1,3.41328E1,4.4522507E1,1.9219973E1,2.0163723E1,3.967322E1,1.6440891E1,8.227264E0,0E0,0E0,0E0,0E0,0E0,0E0,0E0,0E0,0E0,0E0,0E0,0E0,0E0,0E0,0E0,0E0],"parents":[2147483647,0,0,1,1,2,2,3,3,4,4,5,5,6,6,7,7,8,8,9,9,10,10,11,11,12,12,13,13,14,14],"right_children":[2,4,6,8,10,12,14,16,18,20,22,24,26,28,30,-1,-1,-1,-1,-1,-1,-1,-1,-1,-1,-1,-1,-1,-1,-1,-1],"split_conditions":[9.076635E-2,-9.713339E-1,-1.4812334E-2,4.884925E-1,2.626659E-1,-4.5420158E-1,2.9514533E-1,-6.1117567E-2,4.9759358E-1,4.1834977E-1,-2.2783826E-1,-4.9285376E-1,1.0653271E-1,2.1614727E-1,-9.935784E-2,-3.397801E-2,2.1105486E-3,-3.949396E-3,6.363418E-2,1.5526341E-2,-3.7420117E-3,1.5799394E-2,-1.8806258E-2,-1.1880019E-2,-5.811428E-2,2.783959E-2,-2.0495903E-2,-3.900438E-2,-2.6558442E-3,2.0117352E-6,-4.939724E-2],"split_indices":[2409,3140,2337,2693,2298,2122,2410,2419,2299,3236,2461,9,139,3158,2454,0,0,0,0,0,0,0,0,0,0,0,0,0,0,0,0],"split_type":[0,0,0,0,0,0,0,0,0,0,0,0,0,0,0,0,0,0,0,0,0,0,0,0,0,0,0,0,0,0,0],"sum_hessian":[2.8996335E3,2.3911365E3,5.08497E2,3.7879523E2,2.0123413E3,2.6335645E2,2.4514058E2,2.5409015E2,1.24705086E2,1.7199469E3,2.923944E2,9.48677E1,1.6848874E2,1.2446818E2,1.2067239E2,1.9230266E2,6.1787487E1,1.02905235E2,2.1799856E1,1.3337408E3,3.862061E2,4.714042E1,2.4525398E2,5.0625397E1,4.4242302E1,8.9436195E1,7.905255E1,6.6403435E1,5.806474E1,9.110717E0,1.1156168E2],"tree_param":{"num_deleted":"0","num_feature":"5377","num_nodes":"31","size_leaf_vector":"1"}},{"base_weights":[3.805888E-3,8.3773114E-2,-4.312374E-1,1.627269E-1,-2.7497712E-1,-1.1738974E0,-3.5502517E-1,3.2335657E-1,-6.502996E-2,-5.9773326E-1,3.7612654E-2,-1.2947006E0,-4.7196462E-4,-7.209664E-1,-1.645402E-1,2.0716881E-2,-1.5568281E-2,6.1118933E-3,-2.4408624E-2,-4.1836865E-2,-5.7372246E-3,-9.777675E-3,3.877556E-2,-7.1560554E-2,-1.4772772E-2,-4.500394E-2,-8.210798E-3,2.7360274E-3,-3.1491704E-2],"categories":[],"categories_nodes":[],"categories_segments":[],"categories_sizes":[],"default_left":[0,0,0,0,0,0,0,0,0,0,0,0,0,0,0,0,0,0,0,0,0,0,0,0,0,0,0,0,0],"id":20,"left_children":[1,3,5,7,9,11,13,15,17,19,21,23,-1,25,27,-1,-1,-1,-1,-1,-1,-1,-1,-1,-1,-1,-1,-1,-1],"loss_changes":[1.0051824E2,6.917605E1,2.4976143E1,7.3228424E1,4.4477203E1,5.8004494E0,2.8343746E1,6.790277E1,6.570531E1,2.4935898E1,3.8825436E1,4.682869E0,0E0,1.3761917E1,2.7562893E1,0E0,0E0,0E0,0E0,0E0,0E0,0E0,0E0,0E0,0E0,0E0,0E0,0E0,0E0],"parents":[2147483647,0,0,1,1,2,2,3,3,4,4,5,5,6,6,7,7,8,8,9,9,10,10,11,11,13,13,14,14],"right_children":[2,4,6,8,10,12,14,16,18,20,22,24,-1,26,28,-1,-1,-1,-1,-1,-1,-1,-1,-1,-1,-1,-1,-1,-1],"split_conditions":[1.7252126E-1,2.7154854E-1,-1.9739362E0,4.6262357E-1,1.6972108E-2,1.94456E0,-2.8152245E-1,9.260005E-1,2.5687188E-2,1.3294226E-1,9.2592144E-1,9.754649E-1,-4.7196462E-4,7.2029793E-1,1.2490017E0,2.0716881E-2,-1.5568281E-2,6.1118933E-3,-2.4408624E-2,-4.1836865E-2,-5.7372246E-3,-9.777675E-3,3.877556E-2,-7.1560554E-2,-1.4772772E-2,-4.500394E-2,-8.210798E-3,2.7360274E-3,-3.1491704E-2],"split_indices":[2441,2247,68,3139,5,2963,2932,3171,3214,2954,676,4979,0,676,2932,0,0,0,0,0,0,0,0,0,0,0,0,0,0],"split_type":[0,0,0,0,0,0,0,0,0,0,0,0,0,0,0,0,0,0,0,0,0,0,0,0,0,0,0,0,0],"sum_hessian":[2.887313E3,2.4396733E3,4.4763968E2,2.0000488E3,4.396245E2,4.0321228E1,4.0731845E2,1.1726185E3,8.2743036E2,2.1584616E2,2.2377834E2,3.6430054E1,3.8911738E0,1.3848659E2,2.6883185E2,1.0259116E3,1.4670695E2,5.740759E2,2.5335445E2,1.4390382E2,7.194234E1,1.7060455E2,5.3173786E1,3.1671068E1,4.758987E0,1.0431175E2,3.417484E1,1.833256E2,8.5506256E1],"tree_param":{"num_deleted":"0","num_feature":"5377","num_nodes":"29","size_leaf_vector":"1"}},{"base_weights":[-5.758493E-3,7.6661386E-2,-4.076569E-1,3.2292008E-1,-2.9268552E-2,-1.075208E0,-3.1259114E-1,5.394454E-1,1.6138822E-2,1.2890247E-1,-2.9952165E-1,-2.241538E-1,-1.2552464E0,-4.0914336E-1,4.2895687E-1,3.8059644E-2,5.9062964E-3,3.1276446E-2,-7.887231E-3,2.9202392E-2,-3.939132E-4,5.536295E-4,-2.935701E-2,3.3073265E-2,-5.5565454E-2,-6.715385E-2,-1.0548116E-2,3.4534015E-2,-2.3698969E-2,-1.1812385E-2,4.417677E-2],"categories":[],"categories_nodes":[],"categories_segments":[],"categories_sizes":[],"default_left":[0,0,0,0,0,0,0,0,0,0,0,0,0,0,0,0,0,0,0,0,0,0,0,0,0,0,0,0,0,0,0],"id":21,"left_children":[1,3,5,7,9,11,13,15,17,19,21,23,25,27,29,-1,-1,-1,-1,-1,-1,-1,-1,-1,-1,-1,-1,-1,-1,-1,-1],"loss_changes":[9.569326E1,6.2546803E1,3.0862915E1,4.7894005E1,7.173222E1,9.045975E0,3.1087883E1,3.9404312E1,3.182549E1,6.591314E1,5.5348793E1,1.0042791E1,4.3052216E0,2.760427E1,1.5396818E1,0E0,0E0,0E0,0E0,0E0,0E0,0E0,0E0,0E0,0E0,0E0,0E0,0E0,0E0,0E0,0E0],"parents":[2147483647,0,0,1,1,2,2,3,3,4,4,5,5,6,6,7,7,8,8,9,9,10,10,11,11,12,12,13,13,14,14],"right_children":[2,4,6,8,10,12,14,16,18,20,22,24,26,28,30,-1,-1,-1,-1,-1,-1,-1,-1,-1,-1,-1,-1,-1,-1,-1,-1],"split_conditions":[1.9201027E-1,-3.3569062E-1,-1.7125009E0,1.0604653E-1,-2.4073455E-1,-6.0229376E-2,1.3285594E0,3.9910334E-1,-4.8808214E-1,-4.103598E-1,-3.6946118E-2,-5.321347E-2,1.4617575E0,-1.2941143E-1,-3.935489E-1,3.8059644E-2,5.9062964E-3,3.1276446E-2,-7.887231E-3,2.9202392E-2,-3.939132E-4,5.536295E-4,-2.935701E-2,3.3073265E-2,-5.5565454E-2,-6.715385E-2,-1.0548116E-2,3.4534015E-2,-2.3698969E-2,-1.1812385E-2,4.417677E-2],"split_indices":[2397,2691,2768,3010,3457,2389,10,2715,2310,2770,1121,3050,2245,2411,2759,0,0,0,0,0,0,0,0,0,0,0,0,0,0,0,0],"split_type":[0,0,0,0,0,0,0,0,0,0,0,0,0,0,0,0,0,0,0,0,0,0,0,0,0,0,0,0,0,0,0],"sum_hessian":[2.8869604E3,2.3963374E3,4.9062302E2,7.20145E2,1.6761925E3,5.9874516E1,4.307485E2,4.2173047E2,2.9841455E2,1.0576846E3,6.1850793E2,1.0846654E1,4.9027863E1,3.815213E2,4.9227192E1,2.757775E2,1.4595297E2,6.567017E1,2.3274438E2,2.4365134E2,8.140332E2,2.9783865E2,3.2066928E2,5.5553355E0,5.291319E0,4.4960304E1,4.0675583E0,2.0701742E1,3.6081958E2,2.0178867E1,2.9048325E1],"tree_param":{"num_deleted":"0","num_feature":"5377","num_nodes":"31","size_leaf_vector":"1"}},{"base_weights":[-2.8859678E-4,5.7689358E-2,-5.321247E-1,9.423261E-2,-6.3116455E-1,-2.1499723E-1,-8.255378E-1,1.5846922E-1,-3.2907277E-1,2.6973844E-2,-8.4820086E-1,3.0100676E-1,-4.9314266E-1,-8.9302075E-1,1.258272E-2,9.905224E-3,-2.9575353E-2,-3.562553E-2,-1.8265735E-3,-4.0941473E-2,2.4153769E-2,4.1659873E-2,-4.593462E-2,-2.6458627E-2,3.5183635E-2,-3.0219877E-2,5.592398E-2,1.4773323E-3,-4.9293105E-2,-3.232592E-2,5.5401493E-2],"categories":[],"categories_nodes":[],"categories_segments":[],"categories_sizes":[],"default_left":[0,0,0,0,0,0,0,0,0,0,0,0,0,0,0,0,0,0,0,0,0,0,0,0,0,0,0,0,0,0,0],"id":22,"left_children":[1,3,5,7,9,11,13,15,17,19,21,23,25,27,29,-1,-1,-1,-1,-1,-1,-1,-1,-1,-1,-1,-1,-1,-1,-1,-1],"loss_changes":[8.9139046E1,6.56778E1,2.6264153E1,6.738562E1,1.8798794E1,1.994291E1,8.339554E0,6.404678E1,3.6607594E1,1.334479E1,1.2485176E1,1.6727446E1,1.6811605E1,1.170285E1,9.35073E0,0E0,0E0,0E0,0E0,0E0,0E0,0E0,0E0,0E0,0E0,0E0,0E0,0E0,0E0,0E0,0E0],"parents":[2147483647,0,0,1,1,2,2,3,3,4,4,5,5,6,6,7,7,8,8,9,9,10,10,11,11,12,12,13,13,14,14],"right_children":[2,4,6,8,10,12,14,16,18,20,22,24,26,28,30,-1,-1,-1,-1,-1,-1,-1,-1,-1,-1,-1,-1,-1,-1,-1,-1],"split_conditions":[4.444158E-1,1.782898E0,1.095722E-2,8.6274505E-1,-1.2878922E-1,-3.440456E-1,3.0411036E0,1.3532741E0,-6.0827374E-1,-6.616373E-1,-1.5382822E0,-1.9768882E-1,2.4231172E0,-1.3201983E0,3.0450982E-3,9.905224E-3,-2.9575353E-2,-3.562553E-2,-1.8265735E-3,-4.0941473E-2,2.4153769E-2,4.1659873E-2,-4.593462E-2,-2.6458627E-2,3.5183635E-2,-3.0219877E-2,5.592398E-2,1.4773323E-3,-4.9293105E-2,-3.232592E-2,5.5401493E-2],"split_indices":[770,686,2309,3059,15,1158,745,19,3345,2821,5084,3242,1124,1121,532,0,0,0,0,0,0,0,0,0,0,0,0,0,0,0,0],"split_type":[0,0,0,0,0,0,0,0,0,0,0,0,0,0,0,0,0,0,0,0,0,0,0,0,0,0,0,0,0,0,0],"sum_hessian":[2.8888662E3,2.6056982E3,2.831679E2,2.475251E3,1.3044728E2,1.3691734E2,1.4625056E2,2.149665E3,3.255861E2,3.2567047E1,9.7880226E1,4.792558E1,8.899176E1,1.3529178E2,1.0958787E1,2.0424595E3,1.07205444E2,1.4028156E2,1.8530452E2,1.1130731E1,2.1436317E1,3.5030873E0,9.437714E1,1.5550607E1,3.2374973E1,8.3829735E1,5.1620307E0,1.2432396E1,1.22859375E2,7.0979524E0,3.8608346E0],"tree_param":{"num_deleted":"0","num_feature":"5377","num_nodes":"31","size_leaf_vector":"1"}},{"base_weights":[7.5177606E-3,6.911691E-2,-4.8286596E-1,2.655175E-1,-6.1952382E-2,-2.8655553E-1,-8.129196E-1,4.1931626E-1,-1.0985893E-1,-6.790065E-1,1.4821475E-2,-4.315839E-1,5.3237057E-1,2.5447807E-1,-9.0069336E-1,2.8855925E-2,-1.7149294E-3,2.445487E-2,-1.7567879E-2,-1.4197524E-2,-5.121659E-2,6.033649E-3,-2.2169283E-2,-2.5685137E-2,4.666749E-2,-2.839523E-2,4.5954563E-2,-2.9364724E-2,7.901115E-2,1.6610464E-2,-4.8038136E-2],"categories":[],"categories_nodes":[],"categories_segments":[],"categories_sizes":[],"default_left":[0,0,0,0,0,0,0,0,0,0,0,0,0,0,0,0,0,0,0,0,0,0,0,0,0,0,0,0,0,0,0],"id":23,"left_children":[1,3,5,7,9,11,13,15,17,19,21,23,25,27,29,-1,-1,-1,-1,-1,-1,-1,-1,-1,-1,-1,-1,-1,-1,-1,-1],"loss_changes":[8.681173E1,6.573739E1,2.0547142E1,5.9051186E1,7.258689E1,2.4297646E1,1.1384628E1,5.193113E1,4.3253277E1,2.2838554E1,6.618425E1,1.9838058E1,1.3685312E1,1.1894622E1,8.483612E0,0E0,0E0,0E0,0E0,0E0,0E0,0E0,0E0,0E0,0E0,0E0,0E0,0E0,0E0,0E0,0E0],"parents":[2147483647,0,0,1,1,2,2,3,3,4,4,5,5,6,6,7,7,8,8,9,9,10,10,11,11,12,12,13,13,14,14],"right_children":[2,4,6,8,10,12,14,16,18,20,22,24,26,28,30,-1,-1,-1,-1,-1,-1,-1,-1,-1,-1,-1,-1,-1,-1,-1,-1],"split_conditions":[1.4246269E-1,-1.0973307E-1,4.6280667E-1,2.413107E-1,-1.0191857E0,1.1783311E0,-2.3794565E-1,6.5394175E-1,-3.5365185E-1,-1.4485016E-1,8.1115866E-1,1.0089135E0,-2.905839E-1,3.5223488E-3,-2.0843334E0,2.8855925E-2,-1.7149294E-3,2.445487E-2,-1.7567879E-2,-1.4197524E-2,-5.121659E-2,6.033649E-3,-2.2169283E-2,-2.5685137E-2,4.666749E-2,-2.839523E-2,4.5954563E-2,-2.9364724E-2,7.901115E-2,1.6610464E-2,-4.8038136E-2],"split_indices":[2375,673,2727,97,3137,2699,2457,2715,2850,3236,3139,574,764,4722,965,0,0,0,0,0,0,0,0,0,0,0,0,0,0,0,0],"split_type":[0,0,0,0,0,0,0,0,0,0,0,0,0,0,0,0,0,0,0,0,0,0,0,0,0,0,0,0,0,0,0],"sum_hessian":[2.8717688E3,2.5520537E3,3.1971512E2,1.0210448E3,1.5310089E3,2.0164703E2,1.1806807E2,7.242067E2,2.9683807E2,1.685421E2,1.3624668E3,1.7171077E2,2.993627E1,8.826887E0,1.0924119E2,5.370923E2,1.8711441E2,8.499967E1,2.1183841E2,7.946058E1,8.908152E1,1.107384E3,2.5508275E2,1.625546E2,9.156169E0,7.6636333E0,2.2272636E1,5.739585E0,3.0873017E0,4.8646946E0,1.0437649E2],"tree_param":{"num_deleted":"0","num_feature":"5377","num_nodes":"31","size_leaf_vector":"1"}},{"base_weights":[1.4395964E-4,9.837926E-2,-3.119117E-1,3.784016E-1,-1.7852264E-2,-7.408291E-1,-2.0170486E-1,5.084749E-1,-1.6711228E-1,2.9627246E-1,-1.4549923E-1,-2.5665745E-1,-9.9447894E-1,-3.1519747E-1,2.9954132E-1,3.366923E-2,-7.894773E-6,1.2845077E-2,-2.3597121E-2,2.3505626E-2,-1.5985666E-2,-3.04831E-2,-2.6533157E-3,-3.5736207E-2,9.778853E-3,-7.9371285E-4,-5.4312494E-2,-2.247338E-2,1.3501763E-2,3.7823062E-2,-1.5643151E-2],"categories":[],"categories_nodes":[],"categories_segments":[],"categories_sizes":[],"default_left":[0,0,0,0,0,0,0,0,0,0,0,0,0,0,0,0,0,0,0,0,0,0,0,0,0,0,0,0,0,0,0],"id":24,"left_children":[1,3,5,7,9,11,13,15,17,19,21,23,25,27,29,-1,-1,-1,-1,-1,-1,-1,-1,-1,-1,-1,-1,-1,-1,-1,-1],"loss_changes":[8.822598E1,7.125159E1,3.2423347E1,4.564789E1,6.2106647E1,1.6998009E1,3.135975E1,4.3511185E1,1.6197989E1,4.807692E1,4.7216324E1,1.0423898E1,8.230888E0,3.5373486E1,2.877239E1,0E0,0E0,0E0,0E0,0E0,0E0,0E0,0E0,0E0,0E0,0E0,0E0,0E0,0E0,0E0,0E0],"parents":[2147483647,0,0,1,1,2,2,3,3,4,4,5,5,6,6,7,7,8,8,9,9,10,10,11,11,12,12,13,13,14,14],"right_children":[2,4,6,8,10,12,14,16,18,20,22,24,26,28,30,-1,-1,-1,-1,-1,-1,-1,-1,-1,-1,-1,-1,-1,-1,-1,-1],"split_conditions":[-1.8481417E-2,-4.6896243E-1,-1.093339E0,6.105782E-1,-5.3916293E-1,-3.5863551E-1,9.963951E-1,4.1771406E-1,-3.4166995E-1,3.530982E-1,-6.2339926E-1,5.722499E-2,-1.1840085E0,6.9717354E-1,4.659029E-1,3.366923E-2,-7.894773E-6,1.2845077E-2,-2.3597121E-2,2.3505626E-2,-1.5985666E-2,-3.04831E-2,-2.6533157E-3,-3.5736207E-2,9.778853E-3,-7.9371285E-4,-5.4312494E-2,-2.247338E-2,1.3501763E-2,3.7823062E-2,-1.5643151E-2],"split_indices":[2359,3171,68,3187,714,818,5,545,2274,771,120,1318,1,2923,139,0,0,0,0,0,0,0,0,0,0,0,0,0,0,0,0],"split_type":[0,0,0,0,0,0,0,0,0,0,0,0,0,0,0,0,0,0,0,0,0,0,0,0,0,0,0,0,0,0,0],"sum_hessian":[2.876039E3,2.1879546E3,6.8808453E2,6.4112213E2,1.5468324E3,1.3948734E2,5.485972E2,5.177393E2,1.2338276E2,4.4656516E2,1.1002672E3,4.8644886E1,9.0842445E1,4.476183E2,1.0097894E2,3.9073175E2,1.2700758E2,5.16691E1,7.171365E1,3.484612E2,9.810395E1,1.8179028E2,9.184769E2,2.3878258E1,2.4766628E1,7.8891287E0,8.2953316E1,3.642746E2,8.334367E1,5.769614E1,4.32828E1],"tree_param":{"num_deleted":"0","num_feature":"5377","num_nodes":"31","size_leaf_vector":"1"}},{"base_weights":[-6.610547E-4,5.8260605E-2,-4.7432274E-1,8.755373E-2,-7.608847E-1,-2.5732931E-1,-7.715874E-1,2.8457373E-1,-3.847918E-2,4.125039E-2,-8.547231E-1,-3.431521E-1,8.0964094E-1,3.4723887E-1,-8.3407867E-1,2.684973E-2,3.253387E-3,1.2581396E-2,-9.272269E-3,-1.9435328E-2,-5.79138E-2,-3.1407706E-2,2.5892567E-3,-2.9350678E-2,6.589307E-2,6.6734724E-2,-3.372496E-2,-1.311789E-2,-4.7951877E-2],"categories":[],"categories_nodes":[],"categories_segments":[],"categories_sizes":[],"default_left":[0,0,0,0,0,0,0,0,0,0,0,0,0,0,0,0,0,0,0,0,0,0,0,0,0,0,0,0,0],"id":25,"left_children":[1,3,5,7,9,11,13,15,17,-1,19,21,23,25,27,-1,-1,-1,-1,-1,-1,-1,-1,-1,-1,-1,-1,-1,-1],"loss_changes":[7.998273E1,6.1225864E1,2.0253174E1,6.1137314E1,1.3816395E1,1.7197742E1,9.608421E0,5.318445E1,6.409405E1,0E0,1.1386082E1,1.9361115E1,1.0749064E1,8.726182E0,8.787704E0,0E0,0E0,0E0,0E0,0E0,0E0,0E0,0E0,0E0,0E0,0E0,0E0,0E0,0E0],"parents":[2147483647,0,0,1,1,2,2,3,3,4,4,5,5,6,6,7,7,8,8,10,10,11,11,12,12,13,13,14,14],"right_children":[2,4,6,8,10,12,14,16,18,-1,20,22,24,26,28,-1,-1,-1,-1,-1,-1,-1,-1,-1,-1,-1,-1,-1,-1],"split_conditions":[1.4246269E-1,6.1801486E-2,3.3866557E-1,-1.15013584E-1,-1.5029076E0,2.206049E0,-3.7613636E-1,-1.8960725E-1,-3.5321304E-1,4.125039E-2,-9.1039166E-2,-2.2155347E-1,-9.287762E-1,-3.633364E-1,-1.156177E0,2.684973E-2,3.253387E-3,1.2581396E-2,-9.272269E-3,-1.9435328E-2,-5.79138E-2,-3.1407706E-2,2.5892567E-3,-2.9350678E-2,6.589307E-2,6.6734724E-2,-3.372496E-2,-1.311789E-2,-4.7951877E-2],"split_indices":[2375,2343,2727,1,463,676,2275,3234,3139,0,2316,542,3217,2294,2982,0,0,0,0,0,0,0,0,0,0,0,0,0,0],"split_type":[0,0,0,0,0,0,0,0,0,0,0,0,0,0,0,0,0,0,0,0,0,0,0,0,0,0,0,0,0],"sum_hessian":[2.8638567E3,2.5477976E3,3.1605905E2,2.4606948E3,8.7102806E1,1.83775E2,1.3228406E2,9.5950226E2,1.5011926E3,4.43072E0,8.267209E1,1.7072125E2,1.3053742E1,6.756735E0,1.2552732E2,4.456178E2,5.1388446E2,5.0453763E2,9.9665497E2,3.3509144E1,4.916295E1,9.881907E1,7.190218E1,3.4413726E0,9.61237E0,3.2802498E0,3.476485E0,2.307096E1,1.0245636E2],"tree_param":{"num_deleted":"0","num_feature":"5377","num_nodes":"29","size_leaf_vector":"1"}},{"base_weights":[-1.827913E-3,-4.7494057E-1,5.486963E-2,-9.684684E-1,-3.233951E-1,-8.789945E-2,2.2314374E-1,1.6315132E-3,-1.0569032E0,-8.654221E-1,-1.6938765E-1,7.8273505E-2,-3.636074E-1,9.18342E-2,6.2893885E-1,-2.0561812E-3,-5.767544E-2,-4.991434E-2,2.2623157E-2,5.7986635E-3,-3.0310035E-2,1.0352746E-3,3.378537E-2,-8.403157E-3,-3.6217954E-2,1.0639246E-2,-2.1915507E-2,3.7535366E-2,-1.498238E-2],"categories":[],"categories_nodes":[],"categories_segments":[],"categories_sizes":[],"default_left":[0,0,0,0,0,0,0,0,0,0,0,0,0,0,0,0,0,0,0,0,0,0,0,0,0,0,0,0,0],"id":26,"left_children":[1,3,5,7,9,11,13,-1,15,17,19,21,23,25,27,-1,-1,-1,-1,-1,-1,-1,-1,-1,-1,-1,-1,-1,-1],"loss_changes":[7.685284E1,2.2618126E1,6.148515E1,6.3669815E0,1.9559954E1,6.347553E1,6.2531708E1,0E0,6.4048157E0,9.555382E0,2.314072E1,2.9732136E1,3.6628326E1,5.7073112E1,3.26764E1,0E0,0E0,0E0,0E0,0E0,0E0,0E0,0E0,0E0,0E0,0E0,0E0,0E0,0E0],"parents":[2147483647,0,0,1,1,2,2,3,3,4,4,5,5,6,6,8,8,9,9,10,10,11,11,12,12,13,13,14,14],"right_children":[2,4,6,8,10,12,14,-1,16,18,20,22,24,26,28,-1,-1,-1,-1,-1,-1,-1,-1,-1,-1,-1,-1,-1,-1],"split_conditions":[-6.466728E-1,-8.6248857E-1,2.6616124E-2,-4.21032E-1,-2.441287E-1,-1.7474154E-1,4.362085E-1,1.6315132E-3,-1.5987492E0,1.46971E0,6.629046E-1,1.1079113E0,1.22225545E-1,8.140341E-1,3.9906454E-1,-2.0561812E-3,-5.767544E-2,-4.991434E-2,2.2623157E-2,5.7986635E-3,-3.0310035E-2,1.0352746E-3,3.378537E-2,-8.403157E-3,-3.6217954E-2,1.0639246E-2,-2.1915507E-2,3.7535366E-2,-1.498238E-2],"split_indices":[542,41,5,840,4331,2310,2693,0,1376,2272,2247,2763,3238,2990,2391,0,0,0,0,0,0,0,0,0,0,0,0,0,0],"split_type":[0,0,0,0,0,0,0,0,0,0,0,0,0,0,0,0,0,0,0,0,0,0,0,0,0,0,0,0,0],"sum_hessian":[2.8630713E3,3.0560162E2,2.5574697E3,7.0527824E1,2.350738E2,1.3838474E3,1.1736222E3,5.775791E0,6.475204E1,5.09913E1,1.840825E2,8.63887E2,5.199604E2,8.8762555E2,2.859967E2,5.7472324E0,5.9004803E1,4.6541637E1,4.449659E0,1.1178813E2,7.229438E1,7.889038E2,7.4983185E1,3.3813907E2,1.8182133E2,7.2322314E2,1.6440237E2,2.5301024E2,3.2986473E1],"tree_param":{"num_deleted":"0","num_feature":"5377","num_nodes":"29","size_leaf_vector":"1"}},{"base_weights":[-4.4354247E-3,6.9903016E-2,-3.5710967E-1,2.8213955E-2,5.9208393E-1,-1.6578184E-1,-6.8676907E-1,-2.4017264E-1,1.11580245E-1,1.8663862E-1,8.7911683E-1,5.532305E-2,-4.8447025E-1,-3.120993E-1,-9.7942626E-1,-3.8523488E-3,-3.535908E-2,9.56783E-3,-1.21554425E-2,4.5118988E-2,-1.0701799E-2,5.0448555E-2,-1.13433385E-2,1.0715446E-2,-3.6659136E-2,-1.0921122E-3,-3.4429144E-2,-2.9016523E-2,3.5004452E-2,-1.3539071E-2,-5.493438E-2],"categories":[],"categories_nodes":[],"categories_segments":[],"categories_sizes":[],"default_left":[0,0,0,0,0,0,0,0,0,0,0,0,0,0,0,0,0,0,0,0,0,0,0,0,0,0,0,0,0,0,0],"id":27,"left_children":[1,3,5,7,9,11,13,15,17,19,21,23,25,27,29,-1,-1,-1,-1,-1,-1,-1,-1,-1,-1,-1,-1,-1,-1,-1,-1],"loss_changes":[7.519725E1,5.1553646E1,3.1380257E1,4.913546E1,2.0212898E1,2.2382952E1,1.9766312E1,3.9598137E1,4.745204E1,2.1370918E1,1.4913567E1,2.375161E1,1.2266346E1,2.2600597E1,8.348976E0,0E0,0E0,0E0,0E0,0E0,0E0,0E0,0E0,0E0,0E0,0E0,0E0,0E0,0E0,0E0,0E0],"parents":[2147483647,0,0,1,1,2,2,3,3,4,4,5,5,6,6,7,7,8,8,9,9,10,10,11,11,12,12,13,13,14,14],"right_children":[2,4,6,8,10,12,14,16,18,20,22,24,26,28,30,-1,-1,-1,-1,-1,-1,-1,-1,-1,-1,-1,-1,-1,-1,-1,-1],"split_conditions":[9.076635E-2,1.2481451E0,2.7749103E-1,-5.494953E-1,-9.060864E-2,9.5374686E-1,-2.749997E-2,6.30851E-1,2.5325122E-1,-3.069079E-1,1.0778913E0,9.3864375E-1,-1.4870473E0,4.8908412E-1,-1.7445462E0,-3.8523488E-3,-3.535908E-2,9.56783E-3,-1.21554425E-2,4.5118988E-2,-1.0701799E-2,5.0448555E-2,-1.13433385E-2,1.0715446E-2,-3.6659136E-2,-1.0921122E-3,-3.4429144E-2,-2.9016523E-2,3.5004452E-2,-1.3539071E-2,-5.493438E-2],"split_indices":[2409,10,2955,2854,1211,3575,2339,2993,772,2287,6,12,571,1207,543,0,0,0,0,0,0,0,0,0,0,0,0,0,0,0,0],"split_type":[0,0,0,0,0,0,0,0,0,0,0,0,0,0,0,0,0,0,0,0,0,0,0,0,0,0,0,0,0,0,0],"sum_hessian":[2.8662837E3,2.3679558E3,4.983278E2,2.1938599E3,1.740959E2,3.1627243E2,1.8205537E2,5.1950433E2,1.6743556E3,7.284695E1,1.0124896E2,1.8721188E2,1.2906053E2,8.074688E1,1.0130849E2,3.8588144E2,1.3362292E2,1.3672871E3,3.0706845E2,2.5694923E1,4.7152023E1,9.0688835E1,1.0560123E1,1.5640439E2,3.0807499E1,3.984884E1,8.921169E1,6.416875E1,1.6578136E1,1.5064775E1,8.624371E1],"tree_param":{"num_deleted":"0","num_feature":"5377","num_nodes":"31","size_leaf_vector":"1"}},{"base_weights":[-9.110093E-3,7.363933E-2,-3.300369E-1,-4.9898833E-2,2.5860044E-1,-1.0053498E0,-2.4657317E-1,2.4100037E-1,-2.1080959E-1,-4.2381257E-1,3.676406E-1,1.5583527E-2,-1.0758845E0,-1.03151225E-1,-6.461024E-1,1.8943708E-2,-2.3550684E-2,6.9980673E-3,-1.7274085E-2,6.287446E-2,-2.5741031E-2,2.0869859E-2,-3.945292E-2,-1.2078893E-2,-5.819226E-2,5.0249822E-2,-8.264346E-3,3.8271986E-2,-3.666325E-2],"categories":[],"categories_nodes":[],"categories_segments":[],"categories_sizes":[],"default_left":[0,0,0,0,0,0,0,0,0,0,0,0,0,0,0,0,0,0,0,0,0,0,0,0,0,0,0,0,0],"id":28,"left_children":[1,3,5,7,9,11,13,15,17,19,21,-1,23,25,27,-1,-1,-1,-1,-1,-1,-1,-1,-1,-1,-1,-1,-1,-1],"loss_changes":[7.559691E1,5.172649E1,3.2642105E1,6.3605145E1,6.760574E1,6.2677994E0,2.9768139E1,4.769403E1,4.1369324E1,1.982731E1,4.534233E1,0E0,4.183655E0,2.6628683E1,1.7459343E1,0E0,0E0,0E0,0E0,0E0,0E0,0E0,0E0,0E0,0E0,0E0,0E0,0E0,0E0],"parents":[2147483647,0,0,1,1,2,2,3,3,4,4,5,5,6,6,7,7,8,8,9,9,10,10,12,12,13,13,14,14],"right_children":[2,4,6,8,10,12,14,16,18,20,22,-1,24,26,28,-1,-1,-1,-1,-1,-1,-1,-1,-1,-1,-1,-1,-1,-1],"split_conditions":[3.5955377E-2,2.9614294E-1,-1.7631274E0,-3.1354555E-1,-1.3528908E0,-1.2915368E0,7.638429E-1,3.9298198E-1,-2.0098539E-1,-1.4080683E0,1.3623176E0,1.5583527E-2,-1.0974001E0,-1.5366027E0,-1.8210254E0,1.8943708E-2,-2.3550684E-2,6.9980673E-3,-1.7274085E-2,6.287446E-2,-2.5741031E-2,2.0869859E-2,-3.945292E-2,-1.2078893E-2,-5.819226E-2,5.0249822E-2,-8.264346E-3,3.8271986E-2,-3.666325E-2],"split_indices":[2389,483,3170,898,672,805,218,770,2690,2927,3255,0,3720,15,44,0,0,0,0,0,0,0,0,0,0,0,0,0,0],"split_type":[0,0,0,0,0,0,0,0,0,0,0,0,0,0,0,0,0,0,0,0,0,0,0,0,0,0,0,0,0],"sum_hessian":[2.844728E3,2.262201E3,5.825271E2,1.356743E3,9.0545795E2,6.2861713E1,5.1966534E2,4.830227E2,8.7372034E2,1.2434915E2,7.8110876E2,3.021716E0,5.9839996E1,3.8332025E2,1.363451E2,4.050559E2,7.79668E1,2.423775E2,6.3134283E2,5.7271566E0,1.18621994E2,7.4950714E2,3.1601643E1,6.0645127E0,5.3775482E1,1.9546555E1,3.637737E2,7.4770656E0,1.2886803E2],"tree_param":{"num_deleted":"0","num_feature":"5377","num_nodes":"29","size_leaf_vector":"1"}},{"base_weights":[2.4992768E-3,6.878476E-2,-3.4737566E-1,-7.0364386E-2,2.3149997E-1,-1.6886878E-1,-6.5657365E-1,-1.9915836E-1,2.2836182E-1,9.785645E-2,6.9309396E-1,-5.2103424E-1,8.1809156E-2,-7.6989645E-1,1.8430288E-1,2.0160712E-2,-1.3649288E-2,1.5053702E-2,-5.1787682E-2,1.94426E-2,-5.99016E-3,4.9263492E-2,1.0706993E-2,-1.3034443E-2,-4.2657476E-2,-2.0364583E-2,1.6474493E-2,-4.2734142E-2,9.308239E-3,-3.1653643E-2,4.641027E-2],"categories":[],"categories_nodes":[],"categories_segments":[],"categories_sizes":[],"default_left":[0,0,0,0,0,0,0,0,0,0,0,0,0,0,0,0,0,0,0,0,0,0,0,0,0,0,0,0,0,0,0],"id":29,"left_children":[1,3,5,7,9,11,13,15,17,19,21,23,25,27,29,-1,-1,-1,-1,-1,-1,-1,-1,-1,-1,-1,-1,-1,-1,-1,-1],"loss_changes":[6.60298E1,5.4211853E1,2.491903E1,4.9715958E1,6.80128E1,2.554254E1,1.5925552E1,4.0250874E1,3.610353E1,5.4326607E1,3.4440598E1,1.0174797E1,2.0680206E1,1.20069275E1,1.3039417E1,0E0,0E0,0E0,0E0,0E0,0E0,0E0,0E0,0E0,0E0,0E0,0E0,0E0,0E0,0E0,0E0],"parents":[2147483647,0,0,1,1,2,2,3,3,4,4,5,5,6,6,7,7,8,8,9,9,10,10,11,11,12,12,13,13,14,14],"right_children":[2,4,6,8,10,12,14,16,18,20,22,24,26,28,30,-1,-1,-1,-1,-1,-1,-1,-1,-1,-1,-1,-1,-1,-1,-1,-1],"split_conditions":[1.1242934E-1,3.5941523E-2,2.7749103E-1,5.1742387E-1,4.6160704E-1,-6.0397506E-1,4.935248E-1,-9.6372294E-1,1.2512496E0,-2.3817447E-1,2.0966826E-1,1.1994652E0,-2.1635173E-1,1.532392E0,-4.9980107E-1,2.0160712E-2,-1.3649288E-2,1.5053702E-2,-5.1787682E-2,1.94426E-2,-5.99016E-3,4.9263492E-2,1.0706993E-2,-1.3034443E-2,-4.2657476E-2,-2.0364583E-2,1.6474493E-2,-4.2734142E-2,9.308239E-3,-3.1653643E-2,4.641027E-2],"split_indices":[2409,5,2955,2692,452,574,555,687,2695,3146,153,847,2346,2699,193,0,0,0,0,0,0,0,0,0,0,0,0,0,0,0,0],"split_type":[0,0,0,0,0,0,0,0,0,0,0,0,0,0,0,0,0,0,0,0,0,0,0,0,0,0,0,0,0,0,0],"sum_hessian":[2.845109E3,2.3926191E3,4.5248975E2,1.2900095E3,1.1026097E3,2.8785233E2,1.6463742E2,9.0161646E2,3.883931E2,8.559902E2,2.4661954E2,1.1924799E2,1.6860432E2,1.4515912E2,1.9478313E1,9.795122E1,8.036652E2,3.679882E2,2.040493E1,3.659519E2,4.9003827E2,1.525205E2,9.409905E1,6.784735E1,5.1400642E1,5.646236E1,1.1214196E2,1.3343199E2,1.17271185E1,9.351822E0,1.0126492E1],"tree_param":{"num_deleted":"0","num_feature":"5377","num_nodes":"31","size_leaf_vector":"1"}},{"base_weights":[-1.278167E-2,4.9882714E-2,-3.7744814E-1,5.858007E-3,5.783019E-1,-5.379952E-1,-7.0396825E-3,9.087272E-2,-2.5847083E-1,9.3480843E-1,1.9990526E-1,2.0102616E-2,-6.5282726E-1,-3.976706E-1,5.2362204E-1,1.252013E-2,-5.3142784E-3,-1.7091103E-2,2.4300365E-2,5.688247E-2,-4.4724885E-3,2.7506782E-2,-1.7178597E-2,4.049213E-2,-2.3771783E-2,3.233528E-2,-3.5215694E-2,1.5151121E-2,-3.3892505E-2,-6.0143434E-3,4.4642687E-2],"categories":[],"categories_nodes":[],"categories_segments":[],"categories_sizes":[],"default_left":[0,0,0,0,0,0,0,0,0,0,0,0,0,0,0,0,0,0,0,0,0,0,0,0,0,0,0,0,0,0,0],"id":30,"left_children":[1,3,5,7,9,11,13,15,17,19,21,23,25,27,29,-1,-1,-1,-1,-1,-1,-1,-1,-1,-1,-1,-1,-1,-1,-1,-1],"loss_changes":[6.5111496E1,5.6565792E1,2.4843365E1,5.0487816E1,2.5039753E1,1.8692818E1,2.660745E1,5.3493374E1,3.4094097E1,2.0049706E1,1.7698135E1,2.0229525E1,1.66315E1,1.4717928E1,1.3048077E1,0E0,0E0,0E0,0E0,0E0,0E0,0E0,0E0,0E0,0E0,0E0,0E0,0E0,0E0,0E0,0E0],"parents":[2147483647,0,0,1,1,2,2,3,3,4,4,5,5,6,6,7,7,8,8,9,9,10,10,11,11,12,12,13,13,14,14],"right_children":[2,4,6,8,10,12,14,16,18,20,22,24,26,28,30,-1,-1,-1,-1,-1,-1,-1,-1,-1,-1,-1,-1,-1,-1,-1,-1],"split_conditions":[2.1772307E-1,1.2734275E0,6.461753E-1,2.9165067E-2,7.055607E-2,-1.8755208E-1,-3.129438E-1,4.4384736E-1,1.0098798E0,5.0538075E-1,-1.0557194E-1,-1.09236635E-1,-8.200612E-2,7.732948E-2,-4.5703042E-1,1.252013E-2,-5.3142784E-3,-1.7091103E-2,2.4300365E-2,5.688247E-2,-4.4724885E-3,2.7506782E-2,-1.7178597E-2,4.049213E-2,-2.3771783E-2,3.233528E-2,-3.5215694E-2,1.5151121E-2,-3.3892505E-2,-6.0143434E-3,4.4642687E-2],"split_indices":[2455,10,676,2247,2786,2271,3004,674,2918,2701,2709,2391,2345,2447,906,0,0,0,0,0,0,0,0,0,0,0,0,0,0,0,0],"split_type":[0,0,0,0,0,0,0,0,0,0,0,0,0,0,0,0,0,0,0,0,0,0,0,0,0,0,0,0,0,0,0],"sum_hessian":[2.8474949E3,2.430671E3,4.168239E2,2.2446697E3,1.8600127E2,2.9047162E2,1.26352295E2,1.6989132E3,5.457565E2,9.501367E1,9.0987595E1,4.9708267E1,2.4076335E2,7.292288E1,5.342941E1,9.3891974E2,7.5999347E2,4.9129254E2,5.4463898E1,7.921539E1,1.579828E1,5.5323494E1,3.56641E1,1.892045E1,3.0787815E1,8.734779E0,2.3202856E2,2.0806631E1,5.2116253E1,1.9717674E1,3.3711735E1],"tree_param":{"num_deleted":"0","num_feature":"5377","num_nodes":"31","size_leaf_vector":"1"}},{"base_weights":[-7.6098484E-3,6.357838E-2,-3.2184902E-1,1.2783012E-1,-3.7139675E-1,-5.1479644E-1,-5.383329E-2,2.3008327E-1,-1.7467031E-1,-6.4335155E-1,-2.9479183E-2,-3.1546223E-1,-8.1679136E-1,-5.3486484E-1,1.59768E-1,1.8694263E-2,-3.5580385E-3,-1.5843166E-2,1.6607119E-2,3.6683727E-2,-3.5712272E-2,1.7685592E-2,-2.7537633E-2,-4.596835E-2,-8.532605E-3,-4.362921E-2,2.2150433E-2,2.7810026E-2,-3.760309E-2,-2.4476023E-2,1.9616392E-2],"categories":[],"categories_nodes":[],"categories_segments":[],"categories_sizes":[],"default_left":[0,0,0,0,0,0,0,0,0,0,0,0,0,0,0,0,0,0,0,0,0,0,0,0,0,0,0,0,0,0,0],"id":31,"left_children":[1,3,5,7,9,11,13,15,17,19,21,23,25,27,29,-1,-1,-1,-1,-1,-1,-1,-1,-1,-1,-1,-1,-1,-1,-1,-1],"loss_changes":[6.378639E1,6.502202E1,2.720689E1,6.2719265E1,2.7827518E1,1.8168358E1,2.2850403E1,6.565052E1,3.7038155E1,1.6802803E1,2.6904518E1,1.6110388E1,8.896713E0,1.661796E1,2.3475855E1,0E0,0E0,0E0,0E0,0E0,0E0,0E0,0E0,0E0,0E0,0E0,0E0,0E0,0E0,0E0,0E0],"parents":[2147483647,0,0,1,1,2,2,3,3,4,4,5,5,6,6,7,7,8,8,9,9,10,10,11,11,12,12,13,13,14,14],"right_children":[2,4,6,8,10,12,14,16,18,20,22,24,26,28,30,-1,-1,-1,-1,-1,-1,-1,-1,-1,-1,-1,-1,-1,-1,-1,-1],"split_conditions":[3.147357E-2,8.6274505E-1,-1.5551989E-1,2.9165067E-2,-2.6256323E-1,3.8169384E-1,-5.723323E-1,7.131731E-1,8.878244E-1,-1.1117321E0,-8.323347E-2,-1.121376E0,1.6305386E0,-9.170206E-1,-8.444627E-1,1.8694263E-2,-3.5580385E-3,-1.5843166E-2,1.6607119E-2,3.6683727E-2,-3.5712272E-2,1.7685592E-2,-2.7537633E-2,-4.596835E-2,-8.532605E-3,-4.362921E-2,2.2150433E-2,2.7810026E-2,-3.760309E-2,-2.4476023E-2,1.9616392E-2],"split_indices":[2375,3059,2923,2247,2897,93,2761,2691,2737,3316,2271,2962,3037,185,2694,0,0,0,0,0,0,0,0,0,0,0,0,0,0,0,0],"split_type":[0,0,0,0,0,0,0,0,0,0,0,0,0,0,0,0,0,0,0,0,0,0,0,0,0,0,0,0,0,0,0],"sum_hessian":[2.8494944E3,2.3238445E3,5.256497E2,2.0253752E3,2.9846933E2,3.050908E2,2.2055891E2,1.5138823E3,5.1149292E2,1.6575185E2,1.327175E2,1.8501486E2,1.20075935E2,6.735992E1,1.53199E2,1.0245579E3,4.8932446E2,3.9972076E2,1.1177215E2,7.6578927E0,1.5809395E2,7.667484E1,5.6042656E1,3.4749504E1,1.5026535E2,1.15277985E2,4.797953E0,1.0923929E1,5.6435986E1,4.0110043E1,1.1308897E2],"tree_param":{"num_deleted":"0","num_feature":"5377","num_nodes":"31","size_leaf_vector":"1"}},{"base_weights":[-2.2115645E-3,5.995346E-2,-3.4919676E-1,9.366681E-2,-5.95517E-1,-9.610676E-1,-2.7264124E-1,9.693836E-3,3.3726832E-1,-8.161641E-1,-7.796973E-2,-1.4501962E-1,-1.1275057E0,-6.0911417E-1,-9.318018E-2,3.4329572E-3,-2.5045345E-2,2.4073591E-2,-8.370246E-3,1.4962018E-3,-5.0665658E-2,4.5929644E-2,-2.112803E-2,4.3011356E-2,-5.5928316E-2,-9.322857E-3,-6.3893646E-2,-4.64793E-2,-1.27211185E-2,4.892563E-3,-3.1537767E-2],"categories":[],"categories_nodes":[],"categories_segments":[],"categories_sizes":[],"default_left":[0,0,0,0,0,0,0,0,0,0,0,0,0,0,0,0,0,0,0,0,0,0,0,0,0,0,0,0,0,0,0],"id":32,"left_children":[1,3,5,7,9,11,13,15,17,19,21,23,25,27,29,-1,-1,-1,-1,-1,-1,-1,-1,-1,-1,-1,-1,-1,-1,-1,-1],"loss_changes":[6.0872993E1,5.294368E1,1.9822712E1,4.6577187E1,1.3321423E1,6.25885E0,2.3039454E1,5.1049175E1,4.255992E1,1.3720306E1,1.2799009E1,9.924717E0,5.298374E0,1.4865948E1,2.5799492E1,0E0,0E0,0E0,0E0,0E0,0E0,0E0,0E0,0E0,0E0,0E0,0E0,0E0,0E0,0E0,0E0],"parents":[2147483647,0,0,1,1,2,2,3,3,4,4,5,5,6,6,7,7,8,8,9,9,10,10,11,11,12,12,13,13,14,14],"right_children":[2,4,6,8,10,12,14,16,18,20,22,24,26,28,30,-1,-1,-1,-1,-1,-1,-1,-1,-1,-1,-1,-1,-1,-1,-1,-1],"split_conditions":[1.7252126E-1,1.782898E0,-1.5330211E0,1.5630354E-1,-1.0372027E-1,-7.030548E-1,-2.8152245E-1,4.9370283E-1,8.523068E-1,-1.00292824E-1,-3.9876574E-1,-6.4084303E-1,-4.504808E-1,1.1346922E-1,1.4716038E0,3.4329572E-3,-2.5045345E-2,2.4073591E-2,-8.370246E-3,1.4962018E-3,-5.0665658E-2,4.5929644E-2,-2.112803E-2,4.3011356E-2,-5.5928316E-2,-9.322857E-3,-6.3893646E-2,-4.64793E-2,-1.27211185E-2,4.892563E-3,-3.1537767E-2],"split_indices":[2441,686,3205,759,1120,80,2932,773,3162,15,712,35,2248,901,2932,0,0,0,0,0,0,0,0,0,0,0,0,0,0,0,0],"split_type":[0,0,0,0,0,0,0,0,0,0,0,0,0,0,0,0,0,0,0,0,0,0,0,0,0,0,0,0,0,0,0],"sum_hessian":[2.8200984E3,2.3923228E3,4.277755E2,2.2761108E3,1.1621198E2,4.6285355E1,3.8149017E2,1.6934083E3,5.827026E2,8.107157E1,3.514041E1,8.157977E0,3.812738E1,1.3186372E2,2.4962643E2,1.5188712E3,1.745371E2,4.5324112E2,1.2946147E2,1.5481055E1,6.5590515E1,8.600852E0,2.6539558E1,4.0709105E0,4.0870667E0,5.5615244E0,3.2565853E1,6.8422066E1,6.344166E1,1.8478107E2,6.484538E1],"tree_param":{"num_deleted":"0","num_feature":"5377","num_nodes":"31","size_leaf_vector":"1"}},{"base_weights":[2.3095612E-3,4.44977E-2,-4.8536184E-1,9.283645E-2,-3.5221985E-1,-8.6809266E-1,-2.3158891E-1,1.8204115E-1,-1.8029276E-1,-4.5630813E-1,4.956969E-1,-9.8049575E-1,-3.5547573E-2,-6.5195805E-1,4.771818E-3,1.502108E-2,-2.2590598E-3,-1.4177248E-2,2.4235357E-2,-3.568202E-2,-5.9022596E-3,4.1458454E-2,-5.7215363E-2,-5.0613624E-3,-5.353141E-2,-2.776624E-2,4.9157586E-2,1.73541E-2,-4.4137165E-2,1.7668946E-2,-2.0410245E-2],"categories":[],"categories_nodes":[],"categories_segments":[],"categories_sizes":[],"default_left":[0,0,0,0,0,0,0,0,0,0,0,0,0,0,0,0,0,0,0,0,0,0,0,0,0,0,0,0,0,0,0],"id":33,"left_children":[1,3,5,7,9,11,13,15,17,19,21,23,25,27,29,-1,-1,-1,-1,-1,-1,-1,-1,-1,-1,-1,-1,-1,-1,-1,-1],"loss_changes":[5.82494E1,5.0002632E1,2.1693863E1,5.6644016E1,2.5223167E1,8.341835E0,1.3606609E1,4.7139507E1,3.9449642E1,2.191919E1,1.8146519E1,6.1387634E0,6.733323E0,1.1669256E1,1.2904003E1,0E0,0E0,0E0,0E0,0E0,0E0,0E0,0E0,0E0,0E0,0E0,0E0,0E0,0E0,0E0,0E0],"parents":[2147483647,0,0,1,1,2,2,3,3,4,4,5,5,6,6,7,7,8,8,9,9,10,10,11,11,12,12,13,13,14,14],"right_children":[2,4,6,8,10,12,14,16,18,20,22,24,26,28,30,-1,-1,-1,-1,-1,-1,-1,-1,-1,-1,-1,-1,-1,-1,-1,-1],"split_conditions":[5.2223164E-1,9.389403E-1,6.456495E-2,8.5060775E-2,1.0808908E0,1.8326864E0,6.247176E-2,6.37975E-1,1.2890618E0,-2.708768E-1,1.2526885E0,-2.168535E-1,-1.06212415E-1,-9.1256714E-1,3.7794855E-1,1.502108E-2,-2.2590598E-3,-1.4177248E-2,2.4235357E-2,-3.568202E-2,-5.9022596E-3,4.1458454E-2,-5.7215363E-2,-5.0613624E-3,-5.353141E-2,-2.776624E-2,4.9157586E-2,1.73541E-2,-4.4137165E-2,1.7668946E-2,-2.0410245E-2],"split_indices":[770,3059,49,2247,1124,788,896,3139,676,2897,3258,2325,4756,2705,2359,0,0,0,0,0,0,0,0,0,0,0,0,0,0,0,0],"split_type":[0,0,0,0,0,0,0,0,0,0,0,0,0,0,0,0,0,0,0,0,0,0,0,0,0,0,0,0,0,0,0],"sum_hessian":[2.8291716E3,2.6047456E3,2.244261E2,2.32252E3,2.8222552E2,8.8513145E1,1.3591295E2,1.7509791E3,5.7154083E2,2.5177951E2,3.0446018E1,7.78278E1,1.06853485E1,4.8282997E1,8.762995E1,1.1509988E3,5.999804E2,4.9522293E2,7.631792E1,1.4236568E2,1.0941384E2,2.5712208E1,4.733811E0,7.433627E0,7.039417E1,7.376474E0,3.3088748E0,8.966077E0,3.931692E1,4.7596504E1,4.0033447E1],"tree_param":{"num_deleted":"0","num_feature":"5377","num_nodes":"31","size_leaf_vector":"1"}},{"base_weights":[-8.958042E-4,-3.5345885E-1,5.4787785E-2,-7.77457E-2,-6.399306E-1,-8.318267E-2,2.1984273E-1,6.447785E-1,-2.2225712E-1,-9.055782E-1,-3.7115407E-1,6.7920014E-2,-3.248024E-1,5.845649E-2,5.315703E-1,4.892577E-2,-3.0006364E-2,4.000103E-3,-2.6234794E-2,-5.1695E-2,-1.1179406E-3,1.0390944E-2,-2.8262815E-2,4.2377133E-2,8.439543E-4,-3.655369E-2,-9.081144E-3,1.5229714E-2,-1.3224184E-2,-1.5438594E-2,3.4234848E-2],"categories":[],"categories_nodes":[],"categories_segments":[],"categories_sizes":[],"default_left":[0,0,0,0,0,0,0,0,0,0,0,0,0,0,0,0,0,0,0,0,0,0,0,0,0,0,0,0,0,0,0],"id":34,"left_children":[1,3,5,7,9,11,13,15,17,19,21,23,25,27,29,-1,-1,-1,-1,-1,-1,-1,-1,-1,-1,-1,-1,-1,-1,-1,-1],"loss_changes":[5.5341747E1,3.0319382E1,5.5457893E1,2.0719553E1,1.3117851E1,4.846128E1,5.5746773E1,1.4340115E1,1.5122144E1,1.0638733E1,1.0833848E1,3.250057E1,2.9571789E1,5.8236954E1,4.886178E1,0E0,0E0,0E0,0E0,0E0,0E0,0E0,0E0,0E0,0E0,0E0,0E0,0E0,0E0,0E0,0E0],"parents":[2147483647,0,0,1,1,2,2,3,3,4,4,5,5,6,6,7,7,8,8,9,9,10,10,11,11,12,12,13,13,14,14],"right_children":[2,4,6,8,10,12,14,16,18,20,22,24,26,28,30,-1,-1,-1,-1,-1,-1,-1,-1,-1,-1,-1,-1,-1,-1,-1,-1],"split_conditions":[-1.1069709E0,-7.328358E-3,3.5941523E-2,-7.140147E-1,2.1601826E-1,-1.7474154E-1,9.904557E-2,4.5524303E-2,-2.3814159E-2,1.0269955E0,8.838057E-3,-1.26741E0,-6.363715E-1,1.00030765E-1,-9.87588E-1,4.892577E-2,-3.0006364E-2,4.000103E-3,-2.6234794E-2,-5.1695E-2,-1.1179406E-3,1.0390944E-2,-2.8262815E-2,4.2377133E-2,8.439543E-4,-3.655369E-2,-9.081144E-3,1.5229714E-2,-1.3224184E-2,-1.5438594E-2,3.4234848E-2],"split_indices":[2934,3463,5,42,314,2310,676,2286,176,10,687,698,3172,1129,3157,0,0,0,0,0,0,0,0,0,0,0,0,0,0,0,0],"split_type":[0,0,0,0,0,0,0,0,0,0,0,0,0,0,0,0,0,0,0,0,0,0,0,0,0,0,0,0,0,0,0],"sum_hessian":[2.8169731E3,3.834971E2,2.433476E3,1.9606593E2,1.8743117E2,1.3257605E3,1.1077155E3,3.210191E1,1.6396402E2,9.307271E1,9.435846E1,8.161072E2,5.096533E2,7.306395E2,3.77076E2,2.5484074E1,6.617837E0,8.237421E1,8.158982E1,8.111676E1,1.1955953E1,2.3673597E1,7.068486E1,4.9187626E1,7.6691956E2,1.3173885E2,3.7791446E2,4.146553E2,3.1598422E2,5.79633E1,3.1911267E2],"tree_param":{"num_deleted":"0","num_feature":"5377","num_nodes":"31","size_leaf_vector":"1"}},{"base_weights":[-1.4196154E-2,6.000143E-2,-2.6528394E-1,1.1413233E-1,-3.9409012E-1,-7.228088E-1,-1.7556849E-1,3.6588436E-1,1.825225E-2,-5.289191E-1,3.596407E-1,-1.3870518E0,-5.2122897E-1,1.7360155E-1,-3.1624493E-1,2.433767E-2,-1.1176993E-2,6.111828E-3,-1.5607806E-2,-3.5309527E-2,-6.5346356E-3,3.174224E-2,-6.0883105E-2,-2.5230298E-2,-7.6271795E-2,3.1663235E-2,-3.2194678E-2,-2.065069E-2,2.0102954E-2,1.5503778E-3,-2.4741523E-2],"categories":[],"categories_nodes":[],"categories_segments":[],"categories_sizes":[],"default_left":[0,0,0,0,0,0,0,0,0,0,0,0,0,0,0,0,0,0,0,0,0,0,0,0,0,0,0,0,0,0,0],"id":35,"left_children":[1,3,5,7,9,11,13,15,17,19,21,23,25,27,29,-1,-1,-1,-1,-1,-1,-1,-1,-1,-1,-1,-1,-1,-1,-1,-1],"loss_changes":[5.2951042E1,5.3976143E1,2.6483978E1,4.733175E1,2.3961868E1,1.3465244E1,2.6743723E1,3.8640816E1,4.8870335E1,1.3943695E1,1.6438705E1,2.1693764E0,1.2146933E1,2.116437E1,2.4055481E1,0E0,0E0,0E0,0E0,0E0,0E0,0E0,0E0,0E0,0E0,0E0,0E0,0E0,0E0,0E0,0E0],"parents":[2147483647,0,0,1,1,2,2,3,3,4,4,5,5,6,6,7,7,8,8,9,9,10,10,11,11,12,12,13,13,14,14],"right_children":[2,4,6,8,10,12,14,16,18,20,22,24,26,28,30,-1,-1,-1,-1,-1,-1,-1,-1,-1,-1,-1,-1,-1,-1,-1,-1],"split_conditions":[-1.4041336E-2,1.1557984E0,-4.114368E-1,-4.770567E-1,9.7015154E-1,-7.5284386E-1,-3.5809442E-2,6.919757E-1,1.6193487E-1,2.1128419E-1,1.2726454E0,2.5830993E-2,-4.3729892E-1,-7.353012E-1,-3.7224746E-1,2.433767E-2,-1.1176993E-2,6.111828E-3,-1.5607806E-2,-3.5309527E-2,-6.5346356E-3,3.174224E-2,-6.0883105E-2,-2.5230298E-2,-7.6271795E-2,3.1663235E-2,-3.2194678E-2,-2.065069E-2,2.0102954E-2,1.5503778E-3,-2.4741523E-2],"split_indices":[2359,722,4363,2723,1124,805,2339,3139,772,10,2885,2772,321,2934,2727,0,0,0,0,0,0,0,0,0,0,0,0,0,0,0,0],"split_type":[0,0,0,0,0,0,0,0,0,0,0,0,0,0,0,0,0,0,0,0,0,0,0,0,0,0,0,0,0,0,0],"sum_hessian":[2.8403752E3,2.1930732E3,6.4730206E2,1.9601573E3,2.3291586E2,1.0496286E2,5.4233923E2,5.398524E2,1.4203049E3,1.9782649E2,3.5089367E1,2.306814E1,8.189472E1,1.5568434E2,3.8665488E2,4.481315E2,9.172091E1,1.0807935E3,3.395114E2,1.3635458E2,6.1471905E1,3.0385319E1,4.7040477E0,3.7569952E0,1.9311144E1,7.46578E0,7.442894E1,4.3410473E1,1.12273865E2,1.315967E2,2.5505817E2],"tree_param":{"num_deleted":"0","num_feature":"5377","num_nodes":"31","size_leaf_vector":"1"}},{"base_weights":[-3.0838752E-3,5.8594808E-2,-3.1893831E-1,-5.770066E-1,9.067788E-2,-1.6146842E-2,-4.842077E-1,-7.768614E-1,3.2553026E-1,1.790446E-1,-1.3112701E-1,1.8523651E-1,-7.5217193E-1,-1.8350291E-1,-7.157774E-1,-4.227818E-2,4.3345943E-2,-3.3449642E-2,5.195241E-2,-1.6156994E-3,1.5755838E-2,-1.5637074E-2,7.227731E-3,2.058874E-2,-2.0925382E-2,-2.4465937E-3,-5.9935357E-2,-4.8358973E-2,-2.0769588E-3,-6.1598215E-3,-4.286265E-2],"categories":[],"categories_nodes":[],"categories_segments":[],"categories_sizes":[],"default_left":[0,0,0,0,0,0,0,0,0,0,0,0,0,0,0,0,0,0,0,0,0,0,0,0,0,0,0,0,0,0,0],"id":36,"left_children":[1,3,5,7,9,11,13,15,17,19,21,23,25,27,29,-1,-1,-1,-1,-1,-1,-1,-1,-1,-1,-1,-1,-1,-1,-1,-1],"loss_changes":[5.492422E1,4.8152016E1,2.3041409E1,2.0721386E1,4.405078E1,2.439875E1,2.0614609E1,1.1258179E1,1.5793566E1,4.622004E1,3.211518E1,1.7858173E1,1.1044649E1,1.4529653E1,1.3976082E1,0E0,0E0,0E0,0E0,0E0,0E0,0E0,0E0,0E0,0E0,0E0,0E0,0E0,0E0,0E0,0E0],"parents":[2147483647,0,0,1,1,2,2,3,3,4,4,5,5,6,6,7,7,8,8,9,9,10,10,11,11,12,12,13,13,14,14],"right_children":[2,4,6,8,10,12,14,16,18,20,22,24,26,28,30,-1,-1,-1,-1,-1,-1,-1,-1,-1,-1,-1,-1,-1,-1,-1,-1],"split_conditions":[7.855665E-2,-1.7677838E0,-8.940928E-2,4.8694623E-1,4.1274366E-1,7.5912595E-1,-6.506982E-1,8.838232E-1,-7.492253E-1,-2.713933E-1,1.4815444E-1,8.0471165E-2,-6.5799676E-2,-8.413518E-1,-5.888953E-1,-4.227818E-2,4.3345943E-2,-3.3449642E-2,5.195241E-2,-1.6156994E-3,1.5755838E-2,-1.5637074E-2,7.227731E-3,2.058874E-2,-2.0925382E-2,-2.4465937E-3,-5.9935357E-2,-4.8358973E-2,-2.0769588E-3,-6.1598215E-3,-4.286265E-2],"split_indices":[2392,0,2455,3247,3163,3055,3088,2774,582,3263,2745,2454,2360,3146,547,0,0,0,0,0,0,0,0,0,0,0,0,0,0,0,0],"split_type":[0,0,0,0,0,0,0,0,0,0,0,0,0,0,0,0,0,0,0,0,0,0,0,0,0,0,0,0,0,0,0],"sum_hessian":[2.817344E3,2.3577478E3,4.5959625E2,1.1247659E2,2.2452712E3,1.6266817E2,2.969281E2,9.2199486E1,2.027711E1,1.6057397E3,6.3953143E2,1.2830975E2,3.435842E1,1.2996043E2,1.6696765E2,8.89667E1,3.232786E0,8.496638E0,1.1780471E1,6.2919073E2,9.765491E2,3.8546146E2,2.5406998E2,9.35323E1,3.4777443E1,1.3774614E1,2.0583807E1,1.9040283E1,1.1092015E2,3.254043E1,1.3442723E2],"tree_param":{"num_deleted":"0","num_feature":"5377","num_nodes":"31","size_leaf_vector":"1"}},{"base_weights":[2.7262773E-3,-5.46929E-1,3.7140425E-2,-7.9167587E-1,-2.193454E-1,6.797732E-2,-5.199516E-1,-1.2476183E0,-6.060102E-1,4.2047855E-1,-5.2124584E-1,-2.814507E-2,2.6801133E-1,-6.612641E-1,5.509766E-1,-9.144082E-4,-7.1168415E-2,5.9662174E-2,-3.5615742E-2,7.4390315E-2,-5.5368403E-3,1.2376407E-2,-3.7371945E-2,1.54893575E-2,-5.3865467E-3,3.309035E-3,2.7456095E-2,-1.6609803E-2,-4.8997298E-2,-3.316522E-2,6.413507E-2],"categories":[],"categories_nodes":[],"categories_segments":[],"categories_sizes":[],"default_left":[0,0,0,0,0,0,0,0,0,0,0,0,0,0,0,0,0,0,0,0,0,0,0,0,0,0,0,0,0,0,0],"id":37,"left_children":[1,3,5,7,9,11,13,15,17,19,21,23,25,27,29,-1,-1,-1,-1,-1,-1,-1,-1,-1,-1,-1,-1,-1,-1,-1,-1],"loss_changes":[5.311539E1,1.3091301E1,4.542995E1,7.227951E0,1.4152982E1,4.8168E1,2.1356438E1,5.666565E0,1.4041224E1,1.3590124E1,8.785019E0,4.555762E1,4.6093372E1,1.2572895E1,1.5702744E1,0E0,0E0,0E0,0E0,0E0,0E0,0E0,0E0,0E0,0E0,0E0,0E0,0E0,0E0,0E0,0E0],"parents":[2147483647,0,0,1,1,2,2,3,3,4,4,5,5,6,6,7,7,8,8,9,9,10,10,11,11,12,12,13,13,14,14],"right_children":[2,4,6,8,10,12,14,16,18,20,22,24,26,28,30,-1,-1,-1,-1,-1,-1,-1,-1,-1,-1,-1,-1,-1,-1,-1,-1],"split_conditions":[-1.2185005E0,1.3500103E-1,1.8393202E0,-2.2246607E-1,-1.343395E-1,4.1657454E-1,2.433536E0,-5.996153E-1,-5.4279494E-1,-1.8131419E-1,-4.8052368E-1,-7.448074E-1,4.777566E-2,3.313021E-1,1.0160817E0,-9.144082E-4,-7.1168415E-2,5.9662174E-2,-3.5615742E-2,7.4390315E-2,-5.5368403E-3,1.2376407E-2,-3.7371945E-2,1.54893575E-2,-5.3865467E-3,3.309035E-3,2.7456095E-2,-1.6609803E-2,-4.8997298E-2,-3.316522E-2,6.413507E-2],"split_indices":[2783,2745,2255,2328,2365,2967,124,3896,2582,3615,3739,2731,5,3052,3138,0,0,0,0,0,0,0,0,0,0,0,0,0,0,0,0],"split_type":[0,0,0,0,0,0,0,0,0,0,0,0,0,0,0,0,0,0,0,0,0,0,0,0,0,0,0,0,0,0,0],"sum_hessian":[2.8058997E3,1.6444984E2,2.6414497E3,9.331493E1,7.113492E1,2.5037375E3,1.3771222E2,2.5347914E1,6.796702E1,2.26787E1,4.8456215E1,1.6916891E3,8.120484E2,1.2199685E2,1.5715363E1,3.3086615E0,2.2039251E1,3.2212453E0,6.474577E1,6.9379945E0,1.5740705E1,1.0994457E1,3.7461758E1,3.219126E2,1.3697765E3,4.733965E2,3.386519E2,6.102519E1,6.0971664E1,5.94435E0,9.771012E0],"tree_param":{"num_deleted":"0","num_feature":"5377","num_nodes":"31","size_leaf_vector":"1"}},{"base_weights":[-2.539773E-3,6.608719E-2,-2.4371926E-1,-7.843585E-2,2.3490028E-1,-3.2807223E-2,-5.269308E-1,-2.5617495E-1,1.2306016E-1,-3.6197692E-1,3.159352E-1,-2.8275105E-1,2.4667676E-1,-3.798691E-1,-9.633446E-1,-1.8360892E-2,6.626166E-3,-7.733905E-3,1.5705615E-2,-2.4107939E-2,4.2184874E-2,2.414642E-2,2.501943E-3,1.8744921E-2,-2.0416796E-2,2.8270194E-2,-1.0673606E-2,-2.6239349E-2,1.7729504E-2,-5.3456362E-2,3.9697836E-5],"categories":[],"categories_nodes":[],"categories_segments":[],"categories_sizes":[],"default_left":[0,0,0,0,0,0,0,0,0,0,0,0,0,0,0,0,0,0,0,0,0,0,0,0,0,0,0,0,0,0,0],"id":38,"left_children":[1,3,5,7,9,11,13,15,17,19,21,23,25,27,29,-1,-1,-1,-1,-1,-1,-1,-1,-1,-1,-1,-1,-1,-1,-1,-1],"loss_changes":[4.6489346E1,5.336631E1,3.7147636E1,4.2249306E1,4.8908268E1,2.5055504E1,1.6674324E1,2.7096474E1,2.9400652E1,1.7947672E1,3.9439026E1,1.5786195E1,2.4964478E1,2.1498827E1,6.759556E0,0E0,0E0,0E0,0E0,0E0,0E0,0E0,0E0,0E0,0E0,0E0,0E0,0E0,0E0,0E0,0E0],"parents":[2147483647,0,0,1,1,2,2,3,3,4,4,5,5,6,6,7,7,8,8,9,9,10,10,11,11,12,12,13,13,14,14],"right_children":[2,4,6,8,10,12,14,16,18,20,22,24,26,28,30,-1,-1,-1,-1,-1,-1,-1,-1,-1,-1,-1,-1,-1,-1,-1,-1],"split_conditions":[5.0761515E-1,2.6616124E-2,3.4099445E-1,9.0648316E-2,-1.298654E0,-1.6426492E-1,1.1941709E-1,6.92519E-1,4.879722E-3,7.0729584E-1,4.756907E-1,-4.296055E-1,-3.011103E-2,6.1602736E-1,1.9053789E0,-1.8360892E-2,6.626166E-3,-7.733905E-3,1.5705615E-2,-2.4107939E-2,4.2184874E-2,2.414642E-2,2.501943E-3,1.8744921E-2,-2.0416796E-2,2.8270194E-2,-1.0673606E-2,-2.6239349E-2,1.7729504E-2,-5.3456362E-2,3.9697836E-5],"split_indices":[3334,5,11,483,2689,124,2265,1898,509,3247,3068,2274,2270,2692,3302,0,0,0,0,0,0,0,0,0,0,0,0,0,0,0,0],"split_type":[0,0,0,0,0,0,0,0,0,0,0,0,0,0,0,0,0,0,0,0,0,0,0,0,0,0,0,0,0,0,0],"sum_hessian":[2.8068105E3,2.1856235E3,6.2118713E2,1.1778158E3,1.0078077E3,3.5667877E2,2.645084E2,6.256554E2,5.5216034E2,1.20054886E2,8.8775275E2,1.882839E2,1.6839487E2,1.9923953E2,6.5268845E1,4.8667728E2,1.3897815E2,2.2510655E2,3.270538E2,1.0971825E2,1.0336643E1,5.447883E2,3.4296442E2,2.9871386E1,1.5841252E2,9.935016E1,6.904471E1,1.6664409E2,3.259545E1,5.8717617E1,6.551228E0],"tree_param":{"num_deleted":"0","num_feature":"5377","num_nodes":"31","size_leaf_vector":"1"}}]},"name":"gbtree"},"learner_model_param":{"base_score":"5E-1","boost_from_average":"1","num_class":"0","num_feature":"5377","num_target":"1"},"objective":{"name":"binary:logistic","reg_loss_param":{"scale_pos_weight":"0.446153849"}}},"version":[2,1,4]}